-107.692465697,36.9414135309,5.056332006e-11
-91.8594160594,43.3669691099,8.52651282912e-13
-63.8565246716,41.8332731819,7.89638562912e-12
-113.39163322,31.8114053782,2.15580993752e-11
-112.619196183,33.6251262412,4.26205065464e-11
-47.4291862907,14.8166681683,5.00186373651e-11
-85.0953758139,44.3468281599,1.77647714288e-11
-68.9684466563,41.1326780266,2.64213411754e-11
-120.045268252,17.962679558,1.7077466764e-10
-79.744145081,43.507992464,7.51121743242e-13
-78.4020671859,44.282336646,1.85541670311e-11
-52.1903855265,28.4277900114,1.00197055492e-11
-57.1404884596,35.7472815987,1.84521764658e-11
-112.771285761,34.5323655892,9.79123081909e-12
-73.8053823572,45.4366808042,0.0
-86.7469450092,44.1727493911,1.77812217897e-11
-66.3750565996,41.3361056866,2.30751375289e-12
59.9443995264,-520.482004253,7327.10343971
-112.357332558,33.1834780143,0.0
-39.0204278576,-704.185721252,1756.43087615
-183.197467711,782.739354706,6191.50484851
-114.613354458,31.9350828402,1.48837628446e-11
-2593.19912397,-1093.03585558,5327.55257234
-82.7521689303,44.341916869,4.26325641456e-13
-52.8001683211,31.1243337967,2.25313283821e-12
-48.3667689034,-84.2070795907,5522.93575414
-50.0817735145,25.4111035312,5.4198904746e-12
-76.458794061,43.4196783997,6.86560124897e-12
-52.3104610018,-59.5509201607,4111.69150575
-118.731132628,22.3868036514,7.97245120758e-11
-55.81162242,36.3635784324,1.11467242593e-12
-100.077658604,-542.577086519,33146.4836974
-62.6814374594,40.0299378509,2.04759446277e-11
-91.4794150178,43.6763146696,4.26325641456e-13
-113.713397708,33.2414578795,4.9016730135e-12
-35.1974610923,49.6240472936,3160.54832394
588.029478984,-3886.43283674,4237.4150803
-80.892249753,44.9363106845,1.45423988064e-11
-77.3180750858,43.296797732,3.81979431046e-12
-95.7613939013,42.6407749131,3.39963988747e-11
-62.5809779341,38.8460701659,1.59795626129e-11
-91.086868945,45.4928618548,3.97104345997e-12
-66.0969504686,40.6289731325,5.97547131533e-12
-58.4454311775,36.7761445833,2.00002082097e-11
-95.973108509,43.3086951681,2.39082293769e-11
-70.0288367582,42.8200751481,5.07543497902e-12
674.096633502,10805.8128822,1066.82959004
-65.5460842808,41.7444240678,0.0
-64.8383758422,41.4241997149,1.7393413633e-11
-45.2210616469,7.30126854854,1304.81694081
-83.8208401938,44.3641391612,3.75549000161e-12
-60.5926175332,38.005205749,1.88365604061e-12
-1823.06456756,-289.791702976,4974.81448769
-48.2107135379,17.5263922567,3.22671767722e-11
-111.01977568,34.6091623033,0.0
-103.743375509,41.5606190757,1.22773024462e-11
-46.9922746252,9.13597342102,5.73100081937e-11
6164.37099381,-712.760212618,5785.26578159
-90.4223702365,44.1472157049,3.69560559178e-12
-59.2422622047,36.5636586466,1.5658188023e-11
-68.576577779,41.6854102224,9.31128528936e-12
-111.896085803,34.7284847013,1.93528659671e-11
-51.3432141193,25.5567538613,1.97348447031e-11
-83.9443560762,44.3315173179,0.0
-100.171887882,41.564801421,1.10618765672e-11
-51.8022193974,31.4695042082,9.37860524093e-12
-57.8186562465,37.5428414935,1.25458046168e-11
-112.444475606,32.7258939869,3.60284308298e-11
-47.7321731931,19.0074205813,5.61212870834e-11
-72.9585441206,43.6776396531,1.62433894398e-11
-69.3163731961,42.9055997428,1.07040694345e-11
-67.8710695999,40.9433673175,8.05691812274e-12
-69.2284611584,44.339067247,3.75701410447e-12
-109.54268724,35.4150667566,3.54522295479e-11
-83.5733340868,45.5616478709,4.26325641456e-13
-97.4870917539,42.1282965181,0.0
-57.5492098902,35.9767731422,1.82188512744e-11
-63.2185091148,40.7294745686,1.23857776213e-11
-70.91097326,42.7040959973,4.12818982628e-12
-49.3866282451,26.6740497103,4.20825268298e-12
-48.4456858319,21.3806852905,8.22087567915e-13
-89.1525368315,43.260060085,6.88339580504e-12
-96.2225028959,43.1721682026,1.05177669105e-11
-111.649182849,35.3513182238,5.20449513335e-11
-118.093034854,24.2190809197,7.18891989177e-11
-55.2180675776,34.7075132974,7.00938514336e-13
-78.0042099738,44.9587571253,3.64511302039e-12
-74.5225315393,43.7993436292,1.8236060845e-11
-65.0088769905,41.2814619411,3.93380981931e-12
-60.3998912899,38.6743177093,2.04787483538e-11
-80.4341164989,44.5159709284,1.0976937035e-11
-93.3097530048,44.4169402659,3.16222028914e-12
-49.9688769683,22.4117635307,8.69220380818e-12
-64.5830096057,40.2155338704,9.89026900081e-12
-78.048324914,43.5541885869,0.0
-120.597742722,17.6142364757,1.7793430009e-10
-105.586690736,39.5464892314,1.14567636353e-11
-60.1113779065,37.10018068,1.03774747649e-11
-67.7738308602,40.627907976,1.11776239886e-11
-67.6537148262,42.2764743124,5.86334176672e-12
-57.5025149066,33.8393359804,8.64534961851e-12
-112.834988722,32.4669494967,1.06803226238e-10
-96.9941616998,43.5676509376,1.81870104902e-11
-54.6807806294,34.4265049655,4.53085403286e-11
-119.467100319,19.9558399824,9.31997416306e-11
-66.4130114557,41.9503707782,4.26325641456e-13
-70.1842467759,42.7970290279,8.07912241607e-12
-51.7428035041,30.5758414206,0.0
-65.6509053049,41.1670921424,0.0
-90.1573990593,43.8263311445,8.52651282912e-13
-13.853649021,533.397898372,10512.5632187
-77.3441837426,44.5170609543,1.82443137982e-11
-47.6716781457,17.4306612596,0.0
-113.916127935,30.6281156635,1.2486524687e-10
-90.3235578091,43.9105041548,1.73311602404e-11
-79.132044374,42.9797902119,0.0
-92.2944794065,43.4915244966,7.61630302688e-12
-133.642886702,143.64419838,8224.29984571
-64.7561455632,41.0997077486,0.0
-64.8333564128,41.4846209186,1.58483179797e-11
-74.6309657916,44.8019867313,3.72876937377e-12
-49.2262585155,25.1760018947,6.53083315893e-12
-82.3844880839,45.3862732754,2.87947231151e-11
-69.6000512218,44.2951050141,1.15676573643e-11
-61.4513406095,40.5699542776,3.35496097117e-12
-111.987755169,34.2092298975,5.09351509791e-11
-107.585383186,37.9723703394,2.16872484264e-11
-54.7241089092,34.0877565695,3.83263023036e-11
-96.4239710808,43.191647862,4.26325641456e-13
-88.7560290404,46.1492574622,3.56975816415e-12
-97.827087351,41.8807543969,1.91959726456e-11
-119.884963953,18.7789318849,5.27278367213e-11
-122.279539876,15.9826826487,823.786343271
-64.7461465936,40.5575002227,2.88967203192e-12
-68.8718164497,43.2598193166,0.0
-103.003183544,40.9176971757,1.28882117027e-11
-56.9856232475,34.3964620722,1.13865500721e-11
-68.5098130786,42.3274294523,1.07508454499e-11
-61.1542746164,36.8619393354,8.56270780494e-12
-110.109654388,36.288186378,8.08376358117e-11
-89.8122352849,44.3852661342,0.0
-54.1040225567,31.3195319959,2.05209219172e-12
1.13855094774,-360.951943199,4002.39436902
-67.340977073,41.7883582242,4.36967850277e-12
-68.5517509104,43.8463262884,3.33006438775e-12
-68.2071390131,-51.6098549421,3114.69295724
-75.8664398871,45.0330967719,3.13116478162e-12
-54.1962026416,-272.94925582,4266.22512344
-66.4010590997,42.3482119831,1.24763171594e-11
-37.8923857733,58.9200720072,3458.34347821
-105.813134643,40.1453979297,2.45963143097e-11
-47.6207933702,13.6972725162,5.47765807243e-11
-80.1153041506,-3.35673762325,7102.17585717
-61.7326599155,39.1627861073,8.88270959334e-12
-221.326615741,581.138848309,4039.59705932
-47.0336012947,4.59898933681,617.35730592
-74.0336669662,42.4552782749,2.13957701073e-11
-71.9254181052,43.9813038018,0.0
-117.908053291,24.5361105505,3.70585177786e-12
-470.796401415,1109.84296654,4695.34402599
-100.973494185,41.7208431763,7.22043708229e-12
-116.9888202,25.5088960764,0.0
-72.6994833754,44.2792931801,1.0212961868e-11
-46.8210446093,1.92299411566,471.207738001
-48.4740011612,20.2704841651,1.73054383564e-11
-106.03133504,37.8520931155,4.26325641456e-13
2518.03815952,13.8702635113,4391.49328346
-69.2168428099,42.2285361736,6.98339490714e-12
-72.4318337807,42.517222037,6.28467291016e-13
-105.286990668,40.9456620316,2.49057415182e-12
-1827.38797613,-7.07590051087,5051.63190347
-99.0887735231,42.1094424886,4.26325641456e-13
131.195751077,409.461445409,6377.70396451
-62.003952513,38.3855214483,1.5537359263e-11
-42.6419443252,-707.556827033,1280.33079595
-115.789409864,27.7438716928,1.12373361034e-10
-98.1369720175,43.4461632904,1.63480894685e-11
-38.9529823113,18.2241269484,1996.19319293
-52.2499467028,29.6112688249,0.0
-80.0503049284,44.2762410134,1.77859534742e-11
-93.6245528729,44.9586604368,4.00164920836e-12
-51.5805870872,29.3843732935,5.38560636818e-12
-56.7686646788,35.1492557818,5.50696542435e-12
-39.6799169905,2.70526379005,1774.32824951
-116.622764109,29.7233166889,5.8091000216e-12
-110.867123993,34.6290558344,3.16937915128e-11
-91.3430342012,43.8338598028,7.42981857155e-12
-50.8768186363,24.3818314688,1.39484053643e-11
-102.409781775,40.8860712995,2.37255398411e-11
-58.3306599384,36.6053557784,3.38844792813e-11
-90.0715702435,752.433950234,5808.75439218
-108.910000678,36.7653933621,8.87051425996e-12
-53.9574502309,33.8216817128,1.00928806591e-11
-106.227428235,38.8283560602,7.3396085257e-11
-54.4166189741,31.9053834048,1.57959467355e-11
-72.9289742035,43.3562070158,0.0
-73.8060035455,43.37144996,3.26961829015e-12
-75.9028956575,42.7849628925,7.20594577312e-12
-54.0517709663,32.2076270754,2.4044937958e-11
-44.6030000915,378.811621239,924.68210208
-15957.1324039,-697.040311311,5962.31647168
1048.71305666,-337.367395875,2784.60817422
1779.55484772,-661.59914512,4573.01188798
-117.629178754,-19.1553106822,2920.02095033
-113.020196237,32.672111031,5.77683644569e-11
-73.8514362374,43.4163787197,1.49970623405e-11
-54.8283962934,33.3193706471,1.00626337129e-11
-120.675531709,12.043967265,2.54866024081e-11
-112.846235485,33.8980558921,3.45724244295e-11
-48.0352162056,15.4668856831,2.87523329978e-11
575.207636643,-1021.12601877,4096.54598472
-96.3548356694,42.5957567131,1.67886896976e-11
-90.8695773518,44.0714035639,7.46171739073e-12
132.686912757,886.008833197,579.444862962
-55.2088940187,33.8655686011,8.09050407193e-12
-62.7615930101,39.2135012056,1.30562609131e-11
-70.947236014,42.1003113895,4.26325641456e-13
-97.5916041389,43.3571428097,1.07966102581e-11
-66.982816041,41.5499714027,4.85431089145e-12
-108.196540158,36.5958517548,4.30921581844e-11
-120.514128601,-15.3485205768,1789.34230932
-97.0115376335,42.0429769997,4.26325641456e-13
-71.9967003874,-176.13860041,11620.330067
-59.4637800607,35.4173274362,4.3224450843e-12
-117.195866631,25.427043921,8.01247279449e-11
-52.4393356438,-74.2835528884,4987.61320968
-45.4504179787,4.1206973568,846.746413815
-928.618742951,-308.219386572,6390.76330526
-52.2779684245,30.094793011,5.50339551652e-11
-110.190251151,34.9276479634,6.99068061085e-13
-115.005563132,31.9980329632,3.33107712115e-11
-59.3102932634,35.9129277637,2.53995821061e-12
-76.9407396816,44.0759681016,1.00300896532e-11
-56.2089598022,34.297160472,2.93084508798e-11
-103.093740093,41.5157451279,3.13284967949e-11
-95.1889449828,43.5271434306,2.07907358222e-11
-82.0582112519,45.3281117511,3.62189623184e-12
-66.4660620139,39.9069347087,0.0
-73.5189592224,43.7715108999,2.30217014179e-11
-59.7489027325,37.5585684571,2.1065943394e-11
-77.4104682882,44.7977234449,7.40153552603e-13
-70.5994635058,43.5989564802,7.98810953672e-12
-32.5849537298,68.4884639354,4182.67124819
-50.4892671097,23.8161016096,4.96441106557e-12
-84.3595119655,44.7676524204,0.0
-59.4407262359,34.9465921887,8.49450753588e-12
-47.6621218082,20.5222397511,0.0
-48.5902887335,15.3909361923,1.0435891725e-12
-120.225133927,14.5594110271,4.69708386748e-11
-79.8538193229,44.7837240387,1.10260372472e-11
-101.353659357,43.020162471,1.15887937237e-11
-216.309659258,-958.211892615,3410.06120376
-99.8500118774,43.3828437249,4.23907343807e-11
-103.985503529,39.7302368016,4.96870441358e-11
-50.2735292598,28.5005207959,3.68235457677e-11
-100.766272098,41.7667486494,9.18764128394e-12
-86.1878441574,43.8627280218,1.78332325229e-11
-83.0052317993,45.1844978607,7.22424162889e-12
-39.4284129757,18.9298725184,1803.08595577
-50.9361477553,27.1865848887,1.97917612376e-11
-72.2996138098,43.9587659065,1.05058574575e-12
-120.39133111,16.9674332399,1.60650638524e-10
-53.7835315533,30.7997604866,1.06858889921e-11
-94.6355529354,42.6070037128,1.85577786915e-11
-93.0107864366,43.6165475126,3.70377732042e-12
-79.0848591561,44.3712580484,4.26325641456e-13
-60.8493917134,39.3349593496,4.52099536148e-12
-55.8454216815,33.2967093004,1.46844830327e-11
-60.0542913862,38.1067440859,4.21858305867e-12
-110.868694166,35.7735894993,1.78503077551e-11
-85.8903080098,44.9798898489,0.0
-58.1466014161,36.8640499068,0.0
-108.149244657,38.3569481742,1.51009850938e-11
-68.5566706168,42.7363902929,7.68689735518e-12
-56.4680579503,35.1362957785,1.45670494543e-12
-75.169740838,740.020894726,3165.65745919
-97.8519699857,41.944117508,1.96985616382e-11
-52.7696414198,27.2977840071,1.78846977763e-11
-53.0228498285,30.2582461255,8.12940120784e-12
-46.5081809046,4.86380547693,712.876428384
-73.3150714123,43.8440924265,1.05609473044e-11
-77.2227684955,43.4014480994,1.02367415582e-11
-54.3130180551,34.7766510324,9.217578327e-13
-62.9170403993,39.9279401995,1.0744970553e-12
-57.8972855897,-195.848586551,8654.24870411
-103.569074282,39.7418271188,2.91777819999e-12
-53.8640794104,34.1294291538,2.10035822087e-11
-68.1013308134,42.2862104606,1.194799045e-11
-83.7632825863,44.6651616768,1.03444870401e-11
-111.202276928,34.1484219252,1.1427609365e-11
-73.8832270262,43.8810489063,7.47967369079e-13
1535.14995472,331.250821227,11732.9613813
-47.4318575072,21.0450641345,8.14718673182e-11
-92.0265479543,45.3727969357,7.38728162869e-12
-80.9851515095,44.8468731436,1.76139598921e-11
-119.958800641,-28.2047787676,2589.49770655
-53.7150364785,29.3311341403,1.51801850274e-11
-77.5887004458,43.605453846,1.06336012865e-11
-79.1587560369,44.3676202013,0.0
-47.0132687372,14.372654869,1.67536540833e-11
-755.129108004,-6.17074378877,6352.33510783
-66.0544651626,40.5599642242,4.24433685871e-12
-101.766163688,40.4664804051,2.78207499913e-11
-66.7837102879,42.2526821826,0.0
-47.2686243134,8.07623383805,1135.17155928
-49.9990416271,27.55740368,8.98236179694e-12
-97.1208640385,42.1335768948,0.0
-80.6148199168,46.1144763282,3.5719810821e-12
-49.3118827019,19.0157665398,6.03536583633e-11
-72.3539548488,43.2649074675,1.58987432971e-11
-128.652698237,-711.529807523,1573.1884641
4374.03197991,-29497.8823825,1790743.47924
-71.2048508667,41.6152025016,1.44885972932e-11
-78.5635066849,43.3567831215,7.14490854929e-12
-239.711304844,-1270.36164871,6071.59129719
-64.5227451604,39.6244554931,7.82988031789e-12
-95.7891197497,44.2560284961,4.26325641456e-13
-70.7549431523,44.1769734892,1.12359504155e-11
-88.9517307778,44.7207204299,7.31999487613e-12
-56.5439217392,33.947664926,9.53451703119e-12
-48.9704889749,21.6988905121,1.69991051191e-11
-79.2259932367,44.5426437438,1.03661781552e-11
-80.5446616898,44.7196929178,6.78605206029e-12
-84.9567127433,45.6197626208,3.67834020738e-12
134.517962037,178.263689134,4157.32080032
-58.3725298297,38.2065240097,0.0
-110.704975019,36.9633689251,0.0
-95.9333852099,42.6152252712,3.86022914382e-12
-55.6830520339,34.2282951069,4.65792409592e-12
-117.855087546,25.7768929032,5.37265819539e-11
-113.727967637,32.192722235,5.59282098253e-11
-35.6968854668,125.801950309,7154.83221159
-75.867675578,45.9787406927,1.48459918543e-11
-101.100346501,40.7122307604,1.27127091451e-11
-60.0759603477,39.1425074244,7.32039450632e-12
-104.716735183,40.2469070926,1.57977856793e-11
-63.2238685531,38.8361343224,1.25898828112e-11
-60.4395536992,37.5744939975,5.34195623506e-12
-55.3164441038,35.9466478162,2.43535047538e-11
-47.3329055668,14.2720226716,2.49568954977e-11
-94.416181504,44.2660084196,1.13885670333e-11
-83.9619148327,44.8652060157,0.0
-118.588916013,22.6486818563,3.80669340204e-11
-91.5828623292,43.4468827639,0.0
-107.830572292,36.5480133252,7.49676850201e-12
-109.932091833,36.6355780152,8.28466579204e-12
-63.5715158754,40.3498687617,1.75801149867e-11
-78.5648787852,43.7407378333,0.0
-59.2312254881,39.3064871721,2.26532835576e-11
315.323600898,4685.00650826,1016.57292014
-52.3427138226,30.5999434295,6.63564725261e-12
-85.2695328912,43.4954604204,0.0
-50.1580609217,26.9926365573,3.22817362769e-11
-68.1543772287,43.0458324438,0.0
-116.849726474,26.0686130539,1.95851564904e-11
-83.6272964037,45.0082514429,4.26325641456e-13
-63.500202708,39.7407701577,7.54789882002e-12
-55.6339619748,32.0036645788,2.55574801898e-11
-63.1735871651,39.4516978394,2.08445763766e-12
-67.095820453,42.1789104815,4.00107733467e-12
-97.244368311,42.4833564618,7.37471577886e-12
-83.0226253012,44.8174240383,1.7586743936e-11
-71.4591464432,43.6509033545,7.04940748244e-12
-48.8610674148,17.4867373103,3.47239311089e-11
-404.980468643,-2.91754603479,6408.34666289
217.185518885,519.595531847,12997.8038058
-87.2948161027,44.4148423315,1.04324012045e-11
-863.925511215,-1.06786649291,2664.71229142
-114.265720595,30.207275929,6.39488462184e-13
-92.6452299856,43.8707388534,5.5429593677e-12
-77.1526927668,44.798385079,7.96874038823e-12
-92.8011722998,45.43356747,1.84494074785e-11
-57.4958274996,38.0276128072,1.51353715377e-11
-56.003543158,35.7799600458,0.0
-69.1193679004,42.2881487285,0.0
-46.0165939597,4.97115247027,802.272474174
-89.0316501316,44.0642798488,2.17133706213e-11
-71.7829459239,43.3823462086,0.0
-49.2388594271,25.9336359394,5.73363236269e-13
-87.2785541194,45.7741711668,1.8480451046e-11
-89.411720563,43.2183555033,1.06404193186e-11
-113.287634083,32.8770507196,4.96062291766e-11
-72.0692118268,43.7419149427,4.26325641456e-13
-49.0107026061,18.8183720069,1.24743167225e-11
-78.5295313903,45.3804415492,7.23719008366e-12
-83.0569172491,44.5931419533,7.29864076579e-12
-92.711180022,43.2765460371,6.4377250102e-12
-49.2896107027,19.2137905542,2.03127295991e-11
-114.454216674,326.58500272,6759.38635412
-57.8170183577,36.0542528019,1.35184896013e-11
-79.1615360655,44.6830574907,2.21594033296e-11
-69.097733304,42.0721337926,0.0
-119.845223661,17.8354985271,1.03332379617e-12
-120.555985695,13.2062384533,1.83046224206e-10
-55.0869433262,34.7556742782,7.40018476398e-12
-88.9745334611,329.278780116,1991.0034356
-47.2475434203,18.728243295,2.18339484912e-11
123.158330603,-502.680668323,6906.36352067
-120.722174515,-14.4774844799,1543.14622314
-98.2670017336,43.0747378901,2.57845611833e-11
-100.551966589,42.3684991138,2.75039034655e-11
-76.271218513,44.8370427727,1.34715275217e-11
-88.8574339596,44.6011276891,2.13550888937e-11
-1292.99347935,989.592110271,6194.52775058
-101.750187714,41.9326866608,3.60095667196e-12
-231.046818652,-512.989700321,2100.16386883
-125.294065666,24.3648776406,1495.00743661
-109.7286615,36.8881712746,4.44900339644e-11
-136.983266116,372.756728927,5676.90634871
-88.9723277876,43.2867798478,3.13250293533e-12
-57.1890947821,36.4233889266,0.0
-79.9319756566,46.0779230759,3.54879986367e-12
-1340.53088413,218.439525286,23213.6999177
-55.3903098641,35.1590021613,0.0
-61.20525623,37.3721816565,7.5195636344e-12
-94.3946500083,43.0121959869,0.0
-53.7513068877,31.3642574465,3.07180610917e-12
-101.641737896,40.4576056791,1.42994021282e-11
-64.2343745189,40.0202026845,7.79827247042e-13
-61.6512165578,38.2341958455,1.97651782719e-11
-51.5225439494,25.4877761466,7.2725819347e-12
589.603972602,24.8054380291,2092.74222694
-99.4320101055,41.9311776774,3.76970759676e-11
-90.7258497457,43.4863382836,2.95223171779e-11
-345.323627608,2166.66368949,4398.34619357
-85.0426853692,45.2204532677,7.21969331353e-12
-3.19737430923,304.287632929,18115.0147767
-75.0626120311,44.0868670169,6.8128623811e-12
-110.605167225,34.7480372524,4.08317676189e-11
-114.812340297,31.7042743148,5.27525104713e-11
-63.5422569932,38.88641305,0.0
-62.6206805816,39.1358958097,7.86861181009e-13
-86.2925730685,43.8278415119,3.10502162833e-12
-93.2780886347,44.8552671518,3.72550441848e-12
776.966965929,-2284.43289091,4048.30218247
-73.9854479587,43.9386127006,0.0
-51.8787283087,31.5484426888,1.65672963523e-11
-44.1453214936,3.52864909935,1195.15462467
-98.3207409991,42.0373194478,1.89981491401e-12
-110.443960677,35.5261980168,1.67827167077e-11
-51.428253702,27.6000959266,1.8588541177e-11
-120.420410856,11.7388490756,3.43015551975e-10
-70.6609830098,43.4497479067,4.51785681924e-12
-62.6852917482,40.0730631442,1.29802764598e-11
-66.175841163,-99.7758516572,7885.70432848
-49.2459937991,20.4829540607,2.10173230972e-11
-91.5522769424,-457.867588017,28075.3150472
-6.59884040555,415.122614204,24613.0568581
-158.497218793,-349.418459733,3957.35661965
-69.7354766892,41.5550514481,1.8461368892e-11
-103.195355316,40.3698647279,2.35471314128e-11
294.907960282,-984.349285384,16523.7844492
-76.0566994884,43.5408981187,5.38448629498e-12
-70.4022754557,41.1136284301,7.08328022043e-12
-86.9324373478,44.2784451884,4.26325641456e-13
-54.2122598588,32.3417610789,2.47790365976e-11
-59.3575972184,35.7302787342,2.97583950445e-11
-84.7788105139,45.2668329184,7.31390858485e-12
-76.5756111553,43.1440734483,0.0
-83.8711072476,45.0701180123,3.7123093034e-12
-116.685036266,-18.7568676023,3252.74744595
-89.2959136015,45.7609768776,0.0
-118.698586992,25.6766747656,2.09527344293e-11
-47.4223884499,18.2825955575,3.22629139333e-11
-92.1692522208,43.1565800593,1.17039271404e-11
-99.5777959055,41.7929360262,2.50507554963e-11
-86.7505760517,43.5965240058,4.26325641456e-13
-88.6139056624,44.7313034615,1.09365422699e-11
-118.69069865,22.0864401357,1.38328342318e-10
-119.857498054,15.8178420597,2.91949057786e-11
-92.8956837793,42.6647053662,0.0
-109.010415068,35.7383071371,4.07059808579e-12
-82.4355454274,43.5399434489,4.26325641456e-13
-93.9367310563,42.6671040449,1.0352323004e-11
-93.4824358084,43.3001326853,1.79967255515e-11
-60.8568238453,38.6627356297,4.19818479852e-12
-105.363152609,38.4502169501,4.97562581841e-12
-103.964596335,40.9700782358,3.1610439131e-11
-51.7330160398,30.5601569243,0.0
-51.66759928,31.0601578227,1.93382534584e-11
-83.3896774686,43.6661872933,1.04940322226e-11
-110.230396778,36.2241396857,4.73640302279e-12
-103.469079325,40.861118595,2.71670503436e-12
-67.742449809,41.9117787725,0.0
-130.817990623,353.840534729,8241.36859776
-81.0916172119,45.6960810997,0.0
-54.8189964933,35.0133455333,0.0
-116.054651436,28.0531082101,4.26938663989e-12
-85.4763340786,44.6751139249,7.28837370439e-12
-112.866348175,33.5498305982,1.0352254269e-10
-104.362293606,39.370768474,3.73107656038e-11
-79.0759334441,45.2721272429,4.28598525161e-12
11537.3361856,741.616671798,23331.3529168
-48.591710736,24.4126537684,5.89993064783e-11
-66.5498232562,41.241096644,1.64820360947e-11
-75.3325959029,43.3563608661,1.14487117521e-11
-104.312524313,39.9693587935,2.21724083319e-11
-89.5431045622,45.3591031859,7.83515616886e-12
-51.2826336191,25.4616759731,0.0
-84.100126667,46.3309157235,3.53249441764e-12
-66.2737816777,41.535220734,7.67539848592e-12
-49.0312105936,24.0780846169,3.90883800172e-11
-108.088557094,37.4289400183,5.60093560749e-12
-104.530512585,38.9756105273,4.7557235499e-12
-79.9076208704,46.5013046264,2.25619425009e-11
-65.5009722511,40.700469257,6.53853597213e-12
-64.3582857411,40.1317542889,1.42585877758e-11
-78.4220499345,45.6758730999,3.59990298621e-12
-253.498924381,-465.925310173,6674.9249369
-76.1422117065,332.897538318,1891.21957202
-85.7978709971,43.9275441991,1.04483084293e-11
-102.102059109,-363.249012419,6604.32231869
-115.137345889,29.3019244407,6.99172190528e-11
-72.0048192452,42.3845863053,2.15651374581e-11
133.451973739,-7.17805964799,4755.75943986
-116.112739801,29.4576329149,5.51440270212e-11
-47.0136296745,5.92731725509,523.665017262
-98.0189484692,41.5744926822,2.55568288031e-11
-84.7234812343,44.1049774777,3.77121288763e-12
-122.575869504,12.6885059397,782.327164264
-71.4097196374,42.0122034738,7.40655330959e-12
-78.3242906363,46.063346524,1.13694510804e-11
-56.913374407,35.9182445545,2.33863085707e-11
-110.555073145,35.4189893532,7.68603662492e-11
-137.644373126,27.5498041636,2967.3997913
-50.7740734844,24.0138894867,1.35572967289e-11
-86.2485096241,44.4312940747,1.77034933114e-11
-109.390120668,36.5419866403,6.88748686403e-11
145.999913799,901.458009446,2193.1509929
-50.8999971331,26.7998355228,9.72799238507e-12
-118.892912478,22.1766139665,1.91839301958e-10
-52.9096929806,30.5696089683,1.53252497202e-12
-76.3317444853,43.7505205392,7.82115456018e-12
-97.2176196299,41.6547648758,8.52651282912e-13
-83.8361354644,44.8881481093,3.2019680168e-11
-107.029050822,37.5191468602,3.787074225e-12
-52.5898878843,28.6882960933,5.19879723938e-12
-71.9455867997,42.4465788667,4.33531367628e-12
-97.3572382427,42.3831131385,5.19830847306e-12
-40.9867568258,-14.0962002731,2468.3911147
-78.3457281388,43.9453685386,1.05145546533e-11
568.231245092,2044.12945399,5756.2184939
-58.4890366477,37.163023413,8.61703705249e-12
-41.285313124,-385.805231522,3102.74294123
-200.871437451,112.499639632,4827.53993384
-62.0023285376,40.0471123898,1.37328662291e-12
-66.5749341252,40.6245646652,7.99207291658e-12
-550.162167863,5201.34960068,4428.27900731
-81.3443328077,44.6179056574,7.33281488128e-12
-98.193546644,43.8285535623,0.0
-70.5660923006,44.7175114809,0.0
-44.853509974,6.55089329709,792.912956478
-71.6048992561,42.6552010945,3.29172656677e-12
-37.7300945943,18.7976762221,2122.25918368
-67.3283834317,41.8931882255,8.72845808763e-12
-49.9009248964,23.5802420754,3.66306257647e-11
-117.617754309,25.7583517761,7.09436056125e-12
-51.7676986326,30.1292917997,5.54017947575e-12
-227.388497066,176.978869779,1453.91693017
-103.686630293,40.2218022046,0.0
-52.8686538694,31.5702230311,1.4346177836e-11
-60.351439177,36.535962279,5.46892138546e-13
-47.69068586,21.7276560538,2.83034216947e-11
-103.998452545,40.9472080883,2.00809284238e-11
-112.172837088,-1.11963805142,6721.96634457
248.410142196,-863.568393399,4747.30745349
-68.8829082238,41.826164249,7.5995559476e-12
-60.4563228988,38.8814206928,4.22736857522e-12
-100.857500229,42.2603366886,6.98051860108e-12
-46.7007686627,6.1629026255,62.9929438391
-89.9907017851,43.6430322649,3.79906519334e-12
-47.4716459127,-8.34368409313,1305.6736852
-81.2048029912,44.7743203698,1.39476558071e-11
-78.0012984953,44.3925728733,1.06688324842e-11
-113.132438854,31.6532795455,6.25575892249e-11
-100.61510817,41.069207231,0.0
-68.0045619586,41.8228098137,6.6584610726e-12
410.693252096,550.951692806,19507.8599327
-79.1581752615,42.9797459742,4.26325641456e-13
-75.6391076954,44.020754986,1.46146868618e-11
-106.047215417,38.5168044587,2.71408527801e-11
-105.993073897,38.4590060161,4.10048996852e-11
-108.994932405,36.2687480786,2.15472882262e-11
-55.348280947,32.8601512704,5.56774708423e-12
-106.338082045,38.0719222567,3.66687232166e-11
-71.0881001337,42.4687615482,3.71854311994e-11
-101563.573658,-341.976237536,1169.92281929
-88.0479082339,44.2941606219,3.49565702504e-12
-46.7441930474,17.5915027536,3.47706807361e-11
-105.542590277,38.1117863436,2.08304045325e-11
-50.9847937978,26.8813408157,1.12032136167e-11
101.845902251,643.402453797,9190.15486408
-63.5130710426,39.1660227973,6.82456612758e-12
-65.2183397739,41.8444945065,1.60649216944e-11
-85.0421331401,43.9064476107,1.41356131384e-11
-116.460491115,30.084338458,1.31212419863e-10
-90.9104278228,45.1126286381,1.8548464734e-11
-70.0956183404,42.4909380117,2.35997471533e-11
-93.3932487958,42.8010464817,6.58286801779e-12
-95.8362387188,42.5718416398,2.9612890054e-11
1268.20966656,12857.0187441,16480.5017141
-81.1421462394,44.8970939411,7.29794940064e-12
-72.5739537505,43.8197868067,4.49235139558e-12
-47.0210001844,8.63190484051,560.580784698
-49.4674374796,23.5520497872,1.06581410364e-12
-89.637341177,43.4605528644,7.43897031759e-12
-109.953765452,34.9949532853,7.75327009402e-11
-73.8604984046,42.367098713,0.0
-35.99564961,-369.267092518,3054.32647577
-74.8875447832,44.7940416124,1.44360574094e-11
-47.2022313737,10.9589802056,6.48069040926e-11
-66.0272691342,40.1472196934,3.42675694437e-11
-78.3864176498,44.2858160444,1.43525103614e-11
-60.8731433103,36.6289071039,8.09875556681e-12
-101.119457006,40.7914854321,3.75478554561e-11
-53.901377132,29.7622443104,1.01852242224e-11
-84.8439354418,44.6283861166,3.66575456052e-12
-95.985032903,42.4415004002,9.3009600642e-12
-65.6330182427,42.9392189408,0.0
-49.7051350498,-1107.93617812,2031.83638074
-78.6663020137,43.6756696688,7.41253753908e-12
473.196151316,-2673.04473757,5398.29712888
-83.199491437,44.2631432862,3.66371563309e-12
-112.730230571,31.9701128067,1.82099395487e-11
-50.5354740345,25.7888274058,2.77971829626e-11
-64.7140730361,40.2076389434,8.12588761937e-12
-94.5668440696,42.5810716054,2.46995396168e-11
-121.559324507,-2.4142466063,1110.39464231
-51.3223461008,30.3554043929,5.57176661847e-12
-46.9219435099,18.2692519877,1.05403916515e-10
-36.2464688519,64.969071469,3833.3243051
-118.87880332,20.2123709502,4.38671763516e-11
-571.613459743,6608.1175535,3476.48963257
-91.9614851751,45.0800431029,1.17218831071e-11
-118.920244223,24.6466308307,1.96863410737e-10
-84.9536623411,44.9307006734,3.62186574068e-12
-39.4563557073,24.9174045622,1836.0559228
-56.0511862545,35.7755728184,0.0
-57.8396213254,35.7406176538,9.00743857534e-12
-402.647047311,-242.298522879,12393.2554536
-104.883331495,39.7356604282,6.55690407266e-13
-48.7024523399,18.8221389507,5.23063820649e-11
-82.2780283739,46.6031430989,3.54063289978e-12
-90.5273812933,44.2244528942,3.17185760727e-12
-74.1403544182,45.21180757,7.51677149122e-12
-47.9969700775,21.6715928112,2.72768077565e-11
-11.6554134649,685.574821992,19251.8901361
-74.9696989771,43.3284732072,2.79124660714e-12
-47.2014063473,12.5303984871,5211.23382241
-119.796063816,16.4508481748,1.34337959976e-12
-114.824086526,29.7604718961,7.62972441078e-11
-83.9231961151,45.8699189506,1.07627250379e-11
372.091954731,-3.55685892639,6222.74783818
-112.695679525,33.6263780093,1.39803611145e-11
-79.7412548085,44.2037354961,7.45226805217e-13
4323.44039057,20931.9283893,3935.03597719
-104.080311093,39.0939041714,8.11073599606e-12
-58.8700651058,37.4914126051,0.0
-78.7793267504,44.9885205025,6.84909056269e-12
-87.0812552879,44.7274500457,7.28181080772e-12
-90.7199012516,45.1245668043,0.0
-47.8349122591,21.9227797457,3.7254027457e-11
-54.5342383916,32.2196066283,2.02399724227e-11
-120.814438467,17.9814980411,2.09086680366e-10
-65.1362330307,-198.353239696,12412.3477263
-80.445717237,46.0604379816,1.49441594616e-11
465.177404241,-8186.30199921,5448.54962097
-47.6355394083,16.2583018145,3.50909331373e-11
-93.8425972757,43.5835079002,2.93210572295e-11
-87.1447601297,43.8883564132,3.71155988952e-12
-71.113384583,43.2701093665,7.29258874978e-12
-60.5782598992,36.0628797751,0.0
-118.848612841,20.8074147613,1.53017658166e-10
-71.3743775997,41.6592941543,7.45955781148e-12
-77.9899109656,43.4088619241,1.75987505065e-11
-112.145375824,33.900062367,4.52134081804e-11
-82.9292716344,44.6834448335,3.66232271745e-12
-56.5102635471,33.9584008783,1.32696047597e-12
-48.0503928738,21.5364008644,0.0
-99.2542321504,42.0300735926,2.28986325479e-11
-76.1909047738,44.6283806562,7.71797574822e-12
-92.6274099731,44.452399215,1.76756600471e-11
-98.069333079,44.2649569356,1.17886899891e-11
-51.0529126601,25.883794132,7.08567658455e-12
-108.658400487,35.8888384514,4.29797253229e-12
-103.921807388,40.3867268879,3.95658752878e-12
-57.5772950203,34.4351872985,2.37626852049e-11
1217.74417439,886.115748549,1255.22206453
-67.1145122114,40.4514291295,1.09951438004e-11
-53.8978903644,32.040127368,9.83013608688e-12
-92.9348743081,43.2913649462,3.35635980931e-12
-69.1941626003,42.985544581,3.37075039732e-12
-117.093831885,25.1632601492,1.31775392764e-10
-67.5251982047,43.5900971671,1.94721071554e-11
-63.4492545628,40.0212491101,2.0782502063e-11
311.881436351,13.5921164292,3364.98288786
-66.7939922185,42.2181021162,0.0
-66.053917625,42.7472095733,3.78753347941e-12
-47.0297123606,10.8331425027,0.0
-84.5561971233,44.8813291666,7.24995560011e-12
-116.564547996,27.5069744678,6.16498071075e-11
-537.491856059,-529.415563718,6351.62170635
-91.3842626726,45.0886721234,1.04374143114e-12
-106.677935077,38.3756680589,3.05276706815e-11
-65.5505264587,40.1723475354,1.07307449608e-12
-114.750628153,29.4552600285,9.98252629448e-11
-64.5605738942,39.5360080998,0.0
-57.2146031462,35.825621039,0.0
-95.9501928583,43.143622086,2.09180319838e-11
-94.6829137821,43.3795489229,2.47682757179e-11
-57.7705974228,35.437433222,1.84346498711e-11
-46.3593457061,13.3307454942,5.74367567219e-11
-63.694538716,39.5088324766,1.11981679843e-11
-57.1163967422,33.7736119488,1.87415776615e-11
-42.3493027119,360.946930556,1537.1442424
-78.9609104475,43.7482443318,3.5203252409e-12
-48.3172824997,23.7407489146,1.50300778968e-11
-62.7634658932,38.5165947734,1.02659555694e-11
-94.2424677416,43.0520378116,7.06264143707e-12
-99.491412108,42.156149735,0.0
-65.6528223485,40.9806150726,4.26325641456e-13
-70.6042438344,44.3941745741,1.5231059606e-11
-97.8257813611,41.8235030792,8.93659204321e-12
-90.1100370099,44.5916510512,7.59176963357e-12
-116.999610474,27.453418607,1.57216856181e-12
-75.7834785329,-429.675018698,26278.99882
-36.5111145619,14.1614495838,2338.81043203
-63.4784862893,40.7463513383,8.24606534123e-12
-63.3031615473,39.9140132485,8.08267799208e-12
-51.8302909289,28.2307871562,6.71765514677e-12
-106.864440567,37.416844745,4.80597947988e-12
-97.3072119698,43.801306394,2.64969404745e-11
-90.5168118156,44.4989280492,7.60291831638e-12
-85.5094436736,44.191003396,7.3857990875e-12
-47.3782354549,19.812725364,2.27738689942e-11
-35.7918389922,-2.36752514835,2734.95246374
-67.6225128084,43.5471667938,2.61494868871e-12
-85.7959527076,44.9968660746,1.80934777564e-11
-95.1172816772,44.2416342221,1.46819771032e-11
-50.1320071232,27.6658680277,3.9320025319e-11
-53.671866632,31.4120688489,3.13889878475e-12
-51.7282330465,27.7504991172,3.73577007412e-11
-62.9918985589,38.6084914378,1.23379818945e-11
1496.70277465,503.789472216,5185.44826461
-87.7201133625,45.0777617137,7.37749250569e-13
-64.5899586735,41.7435447693,2.84808716855e-12
-73.9750819425,43.2803525816,1.02559044579e-11
-60.9880854183,38.0956442709,2.99058058293e-11
-100.174810276,41.0724960243,7.08692924499e-12
-107.390756403,37.0685247911,5.37441401529e-11
-79.2565267385,45.8670153905,3.5623400519e-12
-57.6464724858,34.7394115132,1.14936788965e-11
-52.8549216054,31.7588638396,3.35761084046e-12
-104.211998287,40.8064970179,4.40034256195e-11
-85.9330644082,44.1313761557,6.74533506691e-12
-50.6687601932,27.1880690557,5.57526219448e-12
-108.198250816,36.9245439789,3.44365173229e-11
-45.6862965791,14.0479660101,889.023474959
-40.6379622654,28.1012651349,1882.61350527
-30.3652658942,90.4243607749,5398.24242197
-63.4457106234,38.2853630267,2.42225008226e-11
-20.1320009256,-277.947201302,17453.5537449
-103.599867821,39.2852263736,4.49703281824e-12
-63.7716341727,38.5262621954,2.75862595118e-11
-80.8555028458,43.6962744462,6.78124883843e-12
-55.9910053666,33.7428780024,4.11692893852e-12
-45.7264819531,2.48405280639,847.373563083
-55.3974708429,31.3527917761,9.75204011585e-12
-69.9512260843,43.5167605841,1.98552733492e-11
-72.5390293386,44.5174373151,1.04720779371e-12
-118.912238416,21.2778870271,7.16976520057e-12
-80.833008457,46.1909556112,7.72052837743e-12
-65.5025435803,41.6012892307,0.0
-105.375826454,39.180428973,1.5730189499e-12
-83.1122532831,45.3740636038,1.07898220933e-11
-91.8340894801,44.6318371216,1.81003739177e-12
-97.2976167931,43.1285133681,2.22351669e-11
-80.3615533618,44.6393738025,7.33013990901e-12
-100.303743071,41.9413047165,1.53713369726e-11
-121.161457154,11.044827148,3.48312070381e-10
-114.979897483,31.4643179137,5.33300211159e-11
-114.575201978,30.7325463224,3.53446180859e-11
-1101.6860587,-1024.74606384,2856.79463509
-52.1222079679,31.5992402789,1.56693533015e-11
-75.765171729,-327.881787522,7523.63446181
-58.2899710747,36.7158662023,0.0
-156.940321598,33.4535591091,4292.3238536
-102.724751138,40.9085728889,3.91719146767e-11
-70.8449056036,42.5337140103,5.90625361133e-12
-114.377164719,32.4552316178,2.57185240318e-11
-79.8603521312,44.6563696882,3.06242304439e-12
-102.641278449,39.8180158423,1.83068045668e-12
-71.6255854327,41.9034201409,1.443318989e-11
-82.0213984601,44.3007927268,4.26325641456e-13
-82.2310857486,43.8025736068,6.76921602733e-12
-126.450343083,17.0856679683,1726.55899698
-103.27094891,39.9458229226,7.95841027031e-12
-56.348600721,33.1704315511,3.25810376255e-11
-112.318918616,33.3915240545,1.11077488485e-12
-72.4402890495,42.1496228879,3.40971619125e-12
-117.273742096,25.8834647293,2.77667044531e-11
-75.1925963398,44.8853281938,7.55634753778e-12
-93.2884046575,43.6838050824,9.71861145346e-12
-119.280479998,-32.8506587653,2797.52304442
-67.0962578373,41.7899290858,7.42545769904e-12
-61.4058822163,37.7982502211,3.43608865273e-12
-128.596831385,64.4033849464,3598.82227907
-15502.0257082,-719.435569071,3159.29067634
-58.1036553658,35.7961683631,1.87032544445e-11
-65.7837682781,40.3305201176,4.13588041298e-12
-93.6940348535,42.5397139321,7.11794632778e-12
-924.288049123,-1654.1936967,6083.59077636
-92.7193529465,43.5262426983,0.0
-58.1707602133,37.5556744421,2.30761684523e-11
-82.9760726925,44.5785837741,7.28800392405e-12
-56.5046827088,36.5033470853,1.87116867121e-11
-58.0489946129,36.9818107969,1.58512826109e-11
-53.2455100984,31.6538949295,2.20562833416e-11
-55.5736151882,33.6334034066,2.10985745815e-11
-1078.34799575,-1088.6502243,4146.38059329
-91.9176926207,43.1675661884,2.12574473565e-11
-110.655835021,36.6889379851,5.33998624142e-11
-73.6041537912,44.7631115894,3.73114976362e-12
-309.598831473,2326.89276234,1943.79807871
-47.4995724771,-29.1218848895,2541.92826715
-80.3508205026,44.4585112128,1.42292952603e-11
-48.1343230336,17.3221770948,7.42718048772e-11
-58.5383071045,35.1881918295,7.1576820754e-12
-74.9231294651,44.4464167882,0.0
-23.2399966234,140.324862223,8324.79577609
-115.321477524,29.5990105618,1.44693924657e-10
-52.6337619603,31.3426278756,5.72110215974e-12
-70.6023214191,41.3983355784,3.62425803635e-12
-62.0772513916,38.394702823,2.07838171222e-11
-62.0155441437,40.0582996941,5.19275037149e-12
-47.3554326091,17.9722398471,3.14999268141e-11
-48.1323066718,17.3018385344,1.12034030828e-11
-48.3349590068,24.2836967347,5.2077476227e-11
-115.153656481,30.0050044922,5.50151115267e-11
-68.3444871286,42.5153588057,3.39273476769e-12
-115.865936941,28.125432104,3.57326098347e-12
-116.179395008,28.7517592806,9.31268811692e-11
-58.3621454277,34.9618252808,0.0
219.938893003,51.6618544874,7639.89532738
-98.9619215216,42.9580596498,1.85136990703e-11
-62.1904680653,39.4692729531,3.28248723958e-11
-76.6861558061,44.0235201921,6.95638975922e-12
-103.219594584,39.4489210783,2.11783496706e-11
-63.5082877852,39.7101949373,0.0
-77.2158137042,45.0421391107,0.0
-48.7130675097,22.4263382138,3.01482393302e-11
-50.5672245777,26.3311563595,7.39852754307e-12
-60.9130176406,38.5800672194,1.26104964822e-11
-104.579025053,39.6007597938,0.0
-121.756804842,10.1804507568,672.33409196
-64.3751542527,41.4188229345,4.19832401966e-12
-91.5468821309,44.2247835838,1.12918592945e-11
-105.779592659,39.0650354129,1.44015939161e-12
-94.7790807622,43.7960655271,6.88970615939e-12
-96.7642536857,43.8494328458,1.44628529532e-11
-115.488156748,29.6831505277,1.10199127173e-10
-50.5242056533,23.1723289834,1.48340676015e-11
-95.9053384683,42.1446811618,9.82194529104e-12
-66.4506098128,41.5099073853,0.0
-51.3987775459,-261.181494387,4944.77896945
-53.6105610993,29.8157839185,5.36608129016e-12
-83.1890342388,44.4477975101,0.0
-75.4343441742,45.332231058,3.62163647461e-12
-103.813303051,39.5357244686,2.29158216453e-11
-96.7256745092,42.0269181028,3.35674476012e-11
-97.3046948173,42.4369288805,3.87072481372e-12
-46.5333123342,10.106547871,8.29723689919e-11
-66.4901275304,40.6169530354,3.63945368612e-12
-45.5617488824,11.2847403507,721.553915979
-62.1313366595,38.3652074852,1.18466745697e-11
-118.933579042,24.0641925091,0.0
-66.9525364175,-5.05773602748,7304.68102387
-112.380312889,34.3406084911,4.69101221045e-11
-48.2921776529,21.756842888,1.02964816323e-11
-98.2421203128,42.0465592012,2.88111409711e-11
-119.714884815,-29.7588864923,2670.52046661
-49.5563810263,22.1189427298,0.0
-113.407817294,31.69541353,1.89302072887e-11
-127.701042369,32.9955853351,1995.78684846
-33.7344616772,18.2060197072,2563.50408561
-113.755434448,32.891198696,6.06222346362e-12
-50.3469957516,25.8283297404,1.43986196092e-11
-53.8964577813,34.3868991128,4.97474824265e-12
-80.0934947809,45.4170534956,3.69090343231e-12
-60.5584409642,37.7528530263,3.43738713014e-12
-103.422175912,41.4095080001,4.7722354863e-11
-99.0099223174,42.1314560691,3.32551496089e-11
-91.2893963555,44.983178409,0.0
-58.527231182,35.638557872,1.78650403313e-11
-67.8379155369,43.3271241772,0.0
-66.7486458619,42.0987322926,4.35351803381e-12
-118.516214573,22.5623106413,1.59068351463e-11
-92.9970056229,43.2393407753,3.22069189105e-12
496.547647205,1611.26319469,1349.38939208
-95.8864438017,43.3405837576,7.031270617e-12
-55.8541004507,36.1033592176,2.83905102165e-11
-48.0920555365,12.049330151,2.24536333358e-10
-120.52910438,11.4058844623,1.12035807839e-12
-61.8657149508,38.6647249393,2.46972198293e-11
-69.8073357568,43.1487538144,1.17052987423e-11
-48.4852957215,18.6541427317,1.05149306162e-11
-90.9055208298,-87.9956829958,5605.18624063
-49.8589579732,26.0703680225,4.58415749878e-11
164.288368849,-1654.30715464,57382.1580167
-74.9236641705,44.9034219606,4.55850330162e-12
-54.1150146964,31.628771512,4.30638167329e-11
-74.6429837841,43.4613312005,7.133684075e-12
160.73619293,-338.645128273,9884.08477675
-61.5157071289,40.3629339799,3.64644433983e-12
-53.7708824209,31.1314511356,5.05064222278e-12
-101.187652938,41.8441662435,4.23516583373e-11
-50.1954723138,27.5708883976,6.14120449854e-12
-61.8091861925,39.1052509573,3.14841218136e-12
-31.6926822158,96.2668351342,5926.46844551
-97.6744015797,42.1236221014,1.83871633032e-11
-34.4475296263,41.6945134288,2879.27552839
-111.469004866,35.4339511394,4.17941226781e-11
-50.3820582737,26.8165405744,2.58974778575e-11
-78.7614725933,43.8198765395,7.49242953736e-12
-108.394743818,37.2977937294,5.65207779256e-11
-56.3936781925,32.8978499657,0.0
-62.2058169403,39.0200090954,2.91433764313e-12
-52.6077246634,29.6635618087,0.0
-54.633919579,32.3167707559,7.52339237198e-12
-23.1538056457,4.10794225528,2780.64541022
-73.1666245825,42.7215844841,0.0
-81.8296929383,44.0626615962,1.04940935293e-11
-22.7809708205,-19.4930068209,2901.71516355
-100.581228065,40.60711128,4.26325641456e-13
-106.382638826,38.4050011072,1.34389406607e-11
-54.0645287333,32.4478211283,1.2108935112e-11
-104.843345012,38.6043862975,2.88766785908e-11
-52.4223872721,29.3488735718,0.0
-71.5811168147,44.8732437252,7.55780844475e-12
-80.5943117758,43.3196781131,3.72201301787e-12
-110.115060415,36.5348622817,1.47072976874e-11
-40.4078165401,12.7702965402,1399.30641487
-73.0283890044,42.8631218503,7.19763847659e-12
290.725810681,-1754.65672967,29520.3750712
-76.7114387319,45.2046821421,1.05283477242e-11
-49.3730448511,26.1484244616,5.86878811892e-12
-91.8413593772,44.910018298,2.95676151188e-12
-74.4925553836,44.1943728081,4.78084932743e-12
-110.843050419,35.1533823797,3.53643514877e-11
-69.2027011939,41.0077954273,2.87398242357e-12
-50.1314083066,24.8452347268,4.18249792341e-11
-93.2555799158,43.0759820607,1.0402350317e-11
-105.276668285,38.4366689928,4.99641147269e-12
-57.4031417233,35.9742604771,2.63252953366e-11
-72.0308520465,43.7006223649,4.26325641456e-13
-68.113430136,43.5329740705,7.80754778002e-12
-51.1270478045,-45.1734801994,3191.79768601
-147.233681722,6.72448159634,3915.71122803
-85.2155132249,45.1894349251,1.08500932277e-11
-53.6104730454,33.9911316511,0.0
-95.0600708911,44.8126421241,2.25188050692e-11
-84.0206701136,44.003762335,1.04349333843e-11
-97.7920002379,41.8801266436,0.0
-61.3053685357,40.6777417436,0.0
-58.5568339206,37.4835141306,2.58803492011e-11
-57.6840833656,37.7992355604,1.78586478949e-11
-46.7927605904,15.0296212176,1.33798163595e-11
-72.7910543654,44.7746394217,7.56971818492e-12
-54.576052085,32.3899760146,1.00926307234e-11
156.764172041,-1577.83750006,10963.4151909
183.879101933,-190.581149774,4206.3998949
-73.9756306758,44.930756538,7.95090992754e-12
-78.7968916823,46.2644365989,2.20752375472e-11
-79.8909510392,43.9524882625,6.8058288413e-12
-87.9534671558,43.8572551861,1.42433074938e-11
-114.134262341,30.3275213692,1.4172613405e-11
-78.6508742258,43.3730720322,3.35250294305e-12
-81.7841496366,44.3295630767,1.77699548447e-11
-73.5645284577,43.9083187033,4.38377141408e-12
-50.6329561159,27.9236963251,1.70243426693e-11
-58.6386697996,35.9214403712,2.08787291143e-11
-47.6479991408,11.8642343439,5.1698718523e-11
-62.0688317065,39.9997316215,8.5562128502e-12
-104.311055899,39.229165223,1.59257488934e-11
-83.2335719634,44.9689593737,3.64447370464e-12
-107.774331835,37.169272902,2.93665317976e-11
-116.129126841,27.8760496714,0.0
-110.228983391,34.8944396502,6.71938753186e-11
-47.3235564028,18.8777880995,4.87806872074e-11
142.623009493,1605.86127383,2030.1736207
-34.5400681042,66.32427898,4060.4918051
-104.270778446,38.9324500539,3.40333687728e-11
-45.6185907023,12.3215169396,768.509212553
-120.351830601,-6.48833148368,1003.95442737
-68.8763313234,41.8209397221,4.17654374033e-12
-131.188294333,26.8048964531,2267.75237929
-86.1022178416,43.9478087155,3.50563287795e-11
-52.9823328134,30.9585942405,4.26396633758e-12
-48.9376878216,24.9497970817,2.0808661107e-11
-33.5584795409,10195.6472456,5670.86203416
