-74.3770198672,53.0988233592,4.78188076226e-12
-111.298147507,48.9785856612,2.36637356991e-11
-112.718051413,45.689896899,0.0
-381.039944914,-13.9176885034,4187.65472203
-76.1788722733,54.7867089894,1.24749024633e-11
150.213041294,-179.9281388,1801.94840045
-64.2005967107,50.7725981752,3.65721453001e-12
-58.647940544,49.788944795,0.0
-40.1764923442,21.3193375801,2.37818719512e-11
-42.1109658434,33.499815469,2.69289079103e-11
-78.079498932,54.3824811138,0.0
-25.0953010252,-9.19540801389,2494.91080205
-98.204627945,52.6765421859,2.28905645076e-11
-62.5355419978,51.0631511824,4.08359669912e-12
-394.838654077,-365.21826724,1824.84271893
-43.5751848107,35.0075263214,0.0
-85.587651679,52.5566359652,8.29427673929e-12
-129.894596647,8.21304919162,220.406854696
-106.701862609,50.0739492435,4.26325641456e-13
-71.9252179344,51.0272418983,4.61670038023e-12
-98.3196013171,52.3049730784,1.75800170192e-11
-96.9006170644,54.1894673188,4.66863320521e-12
-51.1118004573,42.3894274588,2.07151519048e-11
-121.346091412,38.7970970244,7.10507121399e-11
-128.12489577,27.2160703266,1.66219442033e-11
-69.7829218019,53.3113050081,4.41784223572e-12
-40.457979543,25.0302487165,0.0
-61.3563516875,49.5585358735,0.0
-112.572088845,47.2693502009,6.22465430303e-12
-98.6930278556,53.5190343651,4.25248020049e-12
-55.056813693,-387.284926726,2499.57074432
-56.0259628289,45.9671517364,0.0
-82.6234156018,54.665045833,1.28286085021e-11
-81.2282592044,53.8829556506,2.06455958633e-11
-75.1593682092,53.2775061404,4.16684442387e-12
-41.1913045129,32.1670377722,2.32730892874e-11
-23.9123467687,23.385274133,3009.59347408
-66.0021643771,-440.870815129,5851.6742515
-103.582388518,50.5904177049,0.0
-78.9251552248,52.8252607431,8.80002133664e-12
-78.7078477549,53.3483747347,4.16022202847e-12
150.89416246,1958.48068076,2642.72226126
-98.9999382377,50.9177695244,1.20665897701e-11
-7619.48233873,64843.0035415,8180.21654185
-85.0731201552,53.6295501521,0.0
-48.168434579,40.2917541444,2.22912683455e-11
-46.9956570239,39.6311369411,0.0
-67.1071452914,51.8845020859,0.0
-106.648119456,50.9512631945,1.38628131457e-11
-55.2382131963,45.3349005737,1.24774697737e-11
-76.4720141047,54.5610640784,1.35178459148e-11
-69.2621343815,53.1562545819,8.22936250154e-12
-31.6033845259,33.1229157434,2193.57962142
-84.3130707864,53.3681797487,8.69071202692e-12
-93.4736878861,52.5187981436,0.0
-39.1035949337,5.78932988167,363.786875844
-118.360405617,42.5456373624,5.8359250951e-12
-71.5216577649,52.1998843167,8.74407069341e-12
-68.1179259448,51.4610953332,8.84425432542e-12
-72.5607143445,53.0023587465,4.79183054881e-12
-97.6002217746,53.946146198,0.0
-125.185032729,32.1908603511,2.7221190498e-11
-42.9210420172,31.2554741784,8.20907188981e-12
-69.7856843429,50.6984218169,4.50589644705e-12
-115.288812595,45.6581900722,5.15194620572e-11
-92.6711337352,53.5581319093,4.07421266902e-12
-65.9942583416,50.997122627,7.9616705107e-12
-86.0324738717,54.6807253309,4.4365060409e-12
-67.6187106814,50.6805366157,2.12368312763e-11
-100.84936059,50.3852979552,1.32111701921e-11
-62.5324333475,50.8477862068,8.66903049791e-12
-91.8981398046,53.6512987743,8.68587940016e-12
-85.6547916692,-391.196202724,24028.3080191
-91.5115179349,53.3558941359,8.74530672752e-12
-78.6682398599,55.0372205615,4.57967805954e-12
-133.705912363,18.6757810155,1313.65726111
-68.3836578268,50.9299624948,0.0
-234.19119632,-190.077719581,9455.14516794
-75.4336315061,53.9579686102,1.38702552615e-11
-40.0202006543,26.8343933227,0.0
-114.117696843,45.6993711594,4.13239483778e-11
-113.415630408,46.5715366478,5.30074274138e-11
1033.31672438,6943.15316825,25154.3601211
-92.7756214994,52.0600443696,4.26325641456e-13
-78.4708924705,54.2151918686,1.3137211017e-11
-52.7946441148,44.3899036772,2.44289000992e-11
-213.722629477,-918.449285487,1732.49288737
-122.995987286,38.764663499,7.79481068766e-11
-66.5197256062,51.1097565923,0.0
-117.776828466,42.2863031831,8.12560635364e-12
-103.914363229,49.5286653956,1.63075244259e-11
-126.456654374,32.5068393746,8.47145010211e-11
20.4315690879,-562.154769653,4305.75855896
-85.6969261697,53.5775503361,8.61677304154e-12
-91.8093903809,52.6727954617,2.1622229198e-11
-86.0184526523,52.8138393429,4.12278519696e-12
-8.8718785506,-1047.21629717,4714.91780679
-93.5969656159,53.1387240842,8.35959339068e-12
-44.7730020842,38.1345400563,6.15735258336e-12
-115.81367157,44.1396908868,6.03049743368e-11
-107.422379169,48.7724618219,1.68582208958e-12
-45.1097484331,36.4838106639,5.80450128823e-12
-89.5242269342,54.461096509,8.43612090966e-12
-42.3003650674,33.9667568564,0.0
-129.652724397,18.3924989164,2.01686298668e-10
-30.0463173081,382.696458382,2091.49811966
-43.6054448206,37.5174197656,3.18997582684e-11
-47.2241901418,40.8168796651,9.24865322854e-12
-125.734611748,31.2638581665,3.77997793847e-11
-44.1041557875,33.2826424397,6.23262023846e-12
-46.2234765673,38.8077130739,1.40024970545e-11
-212.254449176,-906.496368865,1943.68748258
-39.7519820842,22.1249830367,0.0
-71.6922924855,51.8593766649,9.57975400185e-12
-123.650727101,35.0190315062,1.11713256723e-10
-76.4271513219,52.6235157367,8.3798055705e-12
-115.418664019,45.7384788901,2.93335321115e-11
-68.9750647469,50.6983284614,4.14732217726e-12
-47.0661232677,38.2615408258,5.93709041371e-12
170.592424079,178.959912487,3140.76664208
-40.6447774242,31.1035873037,1.54300043077e-11
-68.0559469169,53.3746031879,3.16891676852e-12
-48.03389134,42.9422342328,0.0
-42.2920957643,33.3794994822,2.36308063074e-11
-39.6340755763,29.1094330784,2.60288656989e-11
-60.80849638,48.7218070003,9.15636790545e-12
-38.8122830388,25.5831890481,9.57419818934e-12
-1992.55100365,8789.36143984,4037.6931654
-129.122105231,7.22475809562,5.6550668134e-10
-57.4519077998,48.7363336534,0.0
-98.6923914711,53.5133239508,4.73900284758e-12
-112.840827917,46.0517651246,5.22761502377e-12
-99.5372241552,53.0300892996,1.34971146502e-11
-39.873904537,29.1130753673,8.56984527413e-12
-37.1836361956,12.9443412405,8.04689648248e-11
-60.126273658,48.7606343032,1.57450411804e-11
-38.2444953509,21.4412415168,2.35076222145e-11
-69.3071532791,52.9303202882,0.0
-70.1601569506,52.3072797189,5.63229176636e-12
-234.104174236,701.352768746,42405.4173388
-44.7247115072,35.8199526376,1.89641442209e-11
-130.057895376,9.76220244333,539.152556037
-105.210061416,50.8965228276,3.29977386894e-11
-55.2934218595,48.5390440035,2.48446212763e-11
-90.9536340912,54.1025979556,5.16040354542e-12
-37.64927434,-46.0742217509,4712.14862311
-110.599383493,47.7103309614,8.83835274192e-12
-85.6046126238,53.4895556541,0.0
-93.8955125531,52.9744891933,4.69897966754e-12
-100.7115426,50.6332270068,1.83286831348e-12
-89.872552675,54.251325185,0.0
-121.856899466,38.5181103675,9.34727971981e-12
-89.2490399422,53.0297799887,8.30363870401e-12
-66.1300019692,50.3775771594,4.67237364278e-12
-94.4660871006,52.0724032471,0.0
-65.6145748431,50.9598146614,5.46862336562e-12
-127.908759473,25.4198376261,2.14932114156e-10
-78.3059419279,53.6676688895,4.56646078287e-12
-118.491312743,41.2140855633,1.77602664047e-11
-70.5956914878,53.5384869733,4.39781314992e-12
-109.843043262,48.1840187942,4.53218752829e-12
-112.904244885,46.2415327761,1.40231890638e-11
991.435962862,-392.577505405,5226.77983568
-37.7352711914,14.0061187902,2.84602427982e-11
-32.9598436543,43.2918011572,2341.89157595
-41.3230838151,28.3761015513,8.44766263319e-12
-84.4067040021,53.7108306193,4.26325641456e-13
-158.620791749,387.262527822,4965.63418181
-85.2731371708,53.512685004,0.0
-80.3162150739,54.1943818277,4.01336951489e-12
-120.923544865,39.9648406158,2.71421192483e-11
-37.4679408523,14.1362800856,2.2716892553e-11
-32.8636713424,2.13767458719,1684.81595981
-41.3208196778,30.7537110547,1.58663048368e-11
-108.886943506,48.062650907,4.17009620283e-11
-91.5824432071,52.2097368749,0.0
-57.5579370026,49.4663302089,0.0
-45.6440292546,37.7973477378,2.03614062651e-11
-56.8206505358,48.6540590822,2.83909164333e-12
-39.2340546359,-3.35626718554,1040.07673294
-37.5335549877,4.90597953789,327.310120172
-112.79096941,45.8230055116,0.0
-91.5921716031,53.5047175211,8.78808173699e-12
-64.9405190632,51.4977304342,0.0
-262.76833163,1284.06579887,5709.40145683
-58.8034790647,47.2491103808,3.79249618224e-11
-48.5086036107,38.6247535275,5.5657720483e-12
-42.7193849659,31.6763628713,1.12587495467e-12
-62.610499449,50.2019299405,0.0
-480.094466494,5890.52008106,4388.29623275
-40.9099837396,-45.7753298725,5125.97925344
-396.191954164,143.960868907,13212.0808185
-73.2732583696,51.3208915721,3.94327533172e-12
-78.3903212008,52.7011754989,8.82489648643e-12
-42.1094396701,31.9620711865,8.4010595908e-12
-105.483150708,49.9255195397,1.61562285595e-11
-117.937488098,42.2749067673,7.8347379739e-11
1226.91978498,881.590278502,1601.84585272
-127.955967941,27.5280477789,0.0
-110.243959551,46.9864113137,2.16348820571e-12
-107.968103834,48.61838976,2.35112825528e-11
-78.7712861312,54.7339141066,4.51198864718e-12
-49.6809357971,41.5479439955,2.85866092557e-12
-77.296056191,51.9456111775,1.7012036015e-11
-96.0899927049,52.8621881513,1.28167165049e-11
-79.8609856627,54.109371031,4.02152679479e-12
-123.123022612,35.9878248189,3.74603596923e-11
-18.5228469845,161.936502553,9454.88919469
-113.12995063,47.1168431964,2.97934059785e-11
-61.1477173281,47.6700191938,1.38115486852e-11
-35.0021088706,-362.698162875,1665.04914211
-23.2427620208,-1252.62066373,10830.2932173
-143.78559824,-886.84290201,53973.4806531
-512.014069181,731.104676868,3665.45287381
-46.2637014361,38.9986008374,0.0
-1402.20771075,-9064.61702519,104655.424411
-104.322692549,51.3097081668,0.0
-89.3664154673,53.5170520572,1.42972911287e-11
-41.8936176557,29.5367679003,5.65097614998e-13
-45.2435419961,-63.8453537309,4292.81370857
-34.3192818239,12.8421933218,3767.80271
-65.793961985,50.9140204913,4.32489326407e-12
-40.4352601241,26.8148288749,2.66874418049e-11
-106.381216245,49.5661401019,1.97187208369e-11
-43.9438021745,35.3080691042,1.22514910742e-11
-74.5350009606,53.6516381659,4.57042220314e-12
-38.3831870946,13.4144502128,2.33450124186e-11
-43.8909672888,34.6915786247,0.0
-52.7619569281,42.9506354477,0.0
-66.8513312006,51.701002212,4.73455522878e-12
-41.2481128023,290.644019417,4728.54577688
-104.602059047,50.9788704497,7.28916148413e-12
-56.6817844696,48.0534125537,5.333514003e-12
-85.0989892196,52.8464762503,1.28810852315e-11
-54.891430724,45.6977690117,1.08241624515e-11
-21.8808110517,49.7043211815,3744.42521489
-91.2161669744,53.3951455792,1.28882481523e-11
-67.0408554321,50.8912246961,6.15093144558e-12
-49.7329225866,43.2526313291,5.27418137499e-13
-110.645416482,48.3791904508,8.07806253099e-11
-44.1690819021,34.5687824585,1.96419802778e-11
-95.2425990642,52.759341557,0.0
-113.527962538,45.9664589169,7.12889894372e-11
-60.8647688978,49.2409929497,2.89050230956e-11
-115.683113133,45.0889797251,5.16356941477e-12
-112.417227368,45.9142413891,2.5079667261e-11
-106.807024776,48.3112831402,5.47768908117e-11
-75.851868907,53.4361292098,8.30402781185e-12
-38.9776440688,26.7501845347,3.7359600595e-11
-61.4457400544,49.430362555,0.0
-118.094880676,42.5104439018,4.59247131234e-11
174.022259893,-1268.23310793,3447.53261527
-71.1266905693,53.1028416566,0.0
-99.6704379868,50.6494482196,1.69324305945e-11
-41.3027450512,32.6003655148,7.88118046043e-12
-556.208260066,-306.869608605,8937.33675524
-96.0525425476,52.7556808187,1.3098131294e-11
-60.9566383686,49.0549995116,7.48424257084e-12
-54.3241775059,-914.115849911,44393.2269518
-86.2259187542,54.0241179514,4.50796894475e-12
-50.6537947041,42.9979861171,0.0
-57.9256594399,49.0769376487,4.2158430554e-12
-46.5163997887,39.2998545453,1.19992155803e-11
-114.753948701,45.3329381644,0.0
-108.617690377,49.1203590363,5.47547923111e-12
-129.225338223,9.07174909144,5.64391736052e-10
-43.7649153439,33.6993082965,6.99613449975e-12
31.5449069917,112.741557233,6642.63630946
-46.2623526763,38.8592600071,1.16590123594e-11
-43.8828185045,36.4916816882,1.18333058372e-11
-40.0501658857,29.994152158,3.03142741093e-11
-44.731384613,38.7410969482,0.0
-44.4130161692,38.7949214375,1.98011813321e-11
-106.394277878,50.6373155614,5.81270603689e-12
-118.106199447,42.6773705565,0.0
-59.8033539192,49.2893107598,0.0
-58.22229007,46.6755256363,1.40091704975e-11
-100.955384992,50.8660039171,2.31650503996e-11
-39.2245854339,21.8511561759,1.20999654693e-11
-38.0778100733,2.78265860251,683.030050575
-89.8805988431,54.7865124307,1.33362832918e-11
-122.416354669,36.6178880819,0.0
1248.9267666,1979.4904854,3031.72962048
-1549.70432598,4351.36534,4684.44470724
-99.1832400361,51.2842254467,4.77829964497e-11
-78.8351732918,53.7465341297,9.08601277232e-12
-125.554710189,32.1394162633,4.89342304553e-11
-221.098621924,4685.43750126,20880.5688964
-70.8015829775,51.6990723837,3.82070601508e-12
-63.4623617504,50.9487007546,1.34133812782e-11
-55.7260715721,48.2797570545,2.03564352361e-11
-76.9138506484,54.8618718474,2.19309493522e-11
-40.8574602421,30.2993678363,0.0
-37.3738426732,10.493273013,3.51943410783e-11
-89.0524450296,54.5723931886,4.46871961234e-12
-50.5881146981,41.9904059299,6.905433162e-12
-48.4595421935,42.8307069965,6.87287244374e-12
-51.2725306478,45.7016880776,5.04468249829e-12
-83.4932923764,53.6671399869,8.5985472833e-12
-89.6715100133,52.4108380309,0.0
321.528653616,2823.04620898,4281.98474669
-40.7998272164,30.2194005821,3.1373756539e-11
-42.617417181,34.2757981266,4.10079508094e-11
-119.444750348,41.5321236042,3.75921287452e-11
-37.7673819813,14.2454585461,6.69382275534e-11
-40.0983656232,29.4994820108,1.61854116102e-11
-53.1558384573,46.535996687,1.95531396677e-12
-59.6784463508,48.5732975492,5.65706528381e-12
-87.729518709,52.5759741808,4.14531023979e-12
-101.657597524,52.9060034873,0.0
-49.2999043489,41.1274161395,1.77681198315e-11
-99.6735323226,52.0899617919,2.11763224453e-11
-42.9148322153,35.5598805404,6.58193380372e-12
-89.5454159,54.5773394356,8.98706726589e-12
-83.9386601367,52.5937590498,1.2438194029e-11
-108.122729618,48.3911227033,3.11311630082e-11
-103.156944419,49.8128438717,1.60364814952e-11
-127.85409569,28.2384204645,3.28106121888e-11
-94.3105453895,52.1726406818,7.51683819916e-12
-62.6027767444,50.6963260434,1.80358090225e-11
-66.5797039228,51.6545565905,1.28900036859e-11
-119.755903258,40.5377822222,1.20036834894e-10
-37.6651297871,3.58872372328,974.091278884
-59.2724985032,47.6688974413,2.42970022039e-11
-28521.645928,398.090771617,6116.0226494
-57.3605013397,48.0367788578,0.0
-12.693850983,130.352818232,7974.40070407
-41.9142043584,30.9167614772,1.08658835918e-11
-93.8613408258,52.6204068867,5.45004759856e-12
-6.44086464499,-17.3795987236,8955.50104926
-135.915345328,55.7896452699,4988.48357483
124.710109926,2301.4218715,116180.522451
-105.583568766,50.4597689592,1.6488886228e-11
-40.376855551,-18.0632633343,7728.20126068
-50.3546409053,41.6872987656,3.03288997474e-11
-66.4206047457,51.3485465914,5.64608613216e-12
-129.51122822,10.0348835876,5.25714605222e-11
-88.0349468588,53.5468548068,1.26940617404e-11
-58.5005229264,46.8492227067,4.82425295889e-12
-94.5043606648,51.7566424956,2.14318160286e-11
-76.8077572704,53.7468975417,4.12287707371e-12
-38.4890522442,21.1085625365,0.0
-50.0334382281,40.5796753529,1.07069491416e-11
-102.191375721,50.2732924104,4.26325641456e-13
-36.1581535606,20.1452849435,1161.36113766
145.725412078,3.96033068003,5393.02352716
-39.3666803502,23.3336553641,1.38837083978e-11
-87.9112072783,53.0676963844,8.7513047535e-12
-31.7212898598,-9.61826298813,2267.90363056
-21.4087934758,26.5525671555,3175.03038305
-86.9726603801,53.1546748867,1.33210688304e-11
-103.739574852,50.7320361995,9.35550184278e-12
-51.4589943181,44.8973034718,9.04553348094e-13
-85.2232297241,54.7611601088,0.0
-36.7803766609,10.9725626219,426.477218916
-37.6356659669,20.430815436,2.77867024019e-11
154.389196876,-1495.6258563,8046.53307736
-66.4362820951,50.8539938883,1.32611930007e-11
-99.6833676847,51.1480411492,6.83993336048e-13
-114.555160234,46.1363279746,0.0
-102.216307697,50.5378057614,0.0
-91.565078908,53.9125684777,1.31755289622e-12
-92.8325882082,52.3388519884,0.0
-28.708604729,727.400843834,3914.16035589
-100.571842065,52.6082479178,2.22653658165e-11
-86.2051564018,55.2039376639,0.0
-64.6075305569,50.0169146175,4.70310054327e-12
-115.151891325,46.2030029426,5.93628294322e-12
-112.159908732,46.0418516109,1.90112111216e-11
-69.2212268749,52.1151695002,9.04513732513e-12
-40.3465271257,28.2563462419,1.54826131232e-11
-49.2110207307,41.2942834799,2.2057036635e-11
-41.9277907771,33.5590258712,9.37940090242e-12
-60.9024024951,48.8607278068,2.13241092954e-11
-103.237357984,50.2081935717,0.0
-106.494259867,48.6507590056,4.51200348503e-11
-328.366048324,406.018139091,11205.0539069
-45.8113427272,38.1818347084,1.65768787016e-11
-123.506491892,-71.5527106687,5059.83529481
-117.572014331,43.1436454127,0.0
-43.0430267555,31.7647064438,0.0
-888.067659617,792.151704298,5354.25398014
-102.694711503,50.5651041837,5.32015509623e-12
-125.607122418,31.7776196247,0.0
-40.8915707075,-17.3103587343,1523.46797818
-109.683327381,48.1186726022,8.53407220376e-12
-76.0055564132,52.3715232472,5.14731493276e-12
-105.520063283,49.2146004429,9.09920969741e-12
-37.4437701951,14.4157955097,2.47406730916e-11
-118.251588195,41.9836188319,1.38683545901e-11
-49.7809366495,-112.998223786,7254.91137489
-70.9613777424,52.8616939345,9.11744825838e-12
-47.8211757614,41.4970592971,4.07778403642e-12
-753.985113557,341.884320811,4229.3701712
-51.7665673939,43.5776610862,2.43718771798e-11
-71.9847333401,53.3313925803,0.0
-116.215129096,43.6609737707,1.06620323288e-11
-64.7591873482,51.6536777152,6.35636705923e-12
-39.7659544672,25.0287975133,9.57597254977e-12
-86.8992753367,52.3434449955,1.67180381659e-11
-47.8689435105,41.6433990592,7.66651475189e-13
-37.8757684669,12.1788960157,0.0
-116.392675082,43.3208634306,2.10885308365e-11
-114.3660255,45.7589655189,3.87697830638e-11
-2504.84386263,-330.377629106,5239.0323429
-59.620973433,-559.550789851,12616.0549878
-125.22192789,31.63991356,3.11225203301e-11
-38.6277793661,20.796710117,8.6044915821e-11
340.856041095,390.930539965,3119.07493728
-94.6434447241,52.774385201,1.17337902033e-11
-46.1432888598,39.6313604925,0.0
-69.7777850939,50.8640166353,8.76335279195e-12
-34.4929126955,10.9068771682,1811.75495307
-65.5590580442,50.3197958788,8.35016028139e-12
-41.9422492029,5.8867671248,3086.27463105
-86.3170364054,54.8118472664,4.44266784412e-12
112.962740855,535.144201015,4380.57133998
-98.7819005693,51.7873126026,1.30059026637e-11
-37.1792511214,9.93841734176,9.12238093131e-11
-59.725701591,50.216996863,0.0
-83.0482966744,52.9412877345,1.2852969297e-11
422.770449889,1287.30114026,9220.06907219
-67.0525340931,51.186458795,2.27402980003e-11
-38.4044666403,23.4419084775,5.43211348344e-11
-46.6566699703,39.8586566506,1.19729982248e-11
-71.1992152937,52.4195966714,0.0
-1507.78149766,-303.752394342,2202.23228361
-101.858476861,51.2837367395,3.19988150961e-11
-112.10556513,46.8558170335,2.22716523569e-11
487.150263423,3509.65957411,13908.9872796
-28.4243564601,0.152473278051,8050.53843553
-76.495950217,51.9583485443,4.39373205208e-12
-77.2567674047,52.001380226,4.26325641456e-13
-76.8126834862,51.9344254378,1.70161824565e-11
-76.2105997765,52.3730814276,3.86184573201e-12
-37.6494642054,9.59614665816,0.0
-64.5010030013,49.8500327592,2.41371553107e-11
-53.4477833454,45.9317625809,8.72142042037e-12
-51.9004299012,42.9922505545,0.0
-147.085626357,4.4711799328,3073.62493506
-45.7383525234,400.184663394,1779.38590175
-41.4303610069,-26.6050508293,2060.76860147
-47.5168519804,39.1644209672,7.35450497569e-12
-42.8587169798,30.5135929464,7.4894831176e-12
-69.3024391468,52.6227092599,9.92163150684e-12
95.4013359638,713.115061853,4719.80325226
-43.8995722015,36.0154675928,1.99456010739e-12
-39.9180340543,19.6683991817,4.05245144006e-11
-3638.65961488,-394.303184728,2903.66333022
-39.3035129836,7.98577521272,3.95886016766e-10
-42.7077937272,33.6737325976,7.38816965161e-12
-56.8260173967,46.9016049376,7.03443215438e-12
-214.062348566,-1588.77823911,3453.66331431
-69.0020132281,53.8873750853,2.2607270968e-11
-48.9052540751,40.9867180145,0.0
-74.6736083284,52.7678827639,4.66256714439e-12
-62.4388932161,51.1518703973,1.3600555309e-11
-38.6586872587,-14.5894155061,1496.2289493
-54.3702610602,46.7292064303,7.76726465308e-12
-125.367399253,34.3869659852,4.76493356487e-11
-86.380791703,53.5682639611,0.0
203.387726605,834.000397162,13349.9201332
-98.4891456142,52.9212083461,1.36807317702e-11
-40.7496008326,31.7243587513,5.75612206102e-12
-73.9915824596,52.9981988577,3.33403174941e-12
-66.1940253259,49.8488350957,4.71737538292e-12
-75.9863376653,53.1489728244,9.36122454538e-12
-58.7964836033,49.6330414869,0.0
-62.2107466753,49.3472603057,4.42489149832e-12
-92.5455119254,53.1679514936,4.43045852865e-12
-71.3150332273,52.5896115255,0.0
-1141.5398462,814.789062573,4676.57925134
-141.261799038,713.144969996,5705.52929764
-82.2210404036,54.4491337877,4.26325641456e-13
-102.829805549,51.0246644906,1.78255272147e-11
-390.190897427,2160.38832055,3155.07644272
-394.935932723,-378.813121979,2437.05220424
-59.7902736379,47.6963599084,0.0
-74.123363393,54.3790780508,1.77995068771e-11
102.341967599,1181.45465456,71018.5264324
-51.5921347082,44.3196364352,1.60144447699e-11
-50.2745276624,45.4197817331,1.48452051828e-11
-48.0072936028,38.8383453879,2.81652405312e-11
-111.834930031,46.6103756568,4.72269559729e-11
-45.5057804964,34.3132318438,0.0
2043.98662278,9008.67730149,5579.04169372
-1378.19215412,372.192393807,5643.96892663
-68.4719867586,53.6039273466,4.57446831509e-12
-44.1307879439,32.9114407032,0.0
-40.8590638094,26.6850743156,0.0
-79.2471323682,52.5350155375,4.74506538512e-12
-105.062290511,49.1253911168,2.38478813296e-11
-107.490090128,49.6397316855,9.51183970109e-12
-98.865206685,51.962975604,1.76574832569e-11
-14.3028269068,2.617472374,3479.67200435
-47.3823060595,40.7949019303,1.13857828536e-11
-113.96398745,44.5795699712,1.51479583458e-11
-38.5791636,19.1974620008,7.22420298465e-11
-38.7607863182,25.9655611026,1.83953699971e-11
-108.620947693,47.6191423122,2.9595279504e-11
-89.358301491,53.4191040864,1.65321782599e-11
-116.695071092,44.4547403182,8.41312533215e-11
-2339.0520891,842.823387959,4531.49282745
-75.6212016332,53.7475616348,0.0
-47.7449828604,40.8194617044,1.3900758581e-11
-81.7067939783,54.3847116851,4.46879584425e-12
-40.4406293388,28.731122255,6.66246444766e-12
-40.321308589,28.1747427561,1.01522456597e-11
-63.8330617223,49.6423157724,6.72628822473e-12
-99.4249712614,51.7137523799,2.24645799303e-11
-41.1336947006,30.9835687335,3.28772143805e-11
-55.9085707775,46.364159477,9.74622704389e-12
-129.389404853,11.7981626557,6.25632878837e-11
-85.6469141628,53.6885496984,4.54426303757e-12
-118.265513542,41.4062293087,1.67861785047e-11
-1753.05663983,-155.546133227,18405.1249669
-106.540249234,48.5537010248,9.4786452248e-12
-91.0208282256,53.4801961343,1.27994417973e-11
-93.8753666201,51.7315359558,2.55276424981e-11
72.8685758815,394.852841031,11074.9307674
-41.5679193485,31.518584211,6.39488462184e-13
-39.1978352101,25.0278523147,0.0
-39.3764612578,17.7733889738,1.36966783772e-11
-416.141611953,712.290074372,5139.42357907
-51.6504763857,44.6746189922,9.64668925164e-12
-122.287403207,37.29557219,1.19512258005e-10
-38.6200667065,23.9920759466,5.2100115317e-11
-67.9066790929,53.0808164977,0.0
-64.6489723089,49.5082963446,2.2404540062e-11
-76.9512127913,53.2506537402,2.21387024185e-11
-94.1955510156,52.3522126419,4.35832060223e-12
-50.494899523,41.2709151607,5.96045781124e-12
-121.775226234,37.3233211346,0.0
-39.8794610971,29.1908374161,2.59231884541e-11
-78.1794545697,55.2875610816,4.3906884593e-12
-118.455026793,41.0612738284,5.54878156342e-11
-81.2141271432,54.2242539736,4.50646032926e-12
-64.6947037042,49.7432711092,8.61549327542e-12
-128.611494828,-20.7984159949,1973.48689243
-47.6932595257,40.9661508937,2.59550851532e-11
-105.003320195,50.4502704413,1.38944167616e-12
-340.282385121,37.0546636568,4068.28236283
-104.50341212,51.3900069501,2.66375807278e-11
-91.5737980807,52.9210449413,8.40013681782e-12
-125.250105361,32.0817298447,2.80511327137e-11
-16.2784977941,122.426653848,7393.13561031
-113.044728448,45.6898535798,9.09472892745e-11
-90.5640620067,54.43531736,1.30689447567e-11
-111.054410543,47.3223218416,1.56036323259e-11
-42.6302301444,32.8542229013,0.0
161.001240607,1616.00989078,2816.05053853
-111.276494375,46.8751607234,6.0386086233e-12
-54.4287933345,47.0784981953,9.67343109446e-12
-47.1490432346,37.7587400636,1.80171549957e-11
31.035383047,-390.451244703,4714.43843982
-66.3072049958,52.403083716,1.24484536068e-11
-128.921632751,22.2297185343,1.10933099481e-10
-64.4132749636,49.6428509072,4.22443237465e-12
-91.1118985792,53.8080413372,4.05037200372e-12
-35.6962156868,4.63637490326,1274.21956359
-62.7135382383,49.3984605838,8.83796827136e-12
-67.2343650118,51.5306308289,0.0
-38.8312179659,23.9667108505,9.08743830664e-12
-52.2899478645,44.1992567816,2.9973057036e-11
-125.144094683,31.7332434762,8.41621932696e-11
-112.377551995,46.8151992185,4.8201953786e-12
-51.7678866564,45.7426571472,1.56221286439e-11
-89.5018490714,54.2299391182,1.26411078583e-11
-116.95984426,42.559838515,6.34708277161e-11
-90.8494241881,53.2052376708,9.23198392895e-12
-99.8461951674,52.8894319783,9.38717553974e-12
-85.2569766872,54.3730344823,4.49035122623e-12
-100.986017715,50.9153111877,5.28690021059e-12
-100.757382863,-1886.54145725,6078.97303075
-59.0614935089,48.2398607739,0.0
-95.8816749371,52.6922790593,9.76916640078e-12
-91.2928030137,53.5284013189,1.74326252026e-12
-49.920347262,44.1038363848,4.90855883728e-12
-38.0935919422,14.9748743925,5.68616111022e-11
-93.4206649074,52.6833129929,2.00993251926e-11
-57.6749949502,48.5056473214,1.62779104035e-11
-63.7933808232,52.9160705617,2.77957960575e-11
-82.8638954706,54.3009981471,1.29642421902e-11
-87.6379139029,52.2702376139,4.26035268373e-12
-87.4840775648,53.829053689,0.0
-113.811904061,46.6481157535,4.72087301605e-11
-38.8992534086,23.7449159635,1.39132153004e-11
-85.6400988406,54.2896501763,4.55957346737e-12
-83.120471916,53.3489935828,8.66317483224e-12
-42.3897286506,33.1361266984,0.0
-123.492784187,36.1539838344,7.75309039595e-12
164.311580169,-1298.09344689,2523.06426318
-45.0813523293,36.7991044328,3.09413778089e-11
-95.7447507752,51.9889491576,2.64732388783e-11
-70.8273626776,51.9584985961,0.0
-72.9255216141,54.2393790139,2.23603942794e-11
-42.8533381642,33.7021562831,1.92891870743e-11
-214.706384185,197.441798286,2502.56845457
-88.7520849157,53.5107353106,8.63035200427e-12
-57.6007653903,48.8291045684,6.12253863145e-12
-85.3463912719,53.077864715,4.09769967678e-12
-106.802951937,49.7953171293,3.69971997169e-11
-116.486936441,44.405129648,4.29188032566e-11
-102.487324851,52.2706478801,4.26325641456e-13
-85.6211255891,52.8552929236,4.14085723414e-12
109.419610173,675.466409164,40774.2229109
-36.4588406811,13.3410026489,649.74309699
-109.507183985,48.5355252197,1.95551955782e-11
-54.9337688831,45.9939130378,3.59271155649e-11
-71.1558121843,50.7212624362,2.11055836238e-11
-37.8059009761,17.7114801012,1.14245480263e-10
-104.893604861,50.8929448202,2.75756156257e-11
-38.5379072609,-17.9374160709,1976.53188225
-84.4984015648,52.4172601971,1.24809006369e-11
-70.9607109351,51.9252241396,8.43301003119e-12
-111.065323495,46.6929852684,3.2877729743e-11
-97.4096344719,51.6565210472,0.0
-112.761477682,47.3890918961,2.985681846e-11
-1959.77360167,6375.458496,339695.948561
-107.245918986,48.4246888154,1.03758688562e-11
-29.5449518693,50.4168586561,3050.49488495
-47.2447590028,40.243510423,0.0
-56.6746815929,45.5845491161,9.32205522362e-12
-118.918567928,41.5374507866,5.01634854081e-11
-45.3199034205,38.4564813024,5.56955664579e-12
-40.0559629959,28.7470745854,0.0
-96.6220089844,51.8037320534,4.18107353048e-11
-30.4271917093,4.21550513352,1973.66599677
-109.404748482,47.7679201613,3.02560863908e-11
-47.9774825719,42.946269481,0.0
-148.594620669,-965.986322021,58710.387128
-129.670685696,17.4658076128,6.47724309935e-11
-39.2717060353,27.7921091582,3.55908462808e-11
-44.4207195023,36.7415301319,1.47240800671e-11
-98.8391603321,51.1498290952,9.21229860458e-12
126.171531722,1301.62506495,5864.37650321
-107.523868142,50.6285640174,4.82356558458e-12
-57.9367644573,48.4363236642,6.83541639171e-12
49.4889380247,936.693650002,34713.0277349
-85.0803410629,52.7351407006,1.29351503097e-11
-37.2751600207,13.1496163414,5.16936510581e-11
-31.12407844,48.5822815567,2804.44044461
341.859012917,-716.777388671,2871.95132882
-82.8066593324,53.9687690013,2.15709398285e-11
-54.0072604727,45.3798699939,0.0
-72.8549633821,52.1990077995,1.29980241679e-11
-70.0942067503,51.7180469759,1.72880320117e-11
-127.279937876,26.7693199532,1.03669026283e-10
-61.8150917231,49.0043656382,3.79007570764e-12
36.4322299672,-664.299222447,6796.50307964
-56.1017106308,47.4466825231,5.36378009359e-12
-35.9123982448,13.2010547542,1937.09314851
-107.239028105,48.5030397199,1.31949975968e-11
6245.37824604,-507.013959715,2186.43253409
-68.9942006147,53.092051485,8.5827407156e-12
-38.8610823878,22.3806473609,1.16783315516e-11
-87.1926644334,53.5763268329,0.0
-80.8113207402,52.9944879633,1.64722512182e-11
-53.6726260875,47.6828106481,3.13306275896e-12
-41.2333078603,32.0994446482,1.4688447908e-12
-34113.8768233,-641.849505048,13739.3402891
-54.2934991494,44.3814696759,5.73745830047e-12
-125.477940342,32.3755525724,1.16545887879e-11
-108.66595296,47.7376222217,1.73684167242e-11
-87.9604412925,55.3778260255,4.35999854658e-12
-116.52822126,43.6277921357,9.82175713367e-12
-50.9517815695,45.7434982339,1.5646794925e-11
-33.7219600198,13.8685432956,1588.99700271
-84.9370979586,52.9606738979,4.10884495598e-12
-41.4091512931,30.4712561443,1.49470734088e-11
-45.6706216647,463.519666036,5607.25874012
-3308.5890155,304.190860921,6840.88764192
-50.5527485057,43.7254821891,4.07361261991e-12
-49.8014422323,42.642316304,2.0298731203e-11
-145.122175166,-14.1542727076,6694.44438701
-39.2039888535,14.4760275176,2.17778455393e-11
-99.4600375664,51.4724239457,5.07506410063e-12
-61.9422864119,51.4485050347,1.42070150252e-11
-42.1968470927,33.2809197077,1.82336136145e-11
-97.9931394731,51.3473570132,2.79600041303e-12
562.091790509,38.8553148338,6343.0977909
-62.0115005675,49.8360650068,0.0
-69.9517324796,52.3013152636,4.76946876998e-12
-50.2271000998,41.3097081361,1.56572802823e-11
-98.5194183964,51.9289140864,3.05349869882e-11
-66.2861343435,52.7356177825,0.0
-73.6046911278,52.6421878948,8.6642930535e-12
-100.629819483,52.6719438648,2.7009231015e-11
-46.7105583895,39.1846731924,1.93578174295e-11
-87.5036705217,53.3998101886,4.59518680498e-12
-120.361544838,38.9729592192,7.99615248835e-11
-80.9132737712,54.7559715634,2.17164233156e-11
-119.987009693,40.9749158105,4.26675849773e-11
-105.879131597,50.6714253649,2.51157031637e-12
-21.3932264295,44.3160973011,3576.37226207
-45.8984200142,37.8159137188,6.31696283025e-12
-57.2423092187,48.1655285708,4.04062435996e-12
-64.036176053,51.9156718024,1.39623924895e-11
-216.449872418,-887.645590453,1720.50224924
-60.5954286892,49.251241367,5.09110981478e-13
-101.037323941,53.1009070539,1.33090591085e-11
-124.040040612,36.1191172237,7.04301023818e-11
-40.7466260335,-3.1340082173,2512.14249503
-94.6791709854,54.3677512069,8.52651282912e-13
-60.2589188678,48.508587569,1.0227965543e-12
-49.5198336879,40.9389528686,0.0
-55.4172113796,45.3731072026,5.97956773243e-12
-60.5367746041,49.9769204066,0.0
-396.783414638,2.20621740542,934.854906252
684.083313023,372.184001958,799.390300836
-39.8186706578,25.0204171992,5.17392288493e-12
-56.4695559068,48.3368492243,5.1192685166e-13
-71.0728667244,53.2155171895,1.38182912405e-11
-39.1236477015,20.3129316024,1.2103348308e-11
-89.1404909514,54.5674878496,2.19538210379e-11
-52.3400867064,44.3450707323,1.79830982018e-11
-96.6113514815,52.485162704,8.82752312801e-12
-50.0529893032,42.1183101316,0.0
-126.750615212,29.817157413,1.87947661815e-10
-108.791078462,48.4395528632,1.30108685999e-11
-104.613349627,50.2594316278,2.36270323926e-12
-516.697419662,-718.75775403,4013.14600296
-129.137409708,21.1816593307,2.4085113756e-11
-98.6758044821,51.8203410383,3.46005662292e-11
-47.5479302938,40.0914788312,5.36655904884e-12
-52.2701203086,44.4095147496,1.10347657204e-11
-79.6990620981,53.5108126676,0.0
-389.667165256,-710.478863974,1571.42225039
-90.4574502546,53.688757253,2.29757546463e-11
-933.06818823,9545.62007907,4093.20588405
-105.186344768,50.2709406185,2.21270101239e-11
-79.2777251144,53.6572853765,8.63219404798e-12
-91.6774597751,53.2807671515,5.67220020634e-12
-105.797987582,49.9509773235,1.73664914372e-11
-5680.9570404,730.679588936,6330.15823759
-80.4903804894,52.7876789731,4.14723678793e-12
-128.236157479,-2.96374408739,633.762185401
-42.7782208348,31.135560817,1.29174393424e-12
-115.35842545,44.2047832256,3.80886083026e-11
-61.8425099258,49.6205651315,1.83251697762e-11
-126.920219315,28.3933370997,2.01012110514e-11
-60.8313930455,47.8482371651,9.26530555193e-12
-47.8036923043,40.9643215943,0.0
-65.0301391378,51.2037609369,0.0
-121.632384084,40.8900761805,3.37807013154e-11
-91.479746694,53.5511725191,4.05251240712e-12
-65.5767909461,51.0544762864,4.47437379302e-12
-37.8147036108,16.0460622678,1.47097599932e-10
6682.60020804,146.9759561,5454.42250527
-63.9911595179,49.2553183705,1.33220464119e-11
240.679739082,-379.270050273,6946.27731145
-90.4711984993,52.1809671425,4.20422948971e-12
-68.6620331061,50.3756415678,0.0
-96.6932440076,51.6228357956,3.03374432386e-11
-130.406182065,18.2182265661,1.95290587411e-10
-36.7881163234,2.35160380065,2000.76831659
-98.9082900201,52.0906165351,5.17439997458e-12
-32.706333444,384.456333936,1653.36121795
-107.377078027,50.2401537658,3.69824398773e-11
-99.4117009557,51.6936894209,1.8003058441e-12
-39.5283998325,19.4706188464,4.27400191168e-11
-91.6015635537,53.5182769295,1.22859107411e-11
-110.121496609,48.0194011258,8.09503740553e-12
-55.982300903,48.0228289239,5.74593648968e-12
-40.5760658304,30.326148371,0.0
-77.8829263108,54.778235817,1.74684159558e-11
-99.0832279959,51.7657161323,3.90339580095e-11
-93.2096785273,52.4987912737,1.38219727287e-11
-37.8769065013,-24.531753759,2352.19732227
-110.851037752,48.0818835473,9.58063187584e-12
-114.877753249,46.8550443229,1.24164997986e-12
-127.803445809,25.9026901622,4.88857796334e-11
-39.0042095017,24.8984829316,8.39390412468e-12
-60.166408431,48.2234812491,9.94339915747e-12
343.263823711,-1079.77061026,2725.09606991
-66.9070882845,53.1331579863,4.61431079214e-12
-53.0810056533,47.4786155621,5.14565326896e-13
-45.3841097037,39.407415164,6.44723659265e-12
-66.9045587585,51.6530983404,0.0
-54.2795144877,47.6841038748,5.05505241613e-12
-44.9308346347,35.2792958533,0.0
-52.2929396493,46.2476355991,8.82650160636e-12
-72.6515245313,52.0389591971,4.386497763e-12
-60.2216578157,49.2635679977,1.32897042567e-11
-48.0515942553,43.4969284216,0.0
-37.533570127,-21.0628739871,2153.46080362
-81.5210557374,54.6168547598,1.73274789829e-11
-42.7257379509,32.9953639775,0.0
328.962093721,-343.635256285,1843.1098983
-56.5436187318,47.2353530843,1.54593623993e-12
-83.5177200337,53.4848892524,4.08118560252e-12
-88.4999798943,52.5676909396,8.39024089338e-12
-53.5449928813,46.7151257908,2.18071460475e-11
-36.6393422967,-296.854081181,18139.7200502
-45.3675684611,-75.1857272639,5013.20100874
-96.3503564359,53.670921895,7.76647344216e-12
-8720.26826337,-3.93271562906,5317.73941327
-55.0129525828,48.826284362,0.0
-128.720097783,20.1743551336,5.57862596239e-11
-121.292532202,39.6389413164,2.68528470138e-11
-63.0958165546,51.4044941561,4.98196827029e-12
-89.8513928243,53.6537597628,4.24017185422e-12
-313.841493875,-903.235069956,1356.73181573
-86.6726172695,53.5179913967,0.0
-52.0456985877,44.3305652141,8.94997028911e-12
-41.8869916468,-47.75578948,3458.26711171
-66.9027224698,51.0024982857,8.91623519185e-12
-120.317149703,39.7483283674,4.43176074289e-11
-114.339772351,44.7551765011,1.45134892904e-11
-64.2953924683,48.9404970519,0.0
-41.4787383374,33.1740517821,1.98044663091e-11
-71.7682727219,52.9544637132,4.26325641456e-13
-123.540514164,34.6556720155,6.98322530395e-12
-101.371201569,51.3960993506,4.96552782761e-12
-52.7982854014,45.5193619948,0.0
-38.0428683944,18.0587232468,1.17309595562e-11
-122.355291927,37.7420858934,6.70690822438e-11
-107.971072492,49.7810500323,1.82700774818e-11
-32.0422602686,36.5982950524,2267.39089542
-76.2586597317,54.4122193137,4.06014042306e-12
-104.26465626,51.0480308381,1.33880894144e-11
-38.1614850999,-23.8927234435,2318.98728519
-67.8002707156,52.5258348185,1.00951973711e-11
-64.8139360435,49.5834312033,4.6386815181e-12
-117.779158263,42.3076908268,1.16580242035e-11
-66.9414084488,50.3060499123,0.0
-126.659282869,32.4568523495,3.47739470483e-11
-52.133670023,44.4677182171,5.09140695834e-12
-102.898052795,51.046506669,1.3030541572e-11
-81.8063920923,53.2738824471,0.0
-110.170077573,47.7285623319,2.33867242215e-11
-46.9793890165,41.4842705128,8.86787084053e-12
-38.7346993893,-14.221079963,1636.38112595
-104.283056232,50.0950898182,5.87056430413e-12
-40.7903537859,30.3817954877,2.29531241076e-11
-50.405172292,45.2283445207,8.56968940711e-12
-82.2381989119,54.565053908,0.0
-218.62983562,-207.230169867,1611.03069556
3340.02597694,28231.1039726,20546.2671231
-20.1015785332,20.5149138058,3219.80299118
-314.196985002,-2422.32282888,135760.963678
-43.7353268398,36.6358170125,1.06301723117e-11
-64.5282643357,-71.0115863624,7328.31881081
-78.8871506681,54.7123152129,4.51430773854e-12
-76.1185455952,53.194933428,4.28201632843e-12
-35.1791470161,15.4434147065,1359.49993772
-45.1240866773,39.825697857,1.62562478952e-11
-34.7345434628,377.372392337,1355.24541876
-42.9039495882,34.1063174206,8.98278714994e-12
-89.8033032249,53.1464598231,4.43234847857e-12
-55.5142500079,47.4321842067,1.07923789997e-11
-47.4404800582,39.9534120072,1.19686131502e-11
-81.4506105068,53.506763857,4.07910374723e-12
-50.923257337,44.3997663057,1.00835500991e-12
-40.8103203087,29.532163793,1.64045619034e-11
391.916108508,-612.155007553,16198.9822777
-98.3041991903,51.1253219954,8.41733579483e-12
-126.451101733,29.6611621513,7.75345594178e-11
-58.5791461348,50.0765989565,0.0
-53.7044287844,47.4024009204,4.57122055002e-12
-104.126929038,49.4327793391,2.25865186746e-12
151.163800105,500.830167943,3110.78390905
-53.8823497186,45.563258602,1.97833081833e-11
-40.6172130718,25.9860113135,0.0
-61.047561607,48.1615967422,1.39973341022e-12
-47.7860690081,42.5805542981,4.05719306541e-12
-96.6166747221,51.6267385585,1.27644736991e-11
-40.181707004,30.6809304377,4.32586207127e-12
-3.39370906849,1851.24733192,11979.1921904
-146.697041785,-6.92301187312,3045.38500942
-129.30930053,4.77145585058,430.47646835
-78.8913164872,54.5997494646,4.04237032724e-12
-37.9429589692,21.9111392268,3.21139459934e-11
-101.882074882,52.5910782209,0.0
-39.9601040883,25.4288143341,0.0
-57.7624516093,49.2840980648,0.0
-76.710948715,53.7044969323,0.0
-57.0335525751,46.6464708341,6.55211013872e-12
-37.7646068513,-8.03035063109,1296.01971698
-129.489763708,14.4224190019,2.19115202593e-11
-14.5863654703,747.492455114,2220.78170388
139.726953561,-139.894533971,3222.75580536
-89.5145743974,52.8510086451,4.7119541343e-12
-125.721664682,34.1736289461,5.48540134843e-11
-115.492372561,44.9069517263,1.99789134871e-11
-54.5999380485,46.0052158551,2.90436269851e-11
-52.2266234334,45.4661144231,2.69973523192e-12
-90.2765700544,53.5915959567,1.27164817225e-11
-85.5278328567,54.0445428248,8.52154130224e-12
-118.601618023,41.6300739065,1.03640350835e-10
1091.36267329,-797.328645256,6766.32530706
-36.3157067968,8.69787335251,712.60790186
-112.611705984,45.6723869115,1.27896561891e-11
175.924857948,1229.48616156,2454.90399413
-127.744750882,-33.6265018043,3107.33954846
508.411570517,875.681662129,2706.13282501
-95.484348915,52.9628024083,0.0
-493.247468849,-1821.2358146,2994.65039059
-85.6430756119,52.3061667643,4.1707736067e-12
-34.9095915759,365.540979463,1342.75273398
-110.829826416,46.4865953128,1.91901675957e-11
-98.5636250314,52.3817987037,5.62416619817e-12
-107.780739601,49.3020043083,1.00134624477e-11
-121.18900166,40.870371025,1.5650010468e-11
-87.2692931129,53.400347685,4.57530975609e-12
-71.0176970484,51.5377499242,1.29215607898e-11
-44.3517336562,38.6627406602,3.04348339522e-11
-129.390058003,7.63129870644,3.11745351267e-10
-112.284438722,47.5578754815,4.06376981581e-11
-38.3326351007,15.2792181057,653.351521813
-116.969952754,42.5637686213,7.75426764603e-11
-107.351484947,48.859254101,5.7185938954e-11
-48.7612108513,42.1885475833,6.1843355847e-12
-121.403460906,37.8832235765,1.14186142421e-10
-44.6184937412,37.6562116457,2.67264418719e-11
-102.598701591,50.2913213041,5.05321506549e-12
-128.600585694,23.6013129265,1.02318153949e-11
-77.6268530315,52.7892002789,4.14709331038e-12
-65.2743024691,49.4532494682,4.19563314986e-12
-99.9645199877,51.0129717798,1.00736435657e-12
-79.0736750224,54.0429784024,4.09501787245e-12
-110.90231987,47.3569453691,1.94522839637e-11
-55.8946274864,45.9149745765,9.0276741164e-13
-122.717316305,37.5760280093,7.07752401071e-11
-129.397329697,15.5038207664,2.05810655164e-10
-75.4297876111,53.1311508948,4.28781668685e-12
-70.2376882393,51.6678932617,7.98245381407e-12
-37.4986531105,12.1749993882,3.00588466866e-11
3375.34061404,-4688.89845891,5429.35111248
-60.1417398236,49.2046224799,2.16944676113e-11
-46.0267243296,39.9472551641,6.60619601851e-12
-63.1424789562,49.5937715797,4.88608386816e-12
-77.7054781604,55.1156923603,4.40950199877e-12
-104.551816312,49.9969236528,1.39147589784e-12
-38.6188240737,17.6769020147,4.44883248793e-11
-84.1377963011,53.1271553279,0.0
-109.830205066,47.7077485777,1.02673163493e-11
-53.4425384311,44.1077464534,1.48970112026e-11
-46.7187760744,40.2165403741,1.16062955249e-11
-46.0634777839,38.7690559858,1.86616985914e-11
-46.4714014297,40.0014570734,0.0
-40.5744768283,30.1353038719,2.56186198084e-11
-3.1761487224,-143.649365873,13521.6957682
-52.248310636,44.3116571784,9.35780021988e-12
-127.382076293,28.8090979469,2.4645365742e-11
-85.4594279047,52.6224964518,4.83090354871e-12
-42.4018263316,30.6175358551,0.0
-394.89176841,358.630654435,2100.74702944
-104.06308651,50.1656291734,3.59769524951e-11
-42.4302860108,31.0730135764,1.95565160732e-11
-116.905440031,43.2472603597,1.90892760229e-11
-122.407933985,36.7841436632,4.23118180999e-11
-7055.01869074,1243.75173299,1851.3157899
-111.763188804,48.8824632433,2.88109033739e-11
-49.0335699977,41.5476963335,3.39579301404e-12
-84.6648387611,53.8558370099,4.52618913193e-12
-75.4911707768,53.3346364048,0.0
-128.948569699,24.1168483103,2.13162820728e-13
-37.168265845,16.1892188226,1.45776605502e-10
-70.7765919629,52.8706836418,3.82300366784e-12
-52.7664742869,-137.523361148,8496.34889126
-37.7890935695,-23.9310720057,2283.12333441
-77.6246294453,54.3806020219,0.0
-106.261837717,48.8612714199,3.49126451835e-11
-110.401172527,47.0061199574,1.30539044561e-11
-84.4990926134,52.7848491586,1.28922946297e-11
-68.0572982798,51.9117268496,0.0
-89.3605802776,52.487745298,1.67018741963e-11
-65.9819009412,50.3203020803,9.02269095875e-12
-38.9624333897,18.313213635,3.29491041754e-11
-79.9549943587,53.5349541826,1.68583281227e-11
-101.736641027,50.7249914321,1.82348758145e-11
-119.273065338,41.4409850454,1.6375810163e-11
-124.944304176,33.6996687825,1.68393861093e-10
-44.4738269783,37.0871391444,5.42166197974e-12
-64.2775861087,50.569720205,2.91612545892e-11
-78.3803731302,52.1122045051,4.21066004181e-12
-98.2600794624,51.2360683648,4.35513092736e-12
521.950683821,588.363501152,7592.72838665
-86.3043894095,52.6478336209,0.0
-51.6680105437,41.9612474311,5.84401114481e-12
-39.6565394794,-35.8201340074,2880.29248087
-42.2621123584,30.3742744602,2.28004584492e-11
-57.8640450641,47.4549197592,4.53727089587e-12
-39.2303327314,26.7313225159,8.12355645878e-12
337.206132251,-271.19347892,5578.78377625
-91.3793125455,53.4613428961,1.23020965651e-11
-100.45088811,52.0318748917,3.72190798847e-11
-38.4138056592,22.2184358009,2.15488475289e-11
873.914021466,-4099.3501609,3289.64044802
-124.470858627,35.7490415999,1.10747999238e-10
-70.4054663114,52.0000630616,4.53257993764e-12
-49.902939678,41.7459869573,0.0
-47.672809505,39.5527625234,6.08093472248e-12
-122.746962882,-79.3477600929,25828.5924275
-101.859762049,50.9245850956,9.25104987957e-12
-48.895971415,39.799890587,0.0
4.28763373458,7.57077392665,4312.04054364
-111.040617729,47.0302023877,7.23418914619e-12
-37.75665062,3.0871457556,505.582924774
