1750.374684,6.36704988952,5109.66987506
-77.3582534034,33.1651181536,0.0
-59.1714307246,18.7540637689,2.53347052249e-11
-83.9874721463,33.7848992773,9.93046499052e-12
-74.6620021805,31.7796284302,8.52651282912e-13
-95.7673961928,31.7758025587,3.40936363366e-11
-226.859582052,-894.503524196,1780.47631845
-74.1717499896,31.3899748237,1.67380184912e-11
658.69103963,265.995746794,6239.82727755
-104.801817357,24.3585115065,2.20728429451e-11
-84.2559109766,34.0155594106,1.27286495319e-11
-105.314800039,23.3031211166,7.40768150666e-11
-79.7659655254,32.7572916815,5.03745264232e-12
-91.7885810179,31.563906208,0.0
-94.6690635747,31.0872056956,1.51133763414e-11
-99.5111594875,29.2366953528,2.56739735322e-11
333.777349685,4954.96279461,93883.5803032
-84.6723814142,33.3758904916,1.99414409397e-11
-102.255895883,27.4540034244,2.7246890469e-11
-60.0114042192,18.3427373382,4.94800447555e-11
-105.329060017,22.6697392877,5.07904569313e-11
-104.573722869,23.625574758,1.10678956442e-10
-392.889877677,-3560.02624808,3795.37476326
-72.4490605075,32.6307005138,5.63993447098e-12
-81.0524995773,33.3534131148,2.17876384851e-12
-81.9516801714,34.186864886,5.01033268092e-12
4273.5844037,2014.25540941,111014.21512
-81.711195807,34.3479622067,1.56333754728e-11
-101.974563692,27.1765272261,2.62930024564e-11
-69.4569307221,30.0512675227,6.56455718234e-12
-69.863419045,30.8157459078,4.26325641456e-13
-58.5848778356,15.1924068783,1.43025590894e-10
-89.6128556355,32.5441148735,5.64426441687e-12
-84.4870613192,34.9076173891,7.79723575276e-12
-80.4286656169,33.5816391006,5.25669061834e-12
-88.9570779762,33.8313361601,1.37842524521e-11
-1341.64487347,-153.660754183,6326.47361421
-90.6619474351,32.879858604,1.71241639284e-11
-94.0657327297,32.4170319738,5.5030263669e-12
-76.9436988841,33.7100042134,1.34601101719e-11
-84.6092471937,33.4848286859,1.49885737998e-11
-50.762584505,10.9010455856,1625.59751879
-94.7510236342,32.097682874,2.19487600595e-11
-108.200539538,19.7254755894,1.52679500553e-10
-68.5559517393,29.2815170704,1.19101325754e-11
328.705437495,-640.012591847,8015.25818828
-75.1808010034,31.6020175722,0.0
-74.6270977533,31.1416594129,0.0
-83.9859854941,34.0395133654,1.27464675988e-11
-90.4372225588,32.721336083,2.09536615214e-11
-96.7130459766,30.002405321,0.0
-61.8362245839,20.8122800537,9.21025772001e-12
-58.1434513587,15.7461510715,1.44674940766e-10
-1117.63861498,-957.456129803,9014.79793806
-91.911489449,31.7257967995,1.57672087112e-11
1390.30936698,-10800.0572686,1886.87960934
-77.0740642595,32.1117768924,1.04294405075e-11
-52.2495763924,48.6095801761,2579.55240229
-103.452423265,25.2351772138,1.44717149654e-11
-228.408543341,915.794953231,1996.94572061
-71.9674378467,31.6309248952,5.89334943618e-12
-95.8996274265,31.3359139736,4.90953770713e-11
-62.002867315,20.3486567606,1.0111301745e-11
-75.6856355924,33.4789633418,5.83147548637e-12
-96.0008223301,30.37228099,0.0
-101.856863896,26.986566058,1.65042216807e-11
-59.6280439632,18.7642183582,7.5623554363e-13
-90.3527332309,32.0094272493,1.70530256582e-12
-74.3667174534,32.3608994066,1.95727923471e-11
-92.2724914474,32.1139704251,2.3403958402e-11
-67.3319640916,29.6039267378,9.51752324796e-12
-70.3428108733,30.3373145465,2.38631281718e-11
-101.190370888,27.0638846171,6.76778226299e-12
-69.707136334,31.573463906,3.09503408513e-12
-92.8410680846,33.0827323954,5.28371217686e-12
-67.9215749067,28.7006508764,1.88742470613e-11
-76.9069218586,33.4847091551,8.52651282912e-13
-82.7837370956,33.1162649341,1.50937865673e-11
-93.1802577438,31.5750125076,3.36040369915e-12
-64.6629636912,25.4163768498,1.42920472264e-11
133.975462591,126.846320663,3186.01774061
-87.4407743846,33.3353620422,2.13708949179e-12
-85.3623970984,32.8372803265,0.0
-69.5675950028,29.2930256321,1.75704566009e-11
-80.0156043162,33.5065347353,1.01791377262e-11
-58.4811630491,15.2997818093,3.89720947397e-11
-96.0521600052,31.6305313335,5.6738874673e-11
-86.401996254,33.5365642042,1.00318502612e-11
-88.7756459527,33.8094906721,1.82174043961e-11
-63.2833659616,25.8634585401,1.76424916406e-11
-79.0704883823,31.9140818386,1.46314301931e-11
105.5744744,219.035858373,6932.6081556
-87.8694968854,32.6193650298,1.94325303562e-11
-72.3927438566,31.4158591744,2.22421481477e-12
-87.4211645184,33.3047792113,5.14964473137e-12
-69.3286725014,29.7457220449,1.49665898118e-11
-58.1404849959,14.5279832792,4.20495778816e-11
-83.3972603843,32.6616647015,5.04281637216e-12
-94.0661192171,31.6075844957,5.43314922139e-12
-62.79700126,23.3328160027,8.84000031086e-12
-99.8102887869,28.7962083032,5.46622902705e-11
-82.1386863152,34.7736572493,1.70530256582e-12
-79.2501524157,33.7546983446,2.86752790724e-12
-92.373944605,32.074004466,0.0
-80.7100780019,33.615168441,1.30346495511e-11
-70.8038493046,-19.0775916141,4711.55028948
-105.872341766,22.2607701617,2.82644239111e-11
-95.7249874622,32.4518177974,8.79556763669e-12
-57.9018142611,5.86904421176,491.033025456
-84.4980119872,34.5401867573,1.70530256582e-12
-58.9370565559,13.4183692707,1.16815161396e-10
-74.6976100831,31.5492841164,0.0
-99.7816836408,28.3254341998,2.39736602825e-11
-87.2727433204,32.7248730577,1.01861727129e-11
-63.7838042573,23.9467899427,7.87625332854e-12
-212.010912332,689.428452862,40813.0232454
-100.73389873,27.7045128125,2.54727576872e-11
-2023.95309933,4528.10266541,4325.15532898
-58.5665177726,12.2011739737,5.91640311545e-11
606.819904123,372.186451283,20934.4564364
-81.654988412,32.2330668316,0.0
-62.1988361485,24.4704658121,8.31337957154e-12
-70.7447358339,28.6780545091,2.24973220833e-11
-84.9149001456,34.9720588143,2.79475782606e-12
-86.3558987306,33.1418510223,1.00766791045e-11
-46.7221890253,1504.51291351,3759.20220608
-73.3771319016,31.3653537258,0.0
-55.3472164752,-353.096684393,814.491081937
-66.5280577719,26.7914309983,1.27321967384e-11
-75.2324505971,33.6557614793,1.98252613572e-11
-81.0012003206,34.4642846749,1.05793135667e-11
-91.3991098684,31.9221050276,0.0
-97.2371443773,31.509064025,1.48558010242e-11
-100.877540832,28.4825210124,1.05749396611e-11
-79.2305619248,32.9011030013,0.0
-87.8436411189,34.1184282926,0.0
-83.9971722394,33.9615047142,0.0
-6.33213007715,-903.137719269,5843.50486278
-92.0880982382,32.3294212099,7.51351546852e-12
-78.510500885,34.1258692919,8.05144027541e-12
-71.4618561984,30.5915275481,0.0
-74.477652922,32.1178867973,5.48615923439e-12
-77.6037606389,31.5150300891,9.97584478117e-12
-58.4017224256,7.83786675627,232.25368681
-61.5951973218,19.8284543192,1.474646704e-12
-82.3237687205,34.7713585764,1.34163633336e-11
-80.5150320778,32.7342631049,0.0
-63.1651774901,25.3431280054,2.39396232464e-11
-59.6312552755,15.6249114711,0.0
-212.274958037,-364.469527179,6134.08214303
-74.7889601325,30.8882523758,1.02570467156e-11
-75.568362617,33.2815431095,0.0
-58.4515047803,8.3434011766,139.337268367
-76.8384099032,33.9535228582,2.20414833565e-11
-93.0600953052,33.2205362032,0.0
-71.449853813,31.3040754604,0.0
-76.2571966231,34.7928876812,8.66874003231e-12
-83.6910854451,33.455455562,0.0
-79.609517518,32.4929665051,8.52651282912e-13
-1037.68741939,-5388.51690846,34133.7307858
-66.6801105056,29.4735369189,1.21843311891e-11
-103.234365136,25.6784228952,7.79919678742e-11
-76.6329303319,32.5195642845,5.31380194537e-12
-74.9289783373,33.0353095359,2.19257293745e-11
-65.6704861695,27.9992067419,2.79601693674e-11
-91.7336005046,31.5329826828,4.85362773911e-12
83.2171287591,709.7179254,64247.8691651
-67.5942536612,27.9203825225,0.0
-67.2165115265,29.5397397974,3.31697023734e-11
-80.3745345899,33.9279516471,5.23773365538e-12
-76.068107032,-452.689465034,8127.367622
-102.517513627,27.4542589562,6.86866392796e-11
-2533.72331348,-700.625331461,7518.30498303
-67.5101186458,28.9408263144,1.26375490567e-11
-67.3179186753,28.9174259368,1.95187279235e-11
-75.2002472507,32.817428953,2.81231574909e-11
-87.1725289037,33.4720613733,1.5699533874e-11
-68.9051076916,31.6654441186,1.93155371193e-11
230.719685326,3950.04814225,5886.92480067
-85.4641213884,34.4376584462,3.28942096566e-12
-91.1869854499,31.728686415,5.09441523941e-12
-90.7236570041,33.1070509649,5.43503110914e-12
-99.8096731447,28.4183230099,1.81149704561e-11
-61.365881351,23.0399539812,3.6712201625e-11
-89.2786847632,33.9715661425,2.8604148321e-12
-63.1796581573,22.1823725013,0.0
5618.00431426,-1544.02106761,38963.1126802
-105.976899166,21.6017334143,7.26655831571e-11
-94.3996076927,32.352187232,1.94679014116e-11
-67.8478624819,27.9943022679,6.3595977795e-12
-91.378538052,33.5851441676,5.4098585678e-12
-71.6052216506,33.1397462186,2.74378258805e-11
-99.676591686,29.63651326,3.09522222255e-11
-86.0453860747,33.8549230791,2.06051514829e-11
-100.267641166,28.3354819441,3.169041136e-11
-60.6459318602,22.4191847514,2.10257072816e-11
-75.6080889758,33.218304247,5.42920001977e-12
-73.9134742014,33.2981856704,1.97450111448e-11
-76.9051688273,32.0638470773,5.33782788495e-12
-76.6185995803,32.9430576306,6.45562625859e-12
-60.1983244037,20.4485202766,6.43181108581e-12
-65.4166058477,26.2299794596,0.0
-140.850984162,2000.45981735,32579.8612871
-65.9439998931,26.4641280865,6.86639301795e-12
-95.9859393997,30.2382762889,1.11727379586e-11
-72.6121279804,29.8351595527,0.0
-93.4537756509,33.1358973016,8.25994718156e-12
-90.0144357966,32.350808933,8.52651282912e-13
-66.0576771339,26.639866462,0.0
-59.3511143926,19.6132654913,1.1734542075e-11
-90.5640854776,32.2807650892,1.55176422782e-11
-79.7452727608,32.855420437,5.03193414745e-12
-81.2916850429,-707.882894147,3821.26118263
-92.7919861636,31.6233049229,1.06581410364e-12
-94.3126174656,33.0810789742,2.55962243937e-11
1025.84897819,364.59352019,6680.95879973
-94.4406183326,32.3472575274,1.62619956927e-11
-93.9845770917,31.3580263157,3.17854415968e-11
-59.6655067065,14.0218205652,9.30638652949e-13
-90.8517604812,34.4780887198,2.71189604481e-12
-103.953922317,26.1246776842,9.78484637895e-11
-237.726419273,-900.049312001,1134.30127265
-81.5911358938,33.0603384246,0.0
-65.7795174019,28.882485572,1.00404870326e-11
-72.739127443,32.6169348765,5.84631760037e-12
-60.5603127958,18.3183924856,0.0
-90.2226667226,33.2365516635,5.1534217e-12
-67.808484693,29.9434087761,6.98143297233e-12
-63.2300139773,23.0344192847,0.0
-103.295979344,25.1018239381,8.82001870869e-13
-80.9904334751,32.8518509089,0.0
-69.3329248775,29.9879018549,0.0
-99.2918118703,29.7711147363,9.38273209947e-12
-233.08558011,200.976290747,2193.95298462
-549.991262997,-533.217900039,22760.1949299
-86.3928224319,35.1348168085,4.26325641456e-13
-74.8233941071,31.5774501674,2.09839439273e-11
-90.071149038,31.8611998499,9.87603927246e-12
-65.0069957395,27.1937802428,0.0
-69.4307655902,31.2724779614,6.13647069406e-12
-80.2310782209,33.5695330277,0.0
-94.3310756059,30.7623829922,1.07125823424e-11
-91.409022416,33.0449646884,0.0
-90.1532162607,32.1246115461,0.0
-99.340568822,30.5953830851,1.25740973436e-11
-73.502370082,32.794827206,5.2991496655e-12
-89.3121038188,33.7024011266,2.62247207473e-11
-83.4320216493,35.0937384418,2.79059992821e-12
-77.3623492404,31.9775136743,5.34234675283e-12
-57.2581177551,17.973908859,775.923491741
-91.1750025282,34.4622588519,1.96586201993e-11
-107.685717088,19.5590300838,8.28921343208e-11
-101.957208168,26.074105023,4.01139841682e-11
-85.2667681448,32.9627815814,5.00776530282e-12
-99.3172848507,28.8290955814,9.5772988099e-12
-58.5021542907,-10.5848573947,1161.10790587
-72.2718110747,32.568606603,1.48263861142e-11
-17.2806241293,1.91003121711,3682.42591627
145.625766397,15.7697051018,9634.48609556
-107.666628387,19.136505014,0.0
-64.407288087,26.560307129,2.20550729077e-11
-62.5479351903,23.5818171961,2.2642561759e-11
-75.5309454327,32.4885027152,1.09343088222e-11
-106.817616409,22.3620242614,5.0762336319e-12
-98.3564505839,30.586607337,1.18547753432e-11
-95.865359737,30.7371027178,1.64469640978e-11
-61.5692594815,22.3781791699,3.17044122346e-11
-103.001021988,25.1276899694,1.10523551576e-11
-62.6804064221,24.3248909746,1.64867050963e-11
-99.8861804082,28.3941262082,9.71982218253e-12
-384.377891516,-5.38514675324,5490.35701772
-61.9871023116,24.8557366768,3.41034873275e-11
-948.731987853,1624.06456821,1745.46569105
-63.271297685,26.0851703823,1.55762669556e-11
-79.7139754925,32.9015673991,0.0
-47.6763629638,-27.4190420948,3534.37586609
-74.0113916548,31.5916536679,1.12005045743e-12
-98.8021820791,29.4041159574,9.42105197274e-12
-102.204473266,26.4514868286,1.99121289968e-11
-68.6966156161,29.8177213548,3.77547411995e-11
-103.60013017,24.5490903151,1.28373091748e-11
-88.278434201,33.0943504723,1.02252450614e-11
-85.4310429155,34.67189081,1.0518603325e-11
-60.0190838456,20.0647473817,2.44685120893e-12
-68.7139650685,29.0209868009,1.14961986026e-11
-86.3498236611,34.5700537572,1.83341118587e-11
-60.619639281,17.2887949001,3.97075229062e-11
-100.541561365,28.9105420654,1.59054559859e-11
-59.0236658294,7.52294715527,364.165061965
-76.2047623142,32.8323541367,1.15614770325e-11
-74.2538913942,31.2427201752,4.96284300375e-12
-70.6155601235,29.0686844,2.28426839998e-11
-68.9828151678,29.0589051146,0.0
-87.8003318436,33.8198293206,2.36238931712e-11
-74.1427029055,33.3354393283,2.23489507123e-11
-99.2805855793,28.320852322,8.3435446473e-11
-388.673999036,-201.117898479,9118.30100538
-87.4840483594,33.7326415563,5.68877416433e-12
-74.4482957615,32.0245166113,2.12993222039e-11
-81.5817633071,33.3966391989,1.0110908247e-11
-73.4967268204,31.9826565181,3.04160186366e-12
-29.6486153873,-183.712393777,10479.6597862
-720.559266248,-7.65615644558,4935.97549854
-59.6601635376,15.033128938,0.0
-83.840940425,35.2745686494,0.0
-60.5085968842,20.9735887688,2.51839100387e-11
301.324019566,-7536.17794602,7680.53125841
-72.00311726,30.5428797781,2.58860771761e-12
-69.6228415839,30.7245558261,0.0
-63.4888545779,-71.2816890065,4782.0244544
-86.954915401,34.6333163722,5.62870146973e-12
-108.112093261,19.7014427302,3.30776865004e-11
-15.9691674556,2321.69775628,10369.4741421
-76.8776678039,33.2537869795,0.0
-462.911481336,94.9486331171,17544.3586642
-115.745538316,9.6235725599,1341.77535473
-108.100748251,17.3125637131,5.31315102853e-11
-91.5738865371,33.5491002527,1.07947032812e-11
-59.2795704632,18.5195581864,8.52651282912e-13
-63.7728979546,26.3172370951,0.0
-103.892119412,26.2035214878,0.0
-60.8368420592,19.4760969074,1.02720078489e-12
-95.5258453915,30.5894279881,3.83884078282e-11
-65.492342614,29.0516502226,6.48020639172e-12
-72.7130603346,33.3028998364,0.0
-66.1156305451,29.1330793415,3.72042709863e-11
-401.477665798,800.357562583,4741.48944513
213.295921021,383.641177561,8813.90265611
-53.0871962366,-344.943369214,972.098613732
-68.681028712,29.9005482726,0.0
-68.8622919413,27.8488182577,0.0
-59.7947645272,20.4532326403,4.32562451757e-12
-78.88974521,33.3075681122,5.71664207574e-12
-83.2774345113,34.2845898443,8.52651282912e-13
-81.091156346,33.6452709529,9.97396891211e-12
-61.7771809154,22.7998040794,1.74334539916e-11
-18.1082008562,-0.44056396832,3492.79585503
-59.1206902754,16.368918519,1.49552624482e-11
-109.018292815,13.7849511524,1.25408905517e-10
-85.0197132638,34.7090149648,0.0
-87.5043482833,32.9187286183,5.02836611273e-12
-97.1757669948,31.5520944055,2.06425356224e-11
-91.8120963769,32.1491744719,0.0
-63.9689253227,25.3992924617,7.54858262624e-12
-1123.66910165,-691.279618172,2675.26102764
-81.8397153176,32.9201305172,0.0
-58.9056040033,10.3160686036,310.096549581
-81.1468489695,34.2830437817,0.0
-97.2250314863,29.7578020434,1.66702745506e-11
-77.9861653635,34.1741217313,2.94772219638e-12
-58.8916650337,16.1533686337,1.67098983695e-11
-60.6216733142,22.4420194463,1.95319606639e-11
-93.7282401805,33.1339827786,2.98058367879e-12
-108.956719565,12.1355076002,4.36077643773e-10
-106.894055183,-2019.11234056,11839.3321323
-76.0026672851,32.2633290862,0.0
-87.4586713778,32.7875486769,1.96521013666e-11
-60.5304520164,19.9827233305,1.34158081772e-11
492.879548192,884.671516273,1944.06327112
-70.0105721137,30.9369813577,5.9257492109e-12
-88.2935870796,33.7499386207,1.2320679511e-11
-75.3184733889,30.9547949244,4.87769867262e-12
-101.357356667,26.6767749531,2.26369485903e-12
-119.588207789,408.789223085,7986.71830914
-65.9941116772,27.8138747335,7.20449462676e-12
-66.795103008,29.1112634402,0.0
-75.8014674568,32.8187187352,1.07405606008e-11
169.190917269,-1292.72431944,4550.0660151
-53.5583284972,4.17800248304,1401.02268872
-80.5865714949,33.1054505148,3.05859862084e-11
-101.038038954,27.9670485075,0.0
-67.9576312616,29.2576110295,0.0
-94.321824147,32.0195108175,5.49117312651e-12
305.362304791,-924.422862976,140152.371198
-65.9228102931,25.1663839003,2.05429085422e-11
-69.7899687085,30.05199705,5.46190812314e-12
-97.3282937481,30.8766962783,2.37713306688e-11
-61.9809895158,20.3165988778,1.54477300788e-12
-81.2559724493,32.186335787,5.12276965733e-12
-100.760460204,27.8317268902,9.35792622422e-12
-104.137772261,23.8690456253,0.0
-65.2690909088,26.3038004383,0.0
-75.7127864794,33.214514103,1.18603465721e-11
-404.208237711,-2419.58289536,5749.37889955
-64.709205057,27.2494552379,0.0
-51.3703909758,-345.972634705,1303.35096462
-86.2451968635,33.6747701941,0.0
-86.7883492465,33.8564483334,7.89310569643e-12
-411.890753244,42.4829216244,4784.09679868
-86.6792271451,33.5886841381,1.50131401618e-11
-75.8000075405,33.7150925491,1.06449430904e-11
139.179525498,-621.777818283,7438.54695148
-74.7589644193,32.5355968197,1.11026917263e-11
-74.4408989975,32.1570443935,0.0
-85.7217064639,33.3768973665,1.49585657882e-11
-103.553625549,26.1057530155,4.92605300047e-11
-83.7869802381,34.5550703355,3.28603676108e-12
-62.3436159967,23.6219453307,0.0
-87.6450967635,33.7869049508,1.5683251839e-11
-103.375111543,24.7901917967,2.21981452384e-11
-85.7094766898,34.3611435469,1.62392374962e-11
-72.6792134827,32.7058209946,3.51017071177e-11
-62.7229622336,21.1546614472,9.02337208495e-12
-102.381613569,26.7362662045,7.18273286729e-12
-653.651556306,991.838838748,59769.7252686
-87.5043004337,33.5262204867,7.86513623899e-12
-106.847564881,20.2489214196,6.59263423202e-11
-71.4133818746,324.461511473,18797.5820106
-77.4974052328,-469.431019032,8622.41420839
-80.6084756811,33.0757180888,5.07351561906e-12
-95.1017514268,30.8919667851,8.46832949486e-12
-85.7025065405,35.2928759531,2.78376808231e-12
-74.0205363549,31.7519991482,5.68343833768e-12
-265.852436548,-277.194506088,5922.18577346
-68.7780867636,30.6022263124,0.0
-80.0261078424,32.1325845076,4.82827460116e-12
-61.5618775628,21.7351268822,6.42413711999e-12
-62.7225793778,24.2013564151,8.4413568436e-12
-93.5602739424,32.2516522014,8.52651282912e-13
-97.2078464824,31.0301508717,4.76891226451e-11
-68.083252547,29.6132357733,7.28681822329e-12
-74.7252341435,32.595874968,1.07639960103e-11
-83.1605314873,33.6842896554,1.56147427551e-11
-67.0831138417,29.7800716356,1.39754226198e-11
-68.2512143624,29.7542036282,1.2578450553e-11
-78.6193921534,34.3341247481,5.00182300142e-12
-66.8528039784,27.5897037785,0.0
-87.8731394942,34.9849387596,5.65330640714e-12
-83.6173053708,33.5641023281,0.0
-97.2730258545,29.5296943086,1.13022928949e-12
-73.6317379426,31.3469824773,1.64618817589e-11
-77.8641485949,33.4252873553,0.0
-56.3352764575,14.3748034191,687.237176136
-92.7430734401,31.6459362842,6.18582275285e-12
-83.1885316069,32.7843275457,5.17828701672e-12
-91.1188039202,32.2423399102,3.31455558999e-12
-52.2917650245,5.62132040014,1332.40146737
-71.2811531985,32.0391569482,2.75857926475e-12
-82.4147025212,-374.566330033,8221.05070059
-60.0828918047,13.8210781824,1.99293723553e-11
-71.0739179957,31.4293470135,2.30979204238e-11
-90.6157833912,31.9322564427,1.0398537336e-11
-88.3375506044,32.3260439628,5.11511085825e-12
-70.7391830767,32.0155439042,1.83082575624e-11
-104.029626981,24.658917433,7.47704100187e-12
172.819883656,-1686.30165596,7304.57043025
-82.6097625697,34.773023037,2.83378446084e-12
-100.634662031,27.6922761701,3.71776399213e-11
-56.0035938851,26.4919713926,1207.19931515
-45.4689325091,10.2165458893,2076.84615636
-101.522721196,26.855950637,1.79666039813e-11
-84.4995692599,33.3538306814,1.99829100581e-11
-80.4739045742,33.3100269619,0.0
-108.200811809,18.0337719847,1.01358585759e-10
-93.7990239174,32.4754873071,1.34256808098e-11
243.837494073,2536.87978401,1676.98992234
-82.4096109542,32.7632739336,1.01192363224e-11
-81.6792522351,35.0344892996,1.32923492373e-11
-103.535373728,26.367669454,1.47246495521e-11
-63.1593305715,23.7434166102,5.52364494212e-12
-85.7552024377,34.1246403002,2.61195988064e-11
-64.3210572246,25.9760586632,0.0
-90.2730687255,32.6373058255,3.59009427919e-12
-81.3762936418,35.3965026138,5.56039927271e-12
-97.277221036,29.950992342,7.67670182397e-12
-63.1577125692,26.5725300001,4.36832060279e-13
-83.9732788774,32.9666594524,5.02566069971e-12
328.037006021,-696.924326153,3398.79967586
-76.5040407718,34.4884141615,1.38933387083e-11
-80.0394484149,33.5071881968,0.0
-86.0614026702,32.4064698818,0.0
-88.1395993646,33.1188076543,1.50933551927e-11
-65.2346507456,26.6110834001,2.90735402457e-11
467.382022382,-1552.65055545,36301.4017546
-72.0857359243,32.6306067424,1.46676864456e-12
-1836.32459827,113.551897125,6740.8740772
-63.7178077681,26.790010558,0.0
-86.7918056466,34.8606153963,1.33204531119e-11
-79.9602332149,32.6116476562,1.01361601717e-11
-60.5816831541,21.658821161,5.3785797348e-11
-70.7085595137,29.2550065479,5.61730210542e-12
-102.753036075,26.8702476965,2.74692507694e-11
-98.5959423919,30.6103608363,4.19702170731e-11
-5.93824788537,-38.5356630807,6861.1042984
-68.1057689717,27.6731186192,6.2211465034e-12
-57.2478816681,368.438746435,364.527164474
-66.0016232518,26.9739886703,1.54603089808e-11
-80.0893516403,34.2770891918,0.0
-71.5088661674,31.5756257026,2.64113681407e-12
-53.512862459,28.8954611423,1844.16232843
-74.0874571615,31.521389154,1.59682151483e-11
-73.1727459416,31.0856427053,1.08862443034e-11
-109.303670378,-10.6989233974,1251.46005996
-60.2435430012,19.2861133381,2.28847979464e-11
-94.6991044055,31.8762591232,1.69370644011e-11
-96.8408671118,29.8918528165,2.23539903578e-11
-103.122327126,26.9495906967,1.75424183117e-11
-67.8466927044,28.1095485785,7.49921687196e-12
-58.3707237475,-5.68931700932,2076.13555136
-90.4373378755,33.9431375175,5.39081528977e-12
-103.086542636,25.5351293755,5.67195386799e-11
695.473764952,-262.948227747,39479.8890033
-91.6333155146,32.1452310754,1.53183689235e-11
-64.2558331761,26.3162203304,0.0
-72.7289638376,31.4202471995,2.81491389834e-11
-67.6627306843,28.761864435,0.0
-76.0595005122,34.1615602342,0.0
-71.911473843,31.5060458646,5.16758341317e-12
-95.4632188606,30.6042208024,1.10334286866e-11
-381.061946321,-3946.99371527,22033.9994694
-59.6182590679,18.1100247957,9.66710214982e-12
-75.1498557486,33.7913976946,1.37427278375e-11
-59.8455173524,14.1578321591,1.96136060825e-11
-79.7397656803,33.9770416323,8.52651282912e-13
-62.4183077488,24.0070548108,1.55245738383e-11
31557.8852749,-2896.72702622,8499.35319686
105.69315603,2097.89900951,10325.5038737
-45.3653587942,-268.718367741,5195.58919559
-95.3978638098,31.7266494081,9.98881077559e-12
-60.3616858713,13.9172888183,1.19636033501e-10
-105.142966578,22.929901242,5.03030200781e-11
-60.3402112044,14.8296291291,0.0
-79.8151315294,33.8716858917,0.0
655.637634255,-385.549917999,1977.50565362
-57.3901972228,-11.0232775783,1462.09921875
-72.6302289992,30.1182382379,1.07687564778e-11
-63.751387767,22.9409196736,0.0
-59.9236149001,16.3544902353,1.16265139098e-11
-90.934640643,33.7000734043,0.0
-72.6438702839,31.8013617664,2.57945532833e-11
-51.0141847147,-751.760456961,3349.2412854
-88.7026196456,33.0328452198,1.5305136147e-11
-82.2401862553,33.1286856304,0.0
61.3994252095,-1252.46130408,2088.74434175
-66.9619824281,29.6656826876,1.79503938891e-11
-108.769372413,16.1511785547,0.0
-105.829271438,22.0926400877,6.94188513347e-11
-96.6804710278,30.3913727915,1.93423789432e-11
-75.1019983072,31.562915629,0.0
-93.1036434865,32.4799119571,3.23284140323e-11
-92.8666719197,31.7830309368,8.01030747918e-12
-75.9624117814,34.299107073,2.54692348233e-11
2459.70779089,1078.32146438,5583.18889058
-94.4227011087,30.6797744795,2.08916507784e-11
-70.3812531502,30.5046360618,0.0
-57.7488783246,10.5591870006,1.58202346171e-10
-91.5343209085,33.0792821426,9.63365709237e-12
-72.865877864,31.5694289572,1.21302449469e-11
-99.932779395,28.8791154334,3.01955874177e-11
-103.163661088,25.350247262,4.2320238134e-11
-85.93286707,33.8469462809,1.55851560257e-11
-61.2330625079,22.6610131187,3.67348790179e-11
-106.399595397,21.0225642686,2.98674692104e-11
-108.266882849,16.3728872737,3.03872576169e-11
-87.6700731173,34.2620969224,0.0
-79.8003783316,32.5583346755,1.028446073e-11
-81.1318081904,34.4327589679,7.74758256754e-12
-110.740800842,4.34780123746,1033.0556839
155.468773632,156.374502427,3836.48054191
-57.0453496466,7.49126005216,440.771785647
-88.6576919516,33.5864763761,1.00261484093e-11
-69.5960027269,30.2820051793,4.20618810871e-11
-102.27466229,28.2416718549,3.36562122606e-11
-76.2693111356,31.4645706472,5.09542122781e-12
455.939073978,905.982787479,6401.97687427
-79.8353825427,33.8617099888,2.60846152346e-11
-66.1864570745,28.1340011137,4.26325641456e-13
-488.728834735,-1370.86551701,5908.12803465
100.794135004,-284.010465022,5911.98194743
-68.936290662,30.4617679187,2.9226659572e-12
-86.0729711317,-841.180676779,10374.7742716
-92.0721847873,32.8404787292,1.5758040785e-11
-89.4771279387,32.9540244048,1.8493102375e-12
-94.4351044294,32.4765889729,1.12952694328e-11
-69.0368653888,29.5672629396,1.16129801022e-11
-94.1059817403,-90.7516623747,7642.60384618
-83.2728994778,32.2640464479,9.37299151537e-12
-70.2654717698,30.13745614,1.29950848383e-11
1756.95508611,88.5585468616,5135.68783189
-64.3384411176,25.7993347456,1.44126809514e-11
-64.0780058891,25.0557832536,0.0
-75.4809203975,31.1682017551,1.03985573e-11
-58.4159917616,-3.46418447152,820.840966507
-85.1988267316,33.9936505789,0.0
-106.061086813,22.7207462628,4.756620452e-11
-59.6321224365,15.349499054,0.0
-478.767310062,3749.15155604,6470.76170802
-70.4495042963,28.9289340815,1.15034731307e-11
-77.7657907249,31.8515277722,5.28482680542e-12
-33.5467315691,-340.102861278,3184.19013236
-56.8025647126,19.9523224906,754.895344084
-73.212212325,32.8357009254,5.44918527072e-12
130.021688701,219.223975398,4232.26657101
627.58328864,-10644.5953558,6445.84093516
-75.0656904669,33.8168052721,2.95910827082e-12
-72.5141123307,32.6377713923,2.00591471982e-11
-93.6141051894,32.1307521688,1.31402721218e-11
-64.8232019603,26.048388003,0.0
-67.4965641821,28.3173625876,1.268196208e-11
-100.489781458,27.6799972931,2.48753720946e-11
-103.37564283,25.81604424,5.79785529769e-11
-70.178876439,58.8298439423,2744.27359868
-95.7853441196,30.9978982852,0.0
-62.3967776765,23.8237953776,2.52852516558e-11
-80.3216855177,33.7363240279,2.14252451626e-11
-92.0020364418,33.7104188689,3.32634863783e-11
-64.2278151328,25.9251733247,1.62160093527e-11
-378.111467528,3998.17366253,173101.186825
-59.5540639171,17.9907373508,2.86689060994e-11
-70.8437823134,29.0919829959,0.0
-93.0258562186,31.8733516204,2.90417862941e-12
-104.265545417,23.843505028,1.92922829344e-11
-88.4693613238,34.4379171019,3.08997838791e-12
-61.1453001576,23.2897133042,6.38902149959e-12
-76.0859807939,32.9903472581,0.0
-86.6099617157,34.6442081763,2.8058979786e-12
-99.4408106016,28.8586603686,4.84595478794e-11
-108.175173418,16.2577829131,1.47002847335e-11
-71.0223491207,32.3356727943,1.40883608921e-11
-85.854098874,33.4305804156,2.00380404914e-11
2859.41278764,-16.4008859967,5204.71952869
-256.554388784,-770.800676867,5911.59272824
-72.9924170033,32.1530180732,0.0
-9627.74069239,546.184842373,7532.17407881
-99.2115821647,28.5405979096,4.22476413765e-11
-103.603374525,25.2147758588,8.86796887738e-12
-65.569892147,26.7097893617,0.0
-97.9213797415,29.1393692185,1.2499972158e-11
-58.8237663579,18.0647371974,1.27897692437e-12
-79.7415607186,34.0023014345,1.07391712398e-11
-58.5284453221,10.8115768582,4.16754353628e-11
-87.4698963535,32.6546167572,5.04321114225e-12
-57.2935543784,-16.3307611879,1671.26777455
-63.9497512454,25.3702244452,7.84990987295e-12
-1997.71523475,1593.93259014,4191.594867
-94.712277166,31.5094378193,8.76811404859e-12
-95.0067315078,30.6779264512,5.31651341598e-12
-77.1030666158,32.5896051977,1.54671461489e-11
-75.8792407224,32.1920843333,0.0
-74.2392394042,30.6417309073,4.98717768349e-12
-64.7451058652,23.7853060205,1.45296558287e-11
-94.3964568633,32.9482778725,1.68719193425e-11
-84.0716708012,33.5316553654,4.99350816983e-12
-66.6919574446,29.2592695974,6.02689414702e-12
-61.4631448416,19.8447639744,0.0
-68.7577590187,30.7877999481,2.15446635776e-11
-105.587622768,23.2671932647,6.44907194063e-11
-100.804974117,27.7172551155,5.56869625432e-11
1039.30015824,5442.15507481,3575.55056432
-72.8510834917,30.0364095987,5.22437196708e-12
-643.417518928,941.060328029,6388.67201829
-1119.46741931,-363.788955935,3050.61305227
-107.385697013,20.2522222909,9.23263866985e-12
-62.919484947,23.8267951609,8.88888736513e-13
-80.0513656729,34.3327387682,5.09193517135e-12
-98.8032366048,30.6487425189,8.61981997822e-12
-57.4064265808,-10.8829860841,1434.26621918
-53.4500468898,5.43160506372,1099.11429244
-97.6470115652,29.1831337224,1.83101270138e-12
-233.555353948,909.200943052,3223.15173972
-93.2759950242,32.1374290014,0.0
-59.6538172281,17.9017328309,0.0
-93.8031549509,31.828376605,1.93262314141e-12
-108.364502934,15.797746284,7.90246881611e-11
-90.5914077527,32.3450696694,8.52651282912e-13
497.833427423,1136.29267303,7181.64945632
-76.7518801892,33.0124936143,5.07705590412e-12
-82.6091352275,33.404729539,7.82974890225e-12
-51.7693981968,-362.205243027,1582.24856025
-99.1739341367,30.8975614191,5.87721833304e-11
-66.7771929171,29.8029729603,1.28536237578e-11
-78.0212805194,33.5981630479,0.0
-89.0489750554,34.7411623875,1.63890195885e-11
-88.9242805305,32.166362699,0.0
-69.8369541473,32.0090314701,4.26325641456e-13
-76.9353453436,33.4167939159,0.0
-98.0671586409,30.9653356266,1.79918306938e-11
-120.555602946,58.9777205446,3382.5125856
-83.9964524933,34.213251729,4.95408104025e-12
-102.546467103,26.1021059387,2.06161695842e-11
-95.478637949,32.423031295,2.28827562673e-11
-91.8015024979,31.7585933578,4.94164407969e-12
-66.8952630601,29.5151267629,6.58641201638e-12
-51.8866433101,-349.787261067,1305.71629116
-100.625003726,27.367246322,3.0717669701e-11
-104.201366451,25.282273489,3.29358987441e-12
-91.4999455149,33.4899754525,0.0
-80.0196893213,32.9744537583,5.1678688809e-12
-650.98290147,1065.18609219,7711.05967447
-87.1070643662,33.4457253727,2.51949515712e-11
-62.6539465936,24.5648416038,1.68375710346e-11
-66.4049308351,27.6510421099,1.31967853457e-11
-94.4390577301,33.1135236586,2.79978463389e-11
-62.2918291568,25.1681758114,1.13350838845e-12
-98.3182411403,29.4066684662,2.69530424573e-11
-86.6629095523,33.5699247957,5.13490343421e-12
-79.0308355769,33.6731805706,1.58936254021e-11
-80.7944561797,32.4941665956,1.96454560049e-11
-90.2625374287,33.7515255602,2.86763167685e-12
-83.3561344106,34.3944938657,2.39369235422e-11
-75.0669581788,32.7108685558,7.48425758774e-12
-71.0194880502,29.0243800002,5.49864575935e-12
-83.2871686795,33.6027113262,4.98943046914e-12
-66.4796089566,27.6094463213,1.97214063047e-11
-118.973463172,30.5605185594,1997.38707859
-58.57271012,17.0167579331,3.25931401072e-11
-478.560458195,1796.17709455,6364.05181749
-73.2931360373,33.3438128427,1.20363192892e-11
129.418555706,842.314670534,5251.57026927
-77.8406778442,32.7956008573,0.0
-77.25425925,33.2682007707,5.27370682335e-12
-132.399814409,332.421712118,10215.5826182
-69.9094706408,29.5555341422,5.88515946245e-12
-104.865301981,23.5353845214,1.51819536308e-11
-78.4700442302,32.5873796687,8.52651282912e-13
-70.0814593613,31.0909659769,1.84338348042e-11
-73.5306699619,32.0342386222,1.78462130924e-11
-57.7412388562,9.35982558832,3.71117926689e-11
-59.7586471011,9.03270693602,0.0
-76.4617594185,34.3047630338,3.00143533046e-12
-64.6815298033,26.3811427041,5.72382724339e-12
-102.799730079,27.0714289265,6.59001201394e-11
-100.403138173,27.6568420306,2.06176679429e-12
-90.6464919635,32.2774758558,5.20580501913e-12
-105.04654187,23.3232714448,3.47268198838e-11
-93.1031218123,33.7151816486,1.40926666206e-11
-85.5472141878,32.4659618251,0.0
-75.9454085566,33.4850115005,5.41515538357e-12
-58.573263528,10.5532545076,5.10303180037e-11
-101.167575536,27.004453848,1.03534996216e-11
-86.6605364178,32.5054953427,2.45079459116e-11
-89.5225050701,33.4803164853,1.08030747223e-11
-119.025420676,11.4874605423,2053.37423561
-50.4661626803,-682.965174145,2134.76180547
-81.3273066553,32.7516173097,8.52651282912e-13
-65.0706833309,25.7750919966,0.0
-963.952985207,2814.7218962,13907.1053136
-88.0409716269,33.2008646275,1.50794184955e-11
-108.991035493,6.83100099919,217.198614127
-69.9369966801,30.0924637223,0.0
-98.6608286081,29.1905816148,1.50286539403e-11
-94.4885473414,32.0231467789,1.50735860077e-12
-83.1862994448,33.4846555683,9.99240235972e-12
-63.684255482,24.5554832728,7.97654446839e-12
-99.2854860868,29.1197821442,3.72654219493e-11
-73.3546853486,31.548053924,6.19155470816e-12
-60.8453425945,17.7516193886,1.34874230019e-11
-70.950305932,31.0901586831,0.0
-77.8077601743,35.1622566319,1.40499490282e-11
-64.0687917293,26.1216692095,2.86056454418e-12
-75.0825446124,32.2540756225,2.17544749296e-11
-76.7605903908,33.0063004325,2.14641013692e-11
-64.5197639054,26.5163690526,1.55561621808e-11
477.659030793,-2881.4900347,6892.5722935
-74.357628302,31.0388280408,0.0
-76.071081983,33.1361252949,5.28083667403e-12
-52.5243459012,32.6372107239,1852.91737714
-91.8932689336,32.5732094695,1.39744914728e-11
-78.4356232459,33.1000744599,8.1411163493e-12
-62.6933326827,22.3655893819,3.71402927459e-11
-80.705322021,32.4465700829,1.4547929295e-11
-78.277530173,33.7607896446,8.60198598094e-12
-70.9847583676,30.9766727458,1.17418829572e-11
-68.3430921695,29.1486965947,1.27604079025e-11
1395.09071419,-11487.4602621,2480.28725052
-62.6964318576,24.3094732967,5.76806444381e-13
-65.922608487,28.1011870298,9.87247431365e-13
-74.4619442847,32.9593304932,2.27687898179e-11
-73.7121483908,31.8641370561,0.0
-83.5881596092,33.6828096393,0.0
-88.2326525455,33.7876773714,5.92006395178e-12
-96.490526032,30.6798373172,1.12472967764e-11
-102.490064158,25.68047843,2.29564763454e-12
-85.8384073114,32.7821113078,1.00450121719e-11
-108.327500855,16.6284362758,1.75114591374e-10
-83.1186647963,33.5273614201,0.0
-65.0424906989,27.7319286425,1.38486691766e-11
-101.827464183,26.3605862729,1.53628885482e-11
-88.0902682357,32.5518689901,0.0
-74.4661492129,32.9885252966,1.66761699791e-11
-387.01906724,-171.589195595,11275.7131333
-73.2134665218,32.4502085603,1.67267183316e-12
-77.3011879544,33.1289727779,1.55892464837e-11
-77.2289118997,33.0089195103,0.0
-64.3134402026,24.2122772441,2.34743046772e-11
-89.5669855403,31.9508200607,1.47325013982e-11
-92.6326952981,32.9127868489,1.93069268199e-11
-77.3250937175,33.8116475443,0.0
-103.73556567,24.2874551897,7.40737703832e-12
-106.778648633,19.8695649798,6.64600541127e-11
-404.038462689,366.679129742,1880.18887335
-108.234517663,18.6232760952,1.86410945121e-10
-79.3254764187,32.1641819572,1.02479628812e-11
-82.340211713,33.7126130526,1.56270556454e-11
-62.166604757,22.211956616,2.77825303615e-11
-80.1697955992,34.5390440011,4.26325641456e-13
-76.4550781476,31.840035224,1.01682325579e-11
-59.0591868212,18.7475371918,2.55357883084e-11
-80.2112590361,34.3426285842,1.870223956e-11
-107.788188996,17.55314847,1.16972916272e-10
-59.6125038773,10.7488465132,0.0
-67.286712534,27.6319432603,1.31460578546e-11
-56.9734470953,-2.44040849549,1090.13905917
-81.9952604948,33.4554668784,5.05212676729e-12
-99.8455792729,28.3408012962,1.5464167369e-11
-85.1995547934,33.2739976083,1.4970156463e-11
-59.5850451004,16.585814484,1.31031859097e-11
-66.2000535343,26.6864951869,6.70301917084e-12
-71.629800277,30.9479440662,1.07955839721e-11
-69.5919366473,30.6758987857,2.09227502053e-12
-60.1557065852,19.8008954368,3.50281518353e-11
-76.2987722915,33.8135885424,3.56770097108e-12
-57.7099383195,4.19224840446,520.581447717
-71.9135807153,30.8232754048,5.78289114911e-12
-66.1055669195,26.7052978079,6.96185317735e-12
-62.010794802,24.5565489282,1.7793938043e-11
-80.2028506215,33.8136309641,7.97710486816e-12
-91.1195639705,34.1496950285,1.37351264638e-11
-95.1164153844,31.6108280593,5.59775362338e-12
-80.629943852,32.3957781268,0.0
-70.2764231502,29.81246294,6.32062137405e-12
-90.6236662364,32.1058458897,3.53337274135e-11
-82.143887604,34.4460509257,1.82867838369e-11
-86.6121976369,32.433712372,5.05554613679e-12
-72.0055341319,32.1584279095,5.02999882043e-12
-106.825545241,19.4861840397,6.34809042058e-11
-63.9828715358,26.2112757167,1.86459192216e-12
-70.1539032497,29.8390287208,2.3454956548e-11
-73.233826685,32.7416098256,1.46633212044e-12
-108.853199325,15.6509730742,1.23817789809e-10
-86.889163449,33.5542159669,1.50190581517e-11
-58.1795850401,14.7568611568,4.94006574017e-11
-84.2653305727,34.9352722838,0.0
-103.824214634,24.2730364793,4.71450424547e-11
-72.8094848391,32.3219706683,2.36535955306e-11
-97.4834111508,30.6074770401,2.04768015009e-11
-73.3283839039,33.2547529182,3.7875823258e-12
-83.3175092163,33.5054290515,9.95356908348e-12
-91.7399768272,32.6813390868,2.55788645529e-11
-77.7594005995,32.3808468008,0.0
-97.8282504481,29.0932928819,0.0
-60.468970036,19.7058453691,2.44082274551e-11
-78.4983013408,33.4701728227,0.0
-57.0966102899,8.62415128258,416.623807122
-67.8645430208,28.4731862943,2.5206133333e-11
-78.5410809537,32.275596531,1.0524668176e-11
-235.251046352,164.239873175,816.400279041
-58.1632769986,11.5423139705,0.0
474.580318436,-3837.01988508,6604.84964418
-80.3398757975,34.9057539179,2.82932226154e-12
-67.5516087088,30.5618126919,1.00216842024e-11
-90.0937084238,32.3161443676,0.0
422.803183087,363.509828694,4716.82204903
-439.795927493,-174.767789377,5986.70717995
-97.8769752201,29.1870741702,1.71566072698e-11
-93.9143159024,31.8107151939,0.0
-32.6950654176,390.152013879,3469.57228394
-60.4503928813,20.299736681,1.24177848854e-11
-76.7566654956,31.9078138689,0.0
488.022108629,5182.17503763,2047.98951112
-78.5599435024,32.6431939148,5.45916808177e-12
-93.792286427,32.5920395136,1.37854826614e-11
-70.5181968959,31.3722503909,1.39304826986e-11
-92.3113247424,33.2302304719,1.11067593026e-11
-86.1138397971,33.7114141609,2.05865672571e-11
60.041561195,3.00654177984,4771.34973079
-86.2932729667,32.5427205065,2.95468498697e-11
-65.783458052,26.2139661031,0.0
-80.2084611565,32.7771246506,0.0
-103.062931156,25.4706915195,6.41106265469e-11
-69.1135891236,28.7658911771,6.24548157266e-12
-69.0546869033,30.3938477099,1.53147521867e-12
-70.3064026105,753.362700892,6325.92825902
-84.1975513014,33.453449155,0.0
-94.4275471635,31.0048084298,2.6655324137e-11
-80.5698844752,35.176665334,5.72033072937e-12
-76.1025796454,32.9212813993,0.0
-82.7340476455,32.5454810209,5.04931441749e-12
-42.5224120097,-367.937262038,2925.67516979
-57.2859053352,6.37610544629,410.351334965
-88.5177680763,33.8573836094,2.86416487124e-12
-53.8087460335,7.76361112371,1064.72520986
-101.000402011,27.2307406003,1.27574879594e-11
-78.5862863816,33.6561921824,0.0
-413.495020047,1761.16412478,3426.04844682
-90.7426360468,32.107898166,0.0
-57.8885233499,14.6497741272,6.01855242722e-11
-70.5974124764,29.6659043059,0.0
-102.756426869,-8.86163956927,1138.02923413
-66.3379148465,27.3705793414,6.88899972021e-12
-87.0190813567,34.5624683406,5.63347702644e-12
-65.3981980878,27.2201463836,0.0
-57.6172770506,12.1545471318,2.31762410555e-10
-79.5446691793,33.5937882172,7.85905786308e-12
-60.1547914133,13.1688457655,2.29020447694e-11
-58.8626832532,15.8728118513,3.85878160242e-12
72.1867135039,2343.27313549,1067.47443847
-399.85652217,-15.5354648809,9491.53874583
-65.0729445054,25.6538729679,3.6568405084e-11
-81.6280275648,33.5536075776,0.0
-75.2268948106,33.5429394761,0.0
-65.5455384522,26.8181127614,2.79114672787e-11
-61.9809797213,22.3825476725,0.0
-99.861311939,27.9452695137,3.11890379529e-11
-63.6271837113,26.982531484,3.14835135144e-11
-235.369937041,948.563073078,3919.2273326
-74.564916238,33.4091262639,8.52651282912e-13
-67.1562371723,28.9255161466,1.49250023385e-11
-82.7048802048,33.681204793,4.98491712435e-12
-97.5213771352,30.1798296613,2.8424727746e-11
-72.1712982029,30.594891125,6.0582429595e-12
-75.1958265216,32.4693597232,0.0
-88.9383959534,33.7170362551,1.59713805701e-11
-92.4400711704,33.7737780673,1.39094702277e-11
-70.48809041,29.5067546498,4.93633159424e-12
-104.104583491,24.1157136607,0.0
-73.2956202855,-473.10272014,8491.76488157
-89.5957931815,33.1215800302,2.64912683123e-11
-78.1837401217,33.4066067401,8.37903590148e-12
-62.3982508038,23.0270474617,1.95353244085e-11
-71.0399583624,31.7033838757,3.04629770463e-12
-77.0895814555,34.7781446128,1.92945228344e-11
155.50542217,517.72562758,3743.56278666
-78.5160605184,32.9826746032,0.0
-79.9009381076,34.9784629516,0.0
-62.7938839561,24.4965669468,2.7282132526e-12
-82.3480052399,33.0594192589,5.02041506963e-12
-82.9065001098,35.3332903361,2.81484954234e-12
-93.5148568744,31.7943919225,0.0
-113.985634534,33.669583054,1741.82987411
-59.328000452,1.73935168125,680.995907957
-80.6267932197,35.3868507436,8.43907727458e-12
-73.3388908263,31.5069608619,0.0
-60.8006588583,19.0944082879,4.69593897199e-11
-72.2013810814,30.4172116653,2.20986301563e-11
-78.7106263626,33.3105805612,5.00614639414e-12
-56.1582443144,368.065433571,638.950804278
-70.3193260312,31.5306391264,1.16530217219e-11
-88.7721603683,33.3085210013,2.03178939505e-11
-65.9397493936,28.1673998714,1.4529831447e-11
-35.940488219,398.485039965,3482.21473342
-68.7623678842,30.4895033651,1.72562605126e-11
-107.292435238,20.3958164046,1.0324419841e-10
-69.0654117743,28.9147412404,2.40944148844e-11
-95.4833545936,31.8201075704,8.00767664935e-12
2156.28450375,-3064.2898175,10454.4346516
-59.4808645899,16.7839933449,2.21179790961e-12
-74.4680134902,33.0502915737,1.71389697583e-11
-66.1287780081,28.5077823749,2.75854894341e-11
-1102.84708408,2172.50044158,3692.69135486
-91.3062132465,33.0255917699,2.088770798e-11
-104.422181875,23.5253795443,0.0
-95.3698557624,31.6408739563,1.07894470968e-11
-69.201596033,30.2479313808,2.44091130049e-11
-58.2397854115,15.3260797617,3.92609640002e-11
-102.153609167,26.94177544,5.43095053288e-11
-81.2451718288,34.8560698231,2.92571175559e-12
-66.2997560936,27.5405678362,1.13956068391e-12
-60.9138315217,19.8379411398,2.53160331669e-11
-84.8499487429,32.9141295057,5.01052103998e-12
-76.307393976,32.5696762422,8.52651282912e-13
-94.8472546431,32.0434744064,8.18280219287e-12
-57.6301045579,11.5437230468,1.15642929112e-10
-61.4425471112,-41.7318061174,3047.01047675
-223.990025363,209.008869278,4702.27457012
-333.111044493,-1059.66528376,64282.0875777
-777.995035943,369.246989914,179.589002736
-94.8238055462,32.1953359337,1.6984832413e-11
-68.0454656212,29.9628635744,7.68834818639e-13
-80.0818613336,33.2609390492,0.0
-90.3803051183,33.3606744179,5.42171442759e-12
-67.4290308639,30.0437802279,4.19790349102e-12
-74.5801621094,33.4334985198,5.41787524245e-12
-76.1133806717,32.2883346634,0.0
-62.2596221539,-15.194430917,3372.0416435
-5.71595664888,23.1355025529,22782.73209
216.807717249,405.756034256,58146.2733843
-61.4237990049,22.587409322,8.15596941957e-13
-53.7828760594,34.6119032442,1784.22680999
-76.5981589169,32.1970772671,0.0
-92.168612147,31.9238162367,2.62877777875e-11
144.808273019,500.171201213,3622.48453261
-65.2036540533,28.3670717585,6.39488462184e-13
-64.4776030262,27.0980582683,1.14156803088e-12
-70.6825954752,29.9726245298,0.0
-102.1480621,27.7249844867,2.33336040978e-11
-90.3822137108,33.0223602318,5.82664575781e-12
-79.3820791517,33.7116476543,1.57488782874e-11
-64.3481801185,26.8481079946,0.0
-15.3734741853,7.30808692663,3922.98256751
-104.656295671,23.8000458539,2.25317930081e-11
-88.5374663604,32.6771958889,4.0133247877e-11
-93.7573005078,32.2019268179,1.64455973039e-11
-61.3462901685,22.9506267713,1.83608054133e-11
-58.5752984097,5.31123294945,397.990359647
-64.3823590959,27.0123627486,1.56572605633e-11
-62.621860745,23.7441564071,9.35619487374e-12
-88.4372568891,34.5971116575,1.64165980508e-11
-109.735875421,8.85412881634,195.558772286
-59.5380600977,17.5144705274,0.0
