-89.0001976783,39.8412194662,6.67061028943e-12
-78.676937898,37.7164322875,0.0
-79.6361363643,39.6422139461,3.28289245311e-12
-111.652233365,22.3433393167,7.79473794739e-11
-54.1937945425,17.6036406573,1.37127919344e-11
-95.1064515015,36.1796557558,9.969042542e-12
-64.1212436087,33.2277811457,4.60670718209e-12
-57.7346947827,-361.274691292,7560.9014821
-102.7181456,34.4642928319,1.87826628921e-11
-98.729798839,35.127900291,9.39167977975e-12
-112.279590687,22.5544257129,1.16583879647e-11
144.63665342,-1296.39209238,3152.76124767
707.988364131,-194.985489328,7557.16278507
-77.3950973717,38.0096051423,1.27897692437e-12
-72.5286985902,36.012496554,1.88730496304e-11
-100.880655585,35.3488124321,3.30092696161e-12
-68.4774163709,34.8620363317,9.83144247718e-12
-100.469349182,34.7840345512,1.70970693541e-11
-98.7484380386,34.7030608282,5.08224603152e-11
-112.616076261,20.4013307638,4.33256264231e-11
-93.1132530681,36.3826458506,3.47608824708e-12
-114.13576119,18.8887388633,1.2221613083e-10
324.222839978,-5763.3788761,8263.30881956
-79.555075346,38.7362274501,1.55856262152e-11
-50.0149354199,-389.774387019,2792.8776757
-133.819908316,10.7107721567,2797.24397758
-55.5477690145,21.5247294396,0.0
-52.9308263647,5.19179696181,699.229192235
-120.716002548,-398.570843943,3657.00181547
-88.5585578658,38.7103144367,3.32669502808e-12
-89.749971181,38.5175072739,6.0644069507e-12
-56.3156485476,22.0999873538,3.43340278633e-12
-60.8592382033,31.749728431,8.39437470538e-12
-48.9859709494,-348.445583233,1164.25684028
-100.969075579,-899.789550607,4971.58124818
-69.5501551753,37.295106489,3.79611899247e-12
-111.802877856,-50.0310852266,3552.31177705
-96.8852932094,37.3348847253,1.08932365595e-12
-61.6424792763,29.0717409804,4.46485188884e-12
-61.2185420217,32.0049117916,1.32786398555e-11
-96.8387646772,36.6707049804,4.47703045402e-11
-87.0996346512,38.7175284068,9.31380607079e-12
-79.6550410013,38.4685042451,3.36503307762e-12
-41.4614211656,-2085.69705153,3768.34100581
-54.9857782025,18.4897411751,9.43656710534e-13
-91.4103654664,38.0107636977,2.41573406984e-11
-53.7061132605,17.8627318658,0.0
429.101843249,-337.58419757,6053.22819951
247.541943312,-729.367070927,5951.59221061
-40.3970334761,11.4382938772,2327.51129058
-76.0457949094,38.3809943159,1.60724117977e-11
-73.0666514132,36.2665414743,2.87903870851e-12
10.3074985793,414.032103507,24835.231301
-52.2512119178,343.067366879,1771.47707209
-92.1328967932,36.7778924262,9.23938853516e-12
-63.6516185294,31.5717109656,2.76723297651e-12
-101.234879386,33.5412642591,1.3134927485e-11
-78.2486403833,39.3535697187,2.77165334346e-12
-93.4540871454,36.3969877414,8.52651282912e-13
-60.6857853563,27.7508399962,4.27272902087e-12
-68.3655160495,36.1067154591,1.12573347912e-11
-73.7855785952,37.0038644273,9.8251329349e-12
-83.0818975877,38.6636560266,0.0
-61.0485688253,29.398959609,7.51260186544e-12
-92.1000955364,37.2473090336,2.46014490114e-11
-57.6469627711,25.6751002111,6.35274738607e-12
-61.6659264228,30.0877353179,2.41671757829e-11
-68.3149377509,33.2933337726,1.01171437388e-11
-58.8630675193,26.3108989968,1.43379643832e-11
-68.5702595063,35.9975069572,0.0
-77.2794027374,36.9250334434,5.60100778027e-12
-77.1470348161,38.0263686621,6.716567189e-13
-106.339439865,29.4526372429,8.72777385227e-12
-57.9081951525,26.7254731697,3.45973296745e-11
-83.3462997822,39.1185213427,3.30761549462e-12
-62.495356935,32.0900247802,6.14634501088e-12
-93.2646428084,36.6005251078,5.87639791584e-12
-66.4639450916,-1.20142058285,7244.2892231
-80.2165035812,39.8253220949,3.30182216873e-12
-53.1488037197,-14.9777675414,1515.68764315
-107.949923587,29.0685843429,3.14653450928e-12
142.085638589,334.81413165,41024.7013582
322.843339971,5.74496709925,2861.37963037
-75.6658720929,38.9961451494,3.55163203589e-12
-91.2474525601,37.2401362484,6.34275082211e-12
-60.765501923,31.7749014884,1.65543899092e-11
-84.9646446347,38.173004707,6.03279223614e-12
-82.8501680977,38.5453620619,1.20112536596e-11
-108.807550649,28.5843800769,4.94124482207e-11
-80.0472405095,37.8794605101,2.38655016146e-11
-75.9687663874,38.2808689513,6.38988599411e-12
-102.140449786,33.7086143774,1.65511790417e-12
-78.7855577553,38.3261343099,1.85566502873e-11
-55.1228450162,20.0323689097,0.0
-103.271627219,33.8523942711,6.15690030914e-11
-72.1863899555,36.0821244849,0.0
1011.37432686,27.3326495957,8305.51795115
-75.1774886931,39.3381366719,4.26325641456e-13
-95.1016939726,36.9868177536,9.82692090417e-12
-58.0845291207,-209.80387328,8135.6402071
-55.6885957767,19.5242231566,1.44264507495e-11
-61.0549057018,28.4786176597,5.10849894981e-12
-67.5342316581,34.0005934814,3.81285777229e-12
-42.5306192946,-2.31953103172,2283.74424918
-70.9894186628,36.4821534068,6.05171952635e-12
-54.4288075267,19.7833721134,1.75144286074e-11
-86.9757721438,39.8517569295,6.60114526924e-12
-59.9735274061,30.5948699566,4.83125224012e-12
-66.1915517668,34.959677733,8.52651282912e-13
-89.4773443657,37.6359538875,3.48210738155e-12
-75.2923881551,38.0425261539,1.61409680195e-11
-87.1653477555,37.7877399182,6.07951290419e-12
-389.912899927,-320.206875052,3578.80268301
-86.0479559218,39.0100068563,3.42067553843e-12
-102.309203086,33.4766896423,2.43821021694e-11
-62.5682398801,31.6081778898,0.0
-81.555145676,39.0302496691,2.64940444873e-12
-100.591791314,33.6297983625,4.3505654326e-11
317.166433423,-30.5172277456,3246.49975079
-98.6681340794,35.3118187712,1.06080488108e-11
-93.6506339289,37.296836448,3.62459866523e-12
-77.5590007993,38.4646673299,3.36520924214e-12
-340.758514836,3555.07171736,4891.86917148
-79.3477549032,40.2179314174,0.0
-60.2797572105,29.3027086386,0.0
-60.7158453025,361.103520367,3180.71949499
-69.9056115533,35.5075550408,6.30386731093e-12
-74.7175641353,36.3649544068,9.41151137901e-12
-52.6714873402,2.10296778038,537.975324343
-75.9634832518,36.0384599138,5.77337968434e-12
-64.6491962261,35.1310597883,1.84152550208e-11
-88.469931846,37.5315556303,1.22008498797e-11
-47.7087608506,45.4942411794,2453.65018869
-58.5481486035,23.9812472755,1.53566593852e-11
-55.4656634666,-37.197905803,2975.48539222
-62.6570496543,32.6366895084,1.12725649444e-11
-90.7649506929,37.8260498255,4.27967158415e-11
-66.5367707987,33.637499521,7.6807505501e-12
-93.5166116221,37.8012075182,6.12309819042e-12
-620.822325656,3.62364466575,6306.71094051
-71.2988488814,36.8458399656,7.28706655615e-12
3157.46842854,-3608.8236537,7272.1911739
-52.425455653,4.02404894061,589.962697502
-99.5777271275,35.327720769,2.13002756451e-12
-72.7863781284,36.5631660681,1.54127861334e-11
-79.6394693706,37.9332959423,2.82193361921e-12
-56.6923463133,25.6617867279,1.08125655878e-11
-606.17406858,853.897153001,19381.8779089
-101.683311487,34.3295578206,3.18559748133e-11
-57.3364573491,27.5674335472,5.57094159677e-12
-65.052391915,34.1664541184,1.11444275348e-11
-91.5493518788,37.7365352967,1.82631104596e-11
-93.2778886828,37.329654029,1.56357052682e-11
-39.7363219988,104.779702546,5988.23338054
-102.052867775,34.1880230414,2.63593364311e-11
-63.1497946394,32.2512056041,2.25970308054e-11
-99.6710902075,34.2680503256,6.24912049148e-12
-70.4884207843,-330.803189573,7696.23182358
-66.5369930522,35.8107830112,7.543401626e-12
-70.5052513185,35.5227083172,8.95898857735e-12
-78.4996955152,38.6133103817,7.909680186e-13
-64.9417043147,32.8693579587,8.33441749373e-13
-61.965755373,29.6262359243,1.49326775114e-11
-77.2675006254,37.9168509016,2.09270173471e-11
-59.6570930135,30.3142049309,4.44620153577e-12
-75.9852466398,38.6600935308,0.0
-112.557585913,1799.7851747,2721.18764181
-58.0665700478,27.1071706377,1.4128680125e-11
6990.87424564,474.71334088,3678.0089553
-83.8134977566,39.4644001049,3.09413239158e-11
-54.1246464379,17.0386320128,4.58626026754e-11
-71.6912657875,36.4003340306,1.27393122357e-11
-62.5897506416,32.7767748819,8.78936769084e-12
-103.134174065,33.8472130411,6.37382335785e-11
24.271123558,13.491533872,5021.83331663
-93.3887775666,37.730826488,1.71072116457e-11
-94.2161967571,37.0364732047,8.44115112793e-12
-93.8488790959,37.3953177364,3.41373039758e-12
-83.2092654781,38.9618426906,0.0
-112.401005977,20.4099487362,3.33663154652e-11
-57.1913311066,23.0768569908,4.66858777033e-11
-57.8404822497,24.1273379464,6.77045437669e-11
-66.0677288433,33.7891870198,7.3573192771e-12
-74.8560808526,38.4235910477,9.95449133282e-12
-112.456098079,22.9727775017,3.62274147765e-11
-54.9828498081,20.646684581,2.10065719289e-11
-78.548828289,37.5257200223,2.8360896503e-12
-100.077903914,35.323620301,4.79177328362e-11
-113.649945261,17.4912102861,1.35335105761e-10
-108.48662191,28.3502622083,4.75337863272e-11
-71.6070176886,38.1533494115,1.29479351456e-11
-61.5023985566,-484.715322549,8155.51393247
50.93730632,124.172462743,3412.0273915
-68.8375698945,34.8336337271,5.96935368086e-12
-69.2508252526,34.2890656849,9.28554642217e-12
-97.7355599508,37.2313810589,1.6791456239e-11
-64.8983384427,32.0091567201,1.07601103038e-11
-93.7615625202,37.474545394,2.837858349e-12
-61.7262593519,29.888120168,4.11316470015e-12
-84.037949196,39.6684520486,1.24775422238e-11
-86.5969509326,39.1453401731,9.26760811811e-12
-85.9796703524,38.529154456,6.01831411176e-12
-81.4349561485,38.5810603271,0.0
-63.234880421,33.2564176743,8.47910221311e-12
-46.9092829544,-1.79396655235,1696.68244881
-64.7412184695,34.477770533,3.3150392339e-12
-16.6380925962,-100.530223767,15357.267668
-89.4924306909,38.9020718919,3.34503219699e-12
-53.1220528355,17.1333450836,2.10395166271e-11
-72.1384309882,37.8819607187,6.75209756155e-12
-57.2793375924,26.6371261509,2.45817884459e-11
-55.4886002308,20.2794892207,3.99899024085e-13
-83.2908451507,38.8081534858,3.34938060232e-12
-72.2349814513,37.9231720055,3.77066070605e-12
-79.5554765543,38.4311442102,6.14591488259e-12
-110.758291522,25.5541662229,3.60138281862e-11
-103.67047331,34.1186875752,1.84880363605e-11
-90.6213409321,37.2925102602,1.18118911815e-11
-98.2344393253,36.4671031155,1.32957937945e-11
-323.903916557,572.93070958,34475.5390462
-70.2661161505,37.3078393826,6.19211266011e-12
-63.785389605,31.2539508373,2.91602123103e-11
-101.180628308,33.6468151573,4.26325641456e-13
-57.3224113662,25.0866153114,5.3365511637e-12
-59.0181229706,26.0324762983,1.40432487593e-11
-66.3064209151,34.8037549017,3.27883983261e-12
-63.2889760251,33.7296912832,1.53625321066e-11
-53.9437577938,19.0484129971,1.7930588408e-11
-87.374563933,39.392185966,9.46831481317e-12
-82.0890622093,39.4084740913,3.3214354303e-12
-90.5163328673,38.9446355764,9.43945285328e-12
-91.1768057505,37.6055290439,6.094398981e-12
-54.557844712,18.6523942384,4.91643774133e-11
-106.447128389,29.5637817557,3.52473673187e-12
-76.8716532739,38.1796536081,1.58869430314e-12
-55.106883849,19.5271804798,7.1109130589e-12
5412.08478122,-552.608707772,3668.75968292
-78.6977880322,38.932170403,3.55442476383e-12
-58.4371103207,26.5650432004,1.21442960597e-11
-58.0621820149,26.5843264816,9.86236444427e-12
-101.742607918,34.9220447573,3.51625443009e-12
-86.1136450973,38.6667535609,3.35591086508e-12
-77.4163001356,37.5389222247,9.28213025659e-12
-53.039169217,10.8163605904,5.75783304674e-11
-894.837591233,-1674.13117526,6896.4505033
-63.8014117404,32.400267332,8.80932465168e-12
-113.958058501,6.28141198343,137.897542187
-88.3315019326,38.5480682588,1.28481424039e-11
-56.350995135,-45.5034254888,3603.36697864
-54.199972459,17.4752294687,3.95910757098e-11
-92.6011788826,37.9856052163,9.10316942283e-12
-60.3081030462,31.348666703,1.69817919283e-11
-67.869222787,34.7700575982,2.83388398633e-12
-79.1487481863,37.9221229259,6.11325557651e-12
-78.1935339952,39.7109802574,3.3072190607e-12
-83.042438648,37.9781234679,8.77878947979e-12
-60.4286848325,31.6536275304,1.26447626191e-11
-55.4574554347,19.2540375021,6.71745475487e-12
-65.2671850263,35.2320271949,2.64387788433e-11
-59.1374162468,28.3297973308,5.56820437707e-12
-944.384787139,-296.758191024,8822.17301863
-53.594563589,14.5358636116,2.58974173001e-11
-97.9075352062,37.4229246755,5.74700368643e-11
-61.5603524605,-108.843279592,7077.92493401
-62.1990216323,32.9576369034,1.51248849724e-11
-109.206849725,27.7062867198,5.163484879e-11
-55.3771332335,17.7520985083,4.35242840355e-11
-68.0640844165,35.336471276,2.10921355902e-11
-87.8693636768,39.8231126352,2.23303717891e-11
-63.2079107969,30.6829883419,1.7707840786e-11
-84.6839547584,39.0359315285,2.11978191007e-11
-83.6097879533,38.6529740829,1.19932814787e-11
-39.5392907005,144.336412803,8292.37989908
-89.9826687202,39.8311518629,0.0
-246.503986366,-863.077366878,6955.64734378
-85.6645029924,39.1288684047,3.41527758565e-12
-91.7838121101,37.856975496,1.19419059174e-11
-104.99968886,31.5871879561,1.79211685024e-11
-58.0703495374,24.7748177679,1.0086118782e-11
-256.2302786,-586.156572353,4840.35136683
-109.078586336,28.4735297258,9.65089151531e-12
-96.706821602,35.6906383551,1.58865390291e-11
-388.147691968,-562.282177607,7578.01480984
-82.1191348305,39.2133911608,2.18050057089e-11
-104.56445677,31.0503603013,3.45327109821e-11
-104.665267715,31.3625140144,2.14675559222e-11
-48.2777808837,-45.4571649331,4745.99022693
-102.767839042,32.3889181841,2.18371201125e-11
-73.4966288634,36.9924526951,3.00940304672e-12
-62.5118219221,32.7359881986,4.69564551511e-12
-52.9702704772,13.2967648644,0.0
-111.151724002,23.279057267,7.27990642187e-11
-13.4882845328,7.9865689206,3964.70942442
-67.8058505572,35.1728163024,4.51756103266e-11
-54.8538097089,-27.0656985632,2163.43871559
-87.9428848332,39.4001939105,6.06619426734e-12
-92.3375081043,36.8243997056,3.8149884041e-12
-78.1992953449,38.346626853,9.19120453466e-12
-102.369232715,34.6157322108,3.17830758575e-11
-89.5495068824,37.9407204335,6.06696774474e-12
-86.5555214867,38.9838759256,9.27899673716e-12
-78.5343739915,38.6164104291,8.82704717479e-12
-18.3411623914,178.812203881,6849.19311602
-85.3756287728,37.8687429846,0.0
-66.8502875522,35.4702250048,1.16364869115e-11
-95.180722778,37.7437953126,9.56813145762e-12
-73.4439582117,38.9738256089,0.0
-98.6977329064,35.9258445353,9.96823380023e-12
-77.9949662968,38.5735341806,3.41375786734e-12
706.857033723,296.239383442,17565.6902667
-107.687158346,29.2593253199,3.92384227743e-12
-75.6871813499,37.8571504237,1.85704127327e-12
-85.3057476194,39.2094498155,9.24935931367e-12
-69.8769900834,36.6267216963,6.23488323761e-12
-56.1225027854,24.2382470989,1.93254661813e-11
-88.5513642754,38.7491645851,1.20904577812e-11
-74.9635721421,39.21237104,0.0
-50.1854593876,16.6207369259,945.790582693
-97.6302575685,35.5405263855,8.19459238225e-12
-58.3234762504,26.1685394185,0.0
-103.072280304,32.0656213798,2.48419808811e-11
-62.8244658044,32.5464511663,9.07612781983e-12
-111.474775211,22.985690806,9.93174860248e-11
-72.8207081066,36.8151727023,1.58749896528e-11
-71.708328857,37.4295485917,1.71769712695e-11
-73.7407068163,36.0015151759,3.24363313786e-12
-102.257278919,33.5691799258,2.89906718701e-11
-87.5636377639,37.6351212719,1.7602447751e-11
-73.5877748308,38.5909607832,1.00884143586e-11
-69.2314346329,36.0943089589,0.0
350.82106064,-1432.21379431,7557.82915918
-94.6401843248,37.5541051789,4.50877845476e-12
-94.9233853288,38.4453192877,1.94326392921e-11
-87.2088472034,39.6464447445,0.0
-67.4720598416,34.5953046444,1.03230238541e-11
-62.7384155001,30.6541677396,7.1505639268e-12
-102.326388798,33.0555929712,4.60131892966e-11
-82.5545822087,38.2682557252,8.74430244336e-12
-71.2791254643,-223.328002524,13915.2736207
-106.960552036,29.3412913405,3.65828447318e-12
-70.7772839232,35.7160935087,2.12015830557e-12
-113.305417183,17.3224845788,3.61354072688e-11
-86.9723094356,39.8510408446,9.1741915665e-12
-104.675294718,32.0940675799,2.98054727945e-11
-2185.51011449,181.758799181,10739.1305218
-87.2322909895,39.35233396,5.99484699143e-12
-92.1541901673,36.7884149316,8.05006083567e-13
-52.9496106914,15.8734311839,0.0
-63.0216440353,32.5531451869,7.98584102916e-12
-95.4258617968,38.0320935176,8.52651282912e-13
-15.9526995185,-422.300530648,4807.80651116
53.440329792,856.643928855,7557.24614201
-68.2142117338,35.5960665679,8.35445714523e-12
-81.0858008521,39.0810608132,6.01758587729e-12
-109.391216244,26.5660001834,1.54436114947e-11
-107.754058685,29.2082622216,8.41468483064e-12
-523.854354922,-578.869510992,6140.00108347
-206.236240441,159.31001883,3597.8208526
-67.1548634285,35.0945670548,1.68122265542e-11
328.04357756,213.966501402,12480.1176213
314.43251301,4297.59061401,2108.18180768
-59.7879493681,30.9064287514,2.17711178027e-11
-94.4554828321,38.8177244363,2.93033503444e-11
-69.4847431394,36.658315697,1.16612892153e-11
-81.2820269939,38.2130219773,8.80265612691e-12
-95.4528432919,37.8162315537,3.19913900381e-11
-87.8615073721,37.333857046,2.31920013438e-11
-111.341450108,22.8878084242,1.19780680687e-10
-95.793147313,36.8060749016,9.23625083384e-12
-100.756056356,35.9624559095,2.7953261225e-11
-84.7766429314,37.4095882909,2.0322631299e-11
-89.9956667185,38.6992988854,3.32720755789e-12
311.122456402,754.182307791,4232.3499344
-79.2317331691,38.8540232233,1.27948050719e-11
-71.6648753363,34.8939731061,1.86368729135e-11
-62.1693246148,31.8026772562,1.03091635098e-11
-92.932205413,37.2013567319,6.00523058789e-12
-59.2378514129,30.1710804977,4.8390161243e-12
234.188220404,6100.94501242,3013.43203495
-83.2362039152,38.6557324553,3.35641901653e-12
-55.7513404528,23.38920124,3.18696692211e-11
-65.7826385703,35.8196271144,1.10307969618e-11
-78.8239894313,37.3627705304,1.52050273936e-11
-95.3570214914,37.9121871456,7.96418051123e-13
-87.1723894782,38.1912359282,8.72227811316e-12
-87.5133287703,38.6568791077,3.56640185281e-12
-82.8787325741,38.6239123753,3.35788547019e-12
-53.8890523241,-378.631974674,1651.78810059
-83.3019344854,38.1609848845,6.1678495662e-12
-77.6744142524,37.2411096508,4.26325641456e-13
-72.8215019686,37.6636678728,1.97739107033e-11
-65.7302564718,34.1110336421,1.08763261418e-11
-62.8697316504,32.5057642778,0.0
-286.519543685,886.575600246,4955.55022918
-105.29336864,32.9240118184,3.81499752769e-11
-78.0628784442,39.2701854054,1.55605980956e-11
-67.60641514,34.6901712051,7.3109171546e-12
-104.969426677,32.3601979179,2.91796928004e-11
-86.4760300002,38.5429428492,1.54330628065e-11
-83.9540267653,39.1256243017,0.0
-90.3794622129,38.8269966637,0.0
-91.8261436768,37.218422522,3.45259584167e-12
-85.7665910528,38.3087255803,1.81899539618e-11
-72.2989509372,37.9508832742,1.67340990008e-11
-108.442046078,27.9878768999,3.96573055504e-11
-62.2842401712,-117.929873286,7681.52767545
-82.6313633377,39.7772080643,1.57501763125e-11
-100.428619307,33.6698787894,1.71865921624e-11
-100.67039347,33.6750153957,5.19920198902e-12
-55.4680877072,641.671840386,6370.04595034
-93.0864711742,38.7703203068,2.23398296475e-11
-56.7126710129,25.3964950254,1.69818663772e-11
-79.7746452824,38.6123406435,3.3584185126e-12
-38.2719997825,-480.92946922,8023.61515754
-75.9975423695,37.5534579982,1.44662236686e-12
-36.0551601814,-35.5850344095,11214.8455583
-97.8683365117,35.6913173038,1.55995095852e-11
-129.615634009,-1.06893321398,6648.43326506
-95.9628631835,36.8069830994,0.0
-101.99135017,34.3870822345,1.6090031492e-11
-114.984657272,4.18241246587,533.91465448
-59.9988115411,29.8014706455,8.52651282912e-13
-65.4330592511,34.4667047253,7.02972779729e-13
-56.1738062722,22.2805802448,2.38072447752e-11
137.822657273,787.002655129,15480.8212183
-62.3693322519,33.4127688427,4.02383611196e-12
-114.06261177,6.26082950743,230.137523594
-66.6701567099,34.2532997404,1.06027580289e-11
-77.2906235702,36.6093441342,0.0
-58.1412355199,28.9206263974,1.29607709376e-11
-69.2323837503,36.1428995962,6.26490503707e-12
-85.3164071761,37.4159189528,2.70885892986e-12
-77.4439015856,36.6492872306,8.98461348983e-12
-65.8972856174,35.3372207363,1.45780969631e-11
-78.429894738,38.5870992833,1.35728994145e-11
-53.2734382842,15.0546148364,5.04742647048e-11
-88.6120277729,39.0825236293,3.33665277255e-12
-774.863270804,631.089840103,5865.18866866
-77.3786287403,37.6376318497,2.08922007621e-11
-63.3874463933,31.7906783677,1.48165282291e-11
-74.7007415183,36.4347124047,5.63496136028e-12
-57.974479735,24.5164474286,4.18549571499e-11
-198.719815123,522.323220092,4790.03714926
-103.484544509,33.8141916769,4.33521167161e-12
-55.6936582284,21.4654294273,3.17072174838e-11
-62.1855501325,32.1001280354,0.0
-81.8010663615,39.2447236395,4.26325641456e-13
-56.2666040879,-341.948204668,3805.1592484
-60.5242821509,31.2372952209,1.29826264544e-11
310.003147329,13.1778604255,1149.15870288
105.000527649,-393.416426578,5037.17261706
-73.8551989185,36.9936251566,2.85438437108e-12
-66.0420901749,34.616712779,2.41164344744e-11
-97.3116166214,36.4339994253,1.37198671796e-12
-45.9710940622,42.0317651366,2361.72157319
242.129414998,-591.529925292,46378.8296297
-94.8172269966,36.9705286092,2.85517368261e-12
-71.7198700641,36.9073835149,6.81786171163e-13
-54.9054603675,19.3061232534,1.03202896869e-11
-57.2337165199,26.385781334,1.30487120057e-11
-60.9009105925,30.3823852696,0.0
-109.123923024,26.127077987,1.75246699261e-12
-63.0574911309,30.7201042164,1.62844380825e-11
148.858553938,-2255.75316079,103667.340363
312.092565647,1117.67399148,6853.98484552
-68.1098489305,35.8669363419,1.76418542788e-11
-64.5413682509,357.957386644,3821.38310223
-107.080844593,30.5523059818,2.05793058104e-11
-108.414615105,29.9005327435,3.41973294373e-11
-111.567080566,22.6545593749,1.13399357742e-10
-96.7661670354,37.1320092846,0.0
-46.4536616727,8.67092136697,1621.22327794
-107.242534082,29.9621489287,3.32832230643e-11
-90.8616767825,37.2400388118,6.34275842866e-12
-58.2983922699,27.8651471565,1.78514114826e-11
-435.09450804,-80.7411812791,5169.67366395
-32.8737957421,-44.1883084092,11089.7232126
-65.23004459,33.3970482244,1.91383145182e-12
-56.2542766412,25.0706274752,3.28484326257e-11
-55.0270098322,20.1847619743,3.1147084944e-11
-111.853577853,21.5385316915,4.96729733567e-11
-65.5472556687,34.2025814944,2.20084102414e-11
-109.655548464,26.3200935516,5.62515509375e-11
336.100182958,905.965140161,8483.49039844
-54.2056535432,19.8341587867,9.91270911781e-12
-53.3749798947,11.5871346528,2.13530716648e-11
-80.3098276535,38.5752200475,4.26325641456e-13
-74.107623752,37.6222386075,1.21050494781e-11
-77.5102661007,37.2923137106,3.49718899095e-12
-97.9468054301,35.6039255679,3.05376408787e-12
-65.8108676537,34.4240102524,1.06010653628e-11
-99.1369536345,34.5938173746,1.00715256664e-11
-93.7164240274,36.3043653461,3.09998114067e-11
-572.784378443,474.045500517,27704.9991384
-69.2827021972,34.2421873999,3.09596255279e-12
-55.8062123289,22.1714186678,6.43611587021e-11
-92.1197755469,36.6430433704,3.22441385302e-12
-70.7882362505,38.1093501826,0.0
-1131.76215618,-427.24639523,5128.03783413
-96.169038926,36.6654915665,6.03993523365e-12
-62.211570865,32.3030554384,4.26325641456e-13
1555.10233774,-713.904304814,7898.73359635
-112.159280746,20.7977140422,1.26619094235e-11
-111.637593082,23.0054906981,1.14574211087e-11
-31.7765647627,-278.305663423,5287.97606017
-1658.40487181,-5211.30362448,22788.0081874
-70.9043521649,37.0490458029,0.0
3023.78380688,-639.853490324,5040.92819897
-93.8755341639,36.3795856794,6.40929197672e-12
-65.032522183,32.7894416295,7.50596249924e-12
-63.1935508704,31.2868356293,7.63311467018e-12
-68.9762779704,36.8346364762,7.82904157416e-12
-61.7900501371,32.5185305951,2.07872784349e-11
-65.3443222527,34.1184253173,6.82731778039e-12
-97.2542080975,36.6123347857,6.39142152528e-12
-54.6653581962,16.2468857408,1.7292035632e-11
-83.8988239055,39.9411980218,4.26325641456e-13
-92.7648039792,37.1077076446,9.20254503654e-12
-113.731080201,18.1200392131,1.09678358839e-10
-93.4194950266,37.5330774049,1.17911548785e-11
-62.1351741118,30.7110342591,8.99566568116e-12
-103.223575872,32.7121585849,5.40730520676e-11
-114.173624128,8.29944226742,3.75405626513e-09
325.028342085,7.21770030965,2805.63641919
-107.830251004,28.07779712,4.15724603632e-11
-101.016531564,34.4784935307,2.0914508568e-11
-72.6076205988,35.892241346,1.58528162694e-11
-110.908846603,24.4201647867,1.37630007102e-10
-86.4765466015,39.1996877772,9.25064488752e-12
-45.7290157564,-299.682272249,3337.96609497
-104.318372183,31.0396303778,4.46724124925e-11
-106.410487401,29.5986219219,3.37584924828e-11
-91.3304811333,36.8336632302,1.50791008763e-11
-66.7939431505,35.5728060744,0.0
-99.6088059974,35.8964284544,2.82901425504e-11
-101.039878395,33.9815188423,1.63296223195e-11
-66.4714375619,34.3080842315,4.26325641456e-13
-74.7364996934,37.6772915754,9.26666310328e-12
-114.243304849,-25.4466703463,2148.79428405
-71.5900114615,37.141875616,1.26365455447e-11
-64.0324160215,32.0333162469,0.0
-111.636355046,23.1424900555,7.67021805458e-11
-75.1033120939,36.722669613,6.38291712372e-12
-67.5657487646,35.5467434463,1.65127317297e-11
3796.32307277,329.733584893,5612.70530569
-67.6152047621,35.5768759338,4.07440980577e-12
-62.6222586662,354.253705673,7204.43943438
-107.946642303,28.2141653945,1.21844216686e-11
-102.174482833,32.5759878787,2.4796228491e-11
-66.3213242144,35.7945224422,2.53098687401e-11
-81.6671026392,39.5735889292,0.0
-62.0126622132,30.196048292,9.98264964589e-12
-236.903590484,-202.096495255,4217.75729374
-93.1182246178,36.9478735362,6.81424152542e-13
-60.3799590697,29.158158202,1.00546835558e-11
-58.7218802014,28.3532277585,2.43761417235e-11
-53.7110005019,5.22561316045,1679.27606541
-57.2432655886,25.921234487,5.19823836228e-11
-8.25656934683,316.443932312,18813.246654
-50.964526842,367.452263647,796.346390815
-91.2477628548,37.5580909403,8.97286998668e-12
-74.6634247909,36.5946486923,0.0
-109.522327118,25.7146035903,4.13311328854e-12
-67.0613023217,35.0143805129,1.70530256582e-12
-76.0140968275,37.7832564405,8.52651282912e-13
-87.2459137534,39.1162891476,0.0
-71.1283062446,35.343131337,1.32447246992e-11
-39.2469749454,20.777923985,2922.02236573
-95.4584978974,36.0005519845,4.26325641456e-13
-82.5352366323,38.5847521363,8.67505965395e-12
-65.2123623793,35.0124211233,1.08053531291e-11
-68.4012732674,34.9903170507,6.77870144706e-12
-56.0253151615,19.697509544,2.08994890618e-11
-79.8391739135,37.8969462822,1.78232433726e-11
-68.3489614485,37.0798137227,7.46032387749e-12
-97.8064737374,35.2831687621,1.02657053462e-11
-235.688869515,6.20907823426,5227.56857867
-53.2092774703,3.17892962991,693.193860876
-110.881433014,24.5150976243,4.31541884751e-11
-42.6043431677,25.4573589001,2122.92232982
-66.0138824775,34.6672130714,1.73610886942e-11
36.7372378734,-920.328948687,7347.7152775
-65.7979973677,35.4110748947,2.98162984804e-12
-1049.73379679,-922.543170229,7581.1890407
-102.609421366,32.9584247898,4.68681758571e-11
-53.7649945512,-368.481344482,2857.7319621
-103.082508686,33.2242047983,4.37793881768e-11
-86.1726159658,39.4748515827,5.93880407366e-12
-125.755624758,22.9724358883,2668.26945327
-290.209684302,-1299.34572467,7481.64715283
-87.7161328184,38.0116939308,0.0
-63.7437976974,32.3480553843,0.0
-61.6075073638,31.3841465218,6.92492256495e-12
-73.6652448349,36.2158564822,6.42180648899e-12
-114.143227206,11.5132836291,3.14096974237e-10
-53.9923169289,18.1786714664,1.01021730059e-11
-7239.48829083,44.0590522611,3009.49704187
-55.3408567781,21.460946484,1.35948030278e-11
-96.7837722137,36.7115083725,1.28740839078e-11
-91.9166652124,37.8225635402,5.79449554111e-12
-84.3172749819,38.7868669454,2.69247028968e-12
-84.6489882149,37.587722201,1.75877947198e-11
-82.7737311415,38.5514563632,6.00133399513e-12
-48.1304056526,35.1259847399,1951.39662095
-715.2907974,16.937669749,4522.74142561
-114.437947924,-10.8273077005,1274.53687944
-60.5253927172,27.0155166489,4.15836904986e-12
-91.5526274299,36.838193819,2.72961601425e-12
-1676.45965573,570.68286785,3295.56182852
-99.379265916,35.5910522644,6.86944467223e-11
-87.0996431848,38.2951876954,9.37828460766e-12
-66.4285874653,33.8850575117,1.39239658919e-11
-98.7972225462,36.6503557964,1.68932226318e-11
-58.1544589752,28.6364735852,1.02992910323e-11
-107.864579019,27.6029189523,1.17078346059e-11
-57.59693789,24.6051977217,0.0
-85.7194498324,39.3720561655,4.26325641456e-13
-106.771253445,29.2254684959,5.25475454632e-12
-131.43615275,-18.1754142276,8085.58322088
-130.597718288,12.0685200454,2521.14540522
-61.8622319623,29.5717462409,4.11831008941e-12
-103.926479227,31.8536751002,1.42614916251e-11
-93.8627275818,36.5121998652,9.39546637121e-12
-101.960332279,33.3589083561,1.12054311633e-11
-76.8495505959,37.4491877272,3.41131366886e-12
-105.158795222,30.8830087705,5.59217964359e-11
-78.2484154045,37.3623654369,9.0642923325e-12
-84.4444271527,39.3802138819,4.26325641456e-13
-85.7753305657,39.2897904628,5.95449012225e-12
-90.0420678542,37.2355846906,1.1820404307e-11
-81.2816383431,37.3129656152,2.74587579255e-12
-62.4205671799,32.0735699731,6.08013353349e-12
-94.2081867041,38.2622818045,2.23576901843e-11
-101.657261804,33.8948713064,6.89759889247e-11
-83.1474871158,39.7062364268,9.18358323593e-12
-78.0218448679,38.0958873403,9.43288007421e-12
-83.5975573026,38.1425690231,2.3486135505e-11
-67.4663072824,36.1162436004,2.30646370589e-11
-56.6321668792,23.9293976076,3.56241776172e-11
-375.049690489,1120.97485293,11408.0379073
-93.2206100802,36.6973662609,3.08572643425e-11
-83.5661740271,38.6639657377,6.05229332554e-12
-74.838781883,37.7672510608,6.16293509287e-12
-63.1831630183,32.5834460826,1.57682257413e-11
-106.223769763,31.0436367081,1.5421422593e-11
-62.2764004122,29.7471850639,1.70992213424e-11
-65.9267509445,35.5911329073,6.99599613678e-12
267.043067728,-1845.02556456,6842.04154179
-68.2237683535,36.8965108006,3.64141506967e-12
-114.674396859,5.10383811184,527.394408987
-95.0289063721,36.3089819756,5.8956215824e-12
-60.6308904479,31.5127335321,8.40336799225e-12
-94.2868530677,38.6377790212,2.96335331264e-11
-111.848514671,21.2584664215,9.25967599279e-11
-84.9304263777,39.1471573138,1.85592378027e-11
-102.861452685,32.7182601402,7.41132211138e-12
-86.0381703236,37.8820126401,8.75909471447e-12
-751.569062889,9439.26147017,5127.63694917
-106.966499537,31.602619825,5.24186402595e-12
-99.1133786201,35.1819040423,2.63675546453e-11
-110.75924593,25.2331466862,0.0
-62.6906076759,31.8938006793,0.0
-71.0745577154,36.9102605242,1.36352091849e-12
-74.399299064,38.9940286618,6.33369441171e-12
-73.9100016441,37.8879989913,6.42049223612e-12
-87.2358986792,39.8534971011,9.16395258521e-12
-48.7048045658,25.7285878696,1434.57269059
-17.1034218422,358.881716083,4795.58480959
-62.2245572281,32.2522536927,0.0
-18.6029924052,-0.589721955111,4243.90953228
-58.9850889857,29.01769504,4.26325641456e-13
-86.6585235381,38.2335881298,1.20630837888e-11
-115.479604992,8.70336901411,551.461689555
-32.9408825394,155.572274476,9044.31678552
-80.0324552413,38.1875682095,2.97017877071e-12
-57.1543670011,23.422996753,1.06581410364e-12
-57.6380288787,25.0279979788,4.81874659581e-11
-64.8072619396,34.4858682346,7.60163891148e-12
-82.1510992826,38.8044812548,9.34145887315e-12
-109.999077669,25.8111560175,5.85204334349e-11
-55.4376766741,21.5458991762,6.39488462184e-13
-112.812794517,-4.29914108966,2611.66203127
541.515424727,493.920737897,9247.0799352
-79.6795604275,38.7642394883,9.54868647811e-12
-88.450269116,38.2797314526,1.55414109868e-11
-86.5235517452,38.9625404052,4.26325641456e-13
-98.8042763181,34.9885737557,4.26325641456e-13
-55.3619463827,21.1254515237,5.5537223137e-11
-59.6143723903,27.552891943,3.19950015823e-11
-55.272612387,20.6128779153,8.04691144496e-12
-72.6363974529,38.1347432832,1.0142997206e-11
-109.766751745,25.4496460877,2.9722311164e-11
790.652485822,188.424552978,7657.19880226
-112.724262708,20.1106605155,7.73229447774e-11
-84.2967334648,39.1405204359,1.19036969408e-11
120.901066864,2.10910581583,5258.85227169
-68.1715178189,34.5412802153,9.03769541127e-12
-88.6283707763,38.1483671592,1.82843048545e-11
-57.544053668,25.6794583649,9.1562318843e-12
-62.5128392622,30.5876326746,1.4746346873e-12
-98.4965250746,35.9919233784,2.99559082445e-11
-115.258958064,8.18910030475,288.420199214
-79.9815923441,37.7813388181,8.77102630432e-12
-68.8308198535,36.0640857383,0.0
-1552.42183795,2938.63982747,20061.7972117
-106.726974922,29.9135151605,0.0
-75.4178291272,38.470776007,9.8107747803e-12
-104.542035936,32.5315186681,4.41161649988e-12
-85.8055980624,39.2727192942,9.24102077677e-12
-103.46445938,33.1445418163,3.42124950237e-11
-73.1214613842,38.1908911312,1.59055275516e-11
-55.1541460304,21.7387046084,5.35552513689e-12
-238.21238816,-94.7835974093,15189.3471108
62.3527686401,199.279680929,7662.92054557
-73.8548842897,37.6052404114,1.62288150262e-11
-73.1406796357,36.4549157021,3.02673317581e-12
-75.679235297,39.2417129186,1.93029657149e-11
320.741807908,-7.13486869057,2118.22701994
4915.67621534,36746.5269319,2213506.76212
-1775.71263912,-3088.86115494,13223.0346104
-58.6693951625,24.5839775499,1.51340961622e-11
-87.3186357297,38.2110899579,4.26325641456e-13
-94.4528940684,37.3249244771,3.84383609848e-11
-71.1412700792,36.3481242475,3.03015268821e-12
-109.042358173,26.6814907118,4.12981654187e-11
-96.9744067798,37.0580348245,3.00727529935e-12
-99.2103790021,35.6746028118,1.03562229447e-11
-55.3706183288,24.285458099,8.86448305498e-13
-110.765565616,24.1223680891,8.27503465169e-11
-101.123324175,34.5618320108,6.80270758177e-12
-74.5176189008,38.6753800899,1.2581304129e-11
-68.7371183925,35.7632104992,3.25070867231e-12
-87.8857379052,38.0308139617,4.26325641456e-13
-108.387753881,28.3551878403,8.72458141805e-11
-93.2883101741,37.2510400022,3.99676586812e-11
-53.2560120739,9.41349105282,5.06331575817e-11
-94.8700454775,37.5576610401,8.21138838227e-12
-55.3561203521,21.684859098,1.81365988001e-11
-97.4189393593,35.9385741213,9.73651592835e-12
-58.0573729496,26.7319793452,6.39488462184e-13
-67.3753339284,34.7270447641,4.3382250971e-12
-87.7934484136,39.9778303074,1.90675687045e-11
-60.6069089194,29.4671431252,1.09017040249e-11
-61.1541387586,28.7815403328,1.68560841592e-11
379.496420163,13.2689115705,3717.57238296
-106.177112817,31.4777049951,4.73810090213e-11
-63.6998380963,33.7311231119,3.65492368562e-11
-90.9288190533,37.2254929205,6.80020997727e-12
-112.373748809,21.5225023982,1.02275491565e-10
-90.5092764789,38.4981230637,6.24319532218e-12
-54.8630151055,20.0026994086,3.08257399762e-11
-72.496912738,36.9349760341,1.94836442729e-11
-91.7006102526,38.5500299522,6.06172029975e-12
-66.9514821997,35.5680013211,2.91842899393e-11
-64.1777863042,32.243473941,2.01484464071e-11
-57.1419586357,22.5566804139,3.94017390856e-11
-1398.90845423,-1250.784946,8420.69563029
-65.7616576547,34.4288981054,0.0
157.795188694,-1789.29668187,10118.9808924
-93.2665009723,37.157475557,1.91664988264e-11
-101.114149001,34.5218017564,2.45186532982e-11
-112.631211671,19.4049586923,2.55534770491e-11
-92.4545902105,38.2424765003,3.37538560449e-12
-98.0440172884,36.1768020834,1.75919331256e-11
-57.7740915197,27.0802795318,5.29851585222e-12
-112.192827598,20.8154186639,1.44172593506e-11
-65.0366407649,34.779407233,1.48897780731e-11
-45.9699700871,-1.85532156951,1923.15141395
5177.73935678,2898.41408984,7129.35452509
-64.1162433752,32.9080701386,2.61239486817e-11
-93.0306059582,37.4948614623,7.23245410983e-12
-97.1506509645,36.0921147715,0.0
-80.3900886884,37.6835371049,2.69915021166e-12
-15006.066158,65.3801248233,6027.1127981
-62.3272152573,33.0418621996,7.46653497296e-12
-74.4242032006,37.6108755775,2.98922438129e-12
-57.1712834352,25.4537843586,1.62387472392e-11
1029.2302163,732.56536183,783.713499031
-75.615103246,37.6506380361,6.13531771817e-12
-423.388597316,-373.700591145,1409.37974811
-64.4142450429,33.1796443258,1.86393648202e-11
-60.8509436354,30.5537431394,1.89912737906e-11
-82.9707035785,39.8753919813,6.54359193272e-12
-96.3610207473,36.2499435502,3.8994888847e-11
8612.28784679,34.2545191378,3678.94811315
-65.6893099377,34.3843024901,7.03666034791e-13
-47.5179360577,7.0089456914,7818.38525291
-87.9482809927,38.8122938598,5.99467854857e-12
-81.1533372607,37.9945314713,2.72139480815e-12
-47.1604108925,46.8328608989,2531.4738591
-61.6903135636,-30.4896905542,4752.37190148
-52.7054073105,9.81746315793,5.30841914359e-11
-57.8212925415,28.1534480948,0.0
-94.7640247021,37.7165765899,2.985749945e-12
-71.0068145525,35.7866908176,6.5000261253e-12
-59.3679154543,27.6325931885,1.82496977473e-11
-73.2287377254,37.0057288237,5.2212904224e-12
-94.3020722024,36.3468755381,3.03019262628e-12
-67.2203251634,34.7175561265,0.0
-113.097091632,18.9025370003,2.19942151759e-10
-61.671277186,29.4273333433,3.51466988724e-12
-94.1208152002,37.5988743059,1.85508686047e-11
-87.7361775981,38.2079671119,4.26325641456e-13
-77.444435623,37.9822189373,4.05484174683e-12
-83.7886564963,38.5923511321,1.53339428212e-11
2765.37959904,713.686238695,8933.51032205
-72.1310162586,37.5143556112,9.77129836154e-12
-110.382638898,24.8935799038,0.0
-83.8308959745,37.7862306522,1.14634186417e-11
-54.7598100739,15.9950082331,5.48197659564e-11
-109.932223751,25.8010555482,1.81199621214e-11
-75.1141183359,37.8034612264,1.41322821168e-12
-97.0510897845,36.1378038667,6.70455939627e-12
-53.7681090114,19.7888449897,2.2646852357e-12
-57.9258340568,24.3280391666,1.17760571498e-11
-65.9765250666,34.3170692724,3.91236182794e-12
-102.892575996,32.6876518369,6.05923230248e-12
-88.999885643,37.4592369012,1.47220707402e-11
-37.7286892906,190.768824705,11032.0868186
-60.4851757206,29.4358946608,9.79984369844e-13
-110.53133663,24.9982288942,7.5238602918e-11
-69.812851027,36.5911637025,1.29039092471e-11
-86.8925680616,38.7508241978,9.34843108566e-12
-87.5073478558,38.3909134259,8.78155243597e-12
-59.2963940411,29.1122135149,1.24115551646e-11
-105.521975828,30.0941016495,1.25533725e-11
-73.585235065,39.1424960423,0.0
-91.779036156,36.6922305768,6.28485000502e-12
-93.8405528245,37.7049069433,6.96371822554e-12
-68.0147046601,35.977964343,6.72254573622e-12
-97.2279985019,35.402673166,1.44577106613e-11
-83.6586075079,39.4711669694,3.29099768301e-12
-78.9933050033,39.2987648732,1.60411215867e-11
-91.7067002274,38.277056137,7.93590476443e-13
-64.8467458037,31.8043469523,7.51302548102e-12
-103.263581212,33.9642412479,1.82794968663e-11
-100.141293262,34.9658794269,1.64859311931e-11
-85.4658983034,38.1003451396,3.3818693088e-12
-56.446152566,26.2160424245,0.0
-53.8268764197,-0.665372320906,766.712883149
-65.0559525695,33.6842222907,1.46258947213e-12
-75.603762724,36.16771327,8.93649997279e-12
-52.9483666715,13.3147962616,3.41967663111e-11
-62.8387359937,33.0122143162,1.2096143719e-11
-59.917695325,28.2989468633,1.74532846991e-11
-73.7860655203,37.3137131527,0.0
-68.8132566148,36.0714387644,2.68007976708e-12
-107.074973819,30.0666567213,3.7050760195e-11
-68.2528649396,33.4028009137,1.01822182187e-11
-94.3721742401,36.1815437016,1.36274535389e-11
-75.7161389163,37.2617588543,6.34106241189e-12
-63.3410928381,31.6254619226,8.56812315696e-12
-69.3067431662,37.7426321065,3.19090225969e-12
-68.8443911449,35.6228763461,1.88607915436e-12
-65.0979504735,33.4345760885,1.28393419353e-11
-106.199131992,31.7421432435,0.0
-92.4713093358,36.5656280204,2.66018774618e-11
-95.9334878871,37.4974800806,1.63712325906e-11
-90.7744591958,37.3786129188,2.84116871314e-12
-60.7831296213,171.582099813,5640.08424731
-97.0701672688,36.5961262447,0.0
-81.508821283,37.3606166906,1.44600503384e-11
-55.4310090448,20.841897144,2.71993262147e-11
-63.9650157981,33.4742839808,3.22850182886e-11
-58.5987980187,768.664789512,5920.19195446
-78.8182679259,38.7605589705,7.89814652398e-13
-53.3512757101,14.8763626233,2.95529309822e-11
-295.845394376,168.693625637,928.656514622
-61.5637316447,-372.139370816,4261.12834976
-100.390988865,35.6196784342,9.95112831302e-12
-95.3870104557,37.1923276262,3.00290927562e-12
-105.905792881,30.4984670315,4.18831921204e-12
-75.970568886,38.5978479137,1.79494365944e-11
-77.0562763368,38.1646510279,7.034608846e-12
-71.6930075076,36.5728909162,1.87386975355e-12
-86.3142603161,38.6442877643,6.05392312421e-12
-82.6759552513,38.4713450414,1.47418446565e-11
-64.9105243882,32.111247634,0.0
-120.918343527,1084.3306113,1608.89059643
-75.7762828079,36.3903810161,8.91475653121e-12
-52.9960953279,8.92781569616,3.34024906456e-11
-67.0285579519,34.110482097,4.74188390805e-12
-88.8702334719,39.1265063422,4.26325641456e-13
-64.9555412516,33.3602874566,3.55788866056e-12
-105.179291243,31.4941825509,1.3773419234e-11
-52.0790982224,10.860306089,592.425721451
-66.4924041547,34.1855887336,3.30089322331e-12
-35.7810817571,-614.278341344,6166.26975257
-79.4458016478,39.6065759959,5.97341779187e-12
-280.429893589,-182.617339464,4728.81119942
-62.4958204133,30.0602712874,7.68326929387e-12
-121.428060443,-0.793729970676,1794.14736308
174.777690204,693.58991166,8409.55133918
-101.291147305,35.1280363172,1.71643307504e-11
-74.9166497299,36.72332784,8.05497802106e-13
-55.3018352811,21.9377072023,1.93258290626e-11
-56.6069699158,22.1197392624,1.86003879789e-11
-55.1094514124,21.8427332686,5.28694126288e-12
-2371.4832185,415.681106516,5875.79209898
-63.1299965255,29.9665106694,3.94840141184e-12
-56.6397836101,24.1450576261,2.4700487925e-11
-983.70159965,-522.805337664,7833.17992874
-1862.34336038,379.86299454,5965.12573225
-91.0851469682,36.8822852609,6.37057690579e-12
-53.91029342,18.1792766309,2.48078468432e-12
-124.962260966,31.3389010544,2238.73442472
-97.1630463499,36.0309208024,6.71235376791e-12
150.218217213,954.443666452,13756.8026377
-90.7738230356,36.8769810444,5.71673302515e-12
-102.533722871,34.0626352495,3.48320934114e-11
-44.2457099855,-2.11048868384,2206.00426618
-60.772339147,29.7801291625,1.29089751311e-11
40796.8155821,-526.421727885,6942.43110913
563.535289657,1615.56318791,4148.12476467
-64.7990360307,32.8242546458,7.97352035523e-12
-66.9522180878,32.6588537904,3.5761266392e-12
-73.8058145128,38.074746142,2.71848918704e-12
-70.7117734116,36.6302005407,1.56898143181e-11
-67.0772496528,33.0673991629,0.0
-96.4506253381,36.0733091509,1.19824820064e-11
-56.8278780014,26.5242315009,2.56915498608e-11
511.539223999,1553.18686692,5746.95884684
-55.3159882209,22.2082143524,1.19672546511e-11
-110.983120233,23.5496758531,5.05087043248e-11
-46.5339363912,10.1308088569,1558.59176299
-85.8775802686,38.9900739017,2.65090980704e-12
-56.5582329041,23.6683194283,2.62585252586e-11
-82.197492289,38.0035526994,3.46584859878e-12
-64.5945530186,34.7686757377,1.84046184082e-11
-76.1205218901,38.1180402435,0.0
-101.393102264,34.0801423543,3.34913151935e-11
-86.3006375971,38.7401910167,6.00071126226e-12
-56.6786057972,25.2407489709,3.37722384963e-11
-99.7670761265,36.4268965807,3.42899711641e-11
-99.7752453765,34.8024236296,2.39963582433e-11
-21.7806224329,1.41355723917,6862.01313782
-186.329849625,588.214001354,34548.4454105
420.601152947,2013.79361345,6950.45183663
-64.9109085619,33.5609241651,0.0
-72.7420641548,36.0047306255,1.09671969931e-12
-102.941399635,32.7245547963,5.49143329074e-12
164.84253715,151.58888244,4229.7980785
-77.6415734786,38.2177418871,4.26325641456e-13
-63.9934254545,34.1690366872,8.24282577183e-13
-88.5677151026,38.0951786864,2.71774823943e-12
-75.944301847,38.3732465131,1.60739865485e-11
-92.5356791244,37.7889334751,1.54250601675e-11
-66.4211441153,32.7616186641,3.8064030236e-12
-52.9437121224,9.18367769097,400.929998339
-62.9973682346,33.2642600445,1.46426474539e-12
-445.132940268,4298.57223832,5344.3985195
-94.5406537296,36.3359737439,1.67417224514e-11
-61.8301006536,32.2081175171,1.24540154672e-11
-104.07164805,31.6620826544,4.9899494371e-11
-90.2718810776,37.546469654,1.73308837721e-11
-90.3080457712,39.7407722095,1.61964481826e-11
-53.8701261225,18.0150871046,2.22802647425e-11
-63.225405425,31.3581352957,0.0
-53.19894291,12.5666828219,6.24116160204e-11
-71.1381329418,35.6178925732,3.49726282795e-12
-89.8775462129,39.0453286472,9.35874205915e-12
-63.9778863958,32.0407711777,1.49475448392e-11
-59.9244544849,29.2811353412,4.43846330267e-12
-97.9545947498,36.5104145704,9.46695345775e-12
-61.0244781241,28.4566174897,2.03824106479e-11
-103.054807458,32.9834083029,3.18000090381e-11
-100.896728193,34.5132487098,9.86172963183e-12
-93.1500865675,37.2225883966,9.31731915572e-12
-87.8854233868,38.2632481324,6.08534566044e-12
-78.0991607976,38.3470226824,0.0
-85.7213049334,37.985526683,8.74679841915e-12
-84.3512628654,37.408905224,2.03183443641e-11
-69.8261692285,36.7385628522,3.46612813588e-12
-47.3431421557,38.3137235836,2075.54803325
-85.6100612081,38.9746591294,9.28020464697e-12
-97.4889829266,35.448786891,1.45314289711e-12
2270.28217209,-14.3443530998,5987.71136541
-186.320825988,-352.26918274,4302.43764755
-59.0059632667,25.6670969719,4.39423331972e-13
-90.4423433203,39.6418500177,9.28069786665e-12
-110.412815457,24.9239031071,8.34453895526e-11
-91.2111163817,37.0381144176,8.55858853645e-12
-65.5188483797,33.0643879611,3.56561791845e-12
-55.2058016099,21.4714441102,3.53192588211e-11
-68.4134989225,35.220305289,1.00292391292e-11
-67.3914113948,33.7449971208,5.22387645411e-12
-67.5641169406,35.7824108371,7.3128147374e-12
-95.139067105,36.7931514179,3.81623461698e-12
-70.2021657243,34.8410589368,6.99805028603e-13
-61.6872502353,29.778348818,8.1391511253e-12
-53.5685889818,1758.65276925,106316.879118
-108.444178442,27.2583892538,0.0
-103.77019714,31.7686645788,1.47170732533e-11
-52.7813454366,11.4551435579,7.13470227897e-11
-61.5995664806,31.4087506382,4.48389276497e-12
-11.4281475814,268.872868748,16022.9220024
-62.1910299991,32.835999755,1.04982803263e-11
-59.1833649791,28.3175483149,1.91317066913e-11
-71.6723471308,35.7384715914,1.54312745915e-11
-52.4807732988,-2.42810163693,1210.12212276
